,0,1,2,3,4,5,6,7,8,9,10,11,12,13,14,15,16,17,18,19,20,21,22,23,24,25,26,27,28,29,30,31,32,33,34,35,36,37,38,39,40,41,42,43,44,45,46,47,48,49,50,51,52,53,54,55,56,57,58,59,60,61,62,63,64,65,66,67,68,69,70,71,72,73,74,75,76,77,78,79,80,81,82,83,84,85,86,87,88,89,90,91,92,93,94,95,96,97,98,99,100,101,102,103,104,105,106,107,108,109,110,111,112,113,114,115,116,117,118,119,120,121,122,123,124,125,126,127,128,129,130,131,132,133,134,135,136,137,138,139,140,141,142,143,144,145,146,147,148,149,150,151,152,153,154,155,156,157,158,159,160,161,162,163,164,165,166,167,168,169,170,171,172,173,174,175,176,177,178,179,180,181,182,183,184,185,186,187,188,189,190,191,192,193,194,195,196,197,198,199,200,201,202,203,204,205,206,207,208,209,210,211,212,213,214,215,216,217,218,219,220,221,222,223,224,225,226,227,228,229,230,231,232,233,234,235,236,237,238,239,240,241,242,243,244,245,246,247,248,249,250,251,252,253,254,255,256,257,258,259,260,261,262,263,264,265,266,267,268,269,270,271,272,273,274,275,276,277,278,279,280,281,282,283,284,285,286,287,288,289,290,291,292,293,294,295,296,297,298,299
abandonado,0.01235991,-0.025606636,0.0025347231,0.029408518,0.04342465,-0.010721569,-0.0017485023,0.0201624,-0.023202965,0.033368364,0.03550222,-0.021036012,0.010323164,-0.016770002,-0.010155071,0.026759421,0.039918784,0.014707668,0.007222606,-0.04952187,-0.023154767,0.0058704377,0.0036799992,0.031951282,-0.027922017,-0.013987765,-0.04300998,0.026414774,-2.0369887e-05,0.020473428,0.022395238,0.027493376,0.009896966,-0.06954604,0.015893873,0.002684922,-0.011300134,-0.01956677,0.014193075,0.03639441,-0.026149204,-0.02844143,0.010148091,-0.02594749,-0.0026703393,-9.83547e-05,-0.0033005914,-0.0046166833,0.04660438,0.029989975,-0.022165349,0.03368777,0.015615685,-0.0019177989,-0.00032645464,0.019805538,0.046444334,-0.030443817,-0.045966182,-0.014745191,0.024517467,0.008392128,-0.016534206,0.02399734,-0.05253678,-0.061819334,-0.013637892,0.035248544,-0.032531213,-0.016219003,-0.012535105,-0.02124752,-0.014853414,0.030576587,0.021867588,0.008424292,0.039976552,-0.044858005,-0.005149503,-0.0039210003,-0.040625736,0.051805567,-0.012369092,-0.025432726,0.027938776,0.0051319855,-0.022252731,-0.030700978,0.021207882,-0.040928468,0.004072757,-0.005285158,-0.014686725,-0.06616006,0.047958255,-0.0036323145,-0.026680257,-0.02297366,0.0055689598,0.015994158,-0.011207874,-0.013295949,-0.001394589,0.0062112613,-0.0036510031,-0.009199098,0.007672096,-0.025802435,-0.001010912,0.018843647,0.016578697,-0.028564211,-0.003995781,-0.011834431,0.0141875595,0.0080579715,-0.07174664,-0.024929767,-0.003626263,0.038395658,0.03279154,0.049002502,0.024082286,-0.03654825,-0.01867462,-0.02182424,0.006353908,0.062315874,-0.030092664,0.0007996998,-0.0057986868,0.05513158,-0.004365651,0.006242769,-0.02615725,0.04722281,-9.2275026e-05,-0.031409066,0.047002744,-0.012867335,0.019741168,-0.009008888,-0.07156884,0.016998794,-0.012266894,-0.028481679,0.010176105,0.022784332,0.0012470136,-0.03560098,-0.01797286,0.0017212981,-0.026858522,-0.03135515,0.03937772,-0.04392263,-0.032223895,-0.0007413956,0.006548969,-0.014728167,-0.0059856996,0.00964693,0.010617162,-0.001588331,0.015307819,-0.036972895,0.0057653077,-0.04985397,-0.020781897,0.013862377,-0.00181373,-0.0012622881,0.0030518726,0.0041857376,0.014258261,0.0072026867,-0.04107577,-0.03658253,0.021741308,0.008737605,0.08409291,-0.0019938233,0.0049209427,0.036280267,0.009004492,-0.011730706,-0.0035113012,-0.0064969715,0.019199243,0.02544226,-0.017910678,0.028428541,0.03113899,0.037222654,-0.009361092,0.022450827,0.028575178,-0.027993279,-0.036077756,0.016382748,-0.016808398,-0.019332645,0.03215864,0.025081797,-0.00030773215,-0.00017463675,-0.020096656,-0.05482815,0.009719093,0.0031341256,-0.010601074,-0.00097095873,-0.0053727534,-0.008937706,-0.004288632,0.013921784,0.00040695278,-0.06919135,0.020870017,0.043107945,0.008423132,0.02381583,0.022992887,0.02530495,-0.009525455,0.043142587,0.004228154,0.009649996,0.0072049624,0.024646439,-0.010439785,-0.019665923,0.04505365,0.0068269023,-0.016559906,0.007452079,-0.019016007,-0.00078821887,-0.017175954,0.011735538,-0.057772473,-0.015236393,0.0106474105,-0.018143764,-0.061561663,-0.0486682,0.024813203,0.04011897,-0.0065157423,-0.035467498,-0.004854219,-0.022350429,0.06320241,0.014966522,0.024732653,0.0003014,0.020552937,-0.010005161,0.015930232,0.025183959,0.016744623,-0.005828149,0.0049810167,0.022179801,0.015487037,-0.015541241,0.017120354,-0.026338743,-0.008101512,0.006366401,0.028020607,0.028096415,-0.036784116,0.008522455,-0.009533373,-0.037313215,-0.016123999,0.010197084,0.016528627,-0.0004736624,-0.0020055291,0.032661628,0.008103255,-0.00023273668,-0.0056894785,0.034914974,0.03490176,0.03928931,0.036959514,0.0036581424,0.016009625,-0.08799325,-0.008631042,0.00091037777,0.015012958,0.01714017,0.0063402345,0.0101980185,-0.0058322246,-0.00081679475
abejas,-0.0064843902,0.056490637,0.07177341,0.008968605,0.17834379,0.045052953,-0.084328726,-0.003803046,-0.047980953,-0.050679605,0.060795326,0.040777955,-0.0132642,0.096191086,0.04124323,0.022024017,-0.04579038,-0.035330776,0.06767557,0.09572839,0.021946765,-0.110913016,0.0067916326,0.077096984,-0.11296507,-0.026490401,-0.15229592,-0.01661494,-0.0022928938,0.06001064,0.061764352,0.008853093,-0.0072205625,0.029986376,-0.15853822,0.03259928,0.030871648,0.07570672,0.0038379715,-0.0037539438,-0.08370109,0.06639572,0.037849642,0.041765783,0.06789747,0.04832313,0.0062313653,-0.055104006,0.041464113,0.036704995,0.03402474,0.06617196,0.020663824,-0.03665181,0.079973504,0.025128078,0.09267143,0.05342986,-0.00709786,-0.12270006,-0.07195706,0.033198208,0.08614008,0.08227916,-0.07106161,-0.050977737,-0.021917222,0.04337879,-0.1109298,-0.016542539,-0.045304194,0.14972138,-0.057832755,-0.14814076,0.057045795,0.021249976,0.03289697,-0.00532852,-0.03176671,-0.031442612,-0.010347033,0.12138325,0.07535954,0.14943956,0.07473682,-0.026535567,-0.0021891058,-0.059074063,-0.022119524,-0.009474872,-0.095958695,-0.03740821,-0.008290747,0.023804693,-0.004329267,0.02280026,0.0819532,-0.02024842,0.071196154,-0.095552936,0.024067577,0.016121255,0.07799969,-0.014527634,0.015911778,-0.021189958,0.079352796,0.06596203,0.1098087,0.0113004325,-0.04022739,0.015181661,0.09496899,0.027591813,0.050719686,-0.008132668,0.11793144,-0.06521602,0.0043128133,0.015749235,0.0038871854,-0.085154705,0.008382076,0.05991283,0.086316064,0.011993139,-0.0233166,-0.027645955,0.022033537,0.028941084,-0.084048286,0.094087794,-0.039364055,-0.0016247481,-0.035253674,0.037656706,0.05991121,-0.0069168136,0.012293902,0.018317023,0.07696013,-0.042102683,-0.0094957305,-0.054965556,0.023841977,0.07612858,0.08084757,-0.058352757,-0.017088536,0.08162312,-0.0026520118,-0.02721766,-0.037499715,0.050059326,0.08848898,-0.06775729,-0.059265513,-0.08197386,-0.046057414,-0.022829222,-0.07974325,0.01957184,0.06171316,-0.0643622,-0.020212455,0.076260135,-0.0007304851,0.041709773,-0.016795805,0.070831165,-0.06602804,-0.028197432,-0.049719535,0.079895936,0.10883955,0.022519039,-0.07537101,0.055636235,0.012721027,0.018266218,0.07154671,0.08555138,0.05549117,-0.0048975833,0.0094720125,-0.06628667,0.014693749,0.029135415,0.018654365,0.06415289,0.13348243,-0.04741955,0.050059088,0.034104537,-0.018281553,-0.07038911,-0.008331427,-0.015074226,-0.012569475,0.057189114,-0.0606144,0.044988774,-0.073318884,0.023184977,-0.09399235,-0.058714025,-0.006824118,-0.12817723,-0.02844647,-0.027030472,-0.05895921,-0.030562062,0.029683232,0.09128912,0.07186101,-0.06582893,0.06562697,0.0754073,0.021427948,-0.0019541136,0.043640308,-0.09675514,-0.017038489,-0.0024941587,-0.16095825,0.06692366,-0.008867382,-0.027847338,0.00911363,0.07054368,0.06765171,-0.010966063,0.0030555513,-0.004836918,-0.092824146,-0.066057965,0.0060264515,-0.004620356,0.015535617,-0.05108095,-0.08213797,0.008277023,0.08098018,-0.09857541,-0.13281415,-0.103873864,-0.09726985,-0.11105164,0.11819563,-0.05810237,0.03285726,-0.05474019,0.04689256,0.019630851,0.0037575979,-0.043569796,-0.032666728,0.011644008,0.0015088156,0.023878379,-0.058782976,-0.023103606,-0.055466026,-0.018179534,0.019930657,0.027654832,-0.026571449,0.029845381,-0.12564622,-0.020141644,-0.0035190172,0.017750734,0.11502664,-0.17636535,-0.06591864,-0.10729977,0.067675605,0.06429741,-0.08805828,-0.03825409,-0.015052046,-0.029712802,0.11539656,0.04551073,-0.05632633,-0.00104606,-0.04880541,0.010279993,-0.05195298,0.0397209,-0.03127853,-0.09841095,-0.022809222,-0.05624361,0.018391525,-0.008622283,0.06822415,0.0045357696,0.034439195,-0.06696934
aborto,-0.11395651,0.0010082185,0.029912254,0.06831777,0.105360985,-0.022852477,0.06558296,-0.026958883,-0.06214584,0.094744965,0.07297037,-0.0319217,-0.07552632,-0.004211724,-0.010367642,0.10335133,0.074503146,-0.09425226,0.050846867,0.027351726,0.020901408,-0.020594902,0.017667895,0.072138794,-0.055039566,-0.06506343,-0.035205685,-0.116168156,0.07452311,0.011155748,-0.063653104,-0.042248733,-0.07794845,0.02329447,0.11117466,0.10533868,-0.036045212,0.05761633,0.020253282,0.12226033,-0.042487983,-0.050829887,-0.03472908,0.089125365,-0.025194917,0.06769939,0.03458748,-0.058025904,-0.029136663,-0.03542055,-0.028583983,-0.017826814,-0.006640362,-0.08846022,-0.049091343,-0.028016392,0.0325597,-0.11495398,-0.01501016,-0.1278829,0.07641475,0.023934904,0.019952761,-0.091844305,-0.03396095,-0.041443594,0.055969663,0.055068683,0.08274538,-0.07129,0.032425776,0.0035356828,0.0037844584,-0.013105203,-0.004692348,-0.04045712,0.09221859,-0.057734657,0.029549405,-0.037820674,0.043722894,-0.022561362,0.05386014,-0.085886806,-0.014415616,0.00079761294,0.05036019,-0.014282443,-0.04156422,-0.05157312,0.034063723,-0.0072300322,0.03831558,0.040599473,0.014945644,-0.04674687,0.06555233,-0.055975307,0.031048631,-0.10669382,-0.054077446,0.017321192,0.0042271717,0.06102996,-0.06851953,-0.021424249,-0.034746207,-0.067262,-0.0071120085,0.067161225,-0.023571547,-0.021010509,0.06698385,0.026979933,-0.006567289,-0.0061889444,0.06022814,-0.0012558174,0.029372698,0.047640115,0.027001312,0.04905733,-0.07704127,-0.047771428,0.07650882,0.03372787,0.033408646,0.01792686,-0.060919583,0.039052483,0.010482651,0.07294844,-0.08540199,0.050961137,-0.019519763,0.10329536,0.028707245,-0.02430756,0.08993226,0.031303175,0.16976705,-0.0027185634,0.0213736,0.030674245,-0.12417986,-0.028738003,-0.18271913,-0.0062705977,0.013251616,0.071601495,-0.16719422,0.010667935,-0.0966361,0.09893551,0.07104382,0.033389583,0.023450453,-0.010392064,0.11152778,-0.04976488,0.06261091,0.0982659,0.016170254,-0.029009234,-0.09861721,0.04364664,0.0178794,0.058617868,0.0072838604,-0.10574798,-0.030007672,-0.011747815,0.023176853,0.056141116,-0.07812006,0.0706654,0.08678017,0.052772183,0.03601579,0.061633058,-0.0031116218,0.118443504,0.07047184,-0.006104079,-0.00052616524,-0.03346405,-0.030918937,0.0049282075,-0.055168875,0.037322234,-0.031567685,-0.017639248,-0.030308131,0.029509429,-0.027385185,0.023554614,-0.040192157,-0.052859683,-0.04050864,0.019918974,-0.055100895,0.06998376,-0.041530453,0.076410905,-0.07074179,-0.023090398,-0.07427331,-0.09800883,-0.04082119,-0.10276679,-0.051154472,-0.057483625,-0.0026199713,-0.030214226,0.075846985,0.047388885,-0.021313474,0.019279271,0.082307875,0.10413371,0.101978704,-0.0135418745,0.0051966785,0.040428907,-0.027461683,-0.008738035,-0.0707696,-0.07253071,0.08858645,-0.07978685,0.07530283,-0.13486712,-0.042469844,0.124528065,0.0386348,-0.07009587,-0.06767639,0.004021453,-0.011813765,-0.09424841,-0.052321207,-0.038225323,-0.13411792,-0.054028023,-0.10113156,-0.015827322,0.1286576,0.086785614,0.044477634,-0.07781015,0.003288798,-0.05170735,0.0898518,0.051686294,0.04248288,-0.07068228,-0.0064356686,-0.054535937,0.15668395,0.00023773909,-0.026673442,-0.040159203,-0.04170167,-0.06553898,-0.0050215973,0.1278443,0.030223336,-0.065142676,-0.072316855,-0.035193037,-0.074767336,-0.06845382,-0.018339735,0.014436956,-0.038873143,-0.056715656,-0.022643859,0.08434487,-0.1221533,0.0020869956,-0.16051753,-0.048078846,-0.021596413,0.016186811,0.059081126,-0.08853291,-0.008420154,0.102410376,0.05237187,-0.06359997,-0.074713156,-0.014389003,-0.025492754,0.014879858,0.0042545684,0.05512768,-0.037741028,0.01077495,0.058252703,0.03984768
abrasador,0.018410055,-0.013558542,-0.016788883,0.035603177,0.046319243,-0.044744413,0.03560032,-0.01638935,0.014308418,-0.01874518,0.07740499,0.00065710535,-0.05045626,0.019797117,-0.011118209,0.027945548,-0.08417454,-0.013428923,0.042711027,-0.015681844,0.0023279525,0.05682099,-0.0038472465,0.011785939,0.0029708701,-0.009358545,-0.010532074,0.09674775,0.04689961,-0.020759527,-0.025969867,-0.06196129,0.06371089,-0.02301396,0.027508557,-0.030969098,0.011496349,0.0334421,-0.022938006,0.025513712,0.0004477678,0.005224448,-0.009390503,0.0059144394,0.012487538,0.0052420627,0.038593408,0.0634958,0.070615456,0.0480103,-0.0041963123,-0.011781896,-0.004934927,-0.02653341,0.06582084,0.02111949,-0.03166613,-0.01671189,-0.016935615,-0.03951371,-0.044879496,-0.005929459,-0.007841941,-0.03907018,0.065949775,-0.09433128,0.04434909,0.043637596,-0.007087024,-0.038324747,-0.09173781,0.040028714,-0.06026924,0.03776303,-0.0010265146,0.05483939,0.00845924,0.051360544,-0.05135151,-0.04120626,0.018472329,0.01624129,-0.035721343,-0.049867406,0.005493308,-0.08813903,-0.06811639,-0.017973248,0.009775016,-0.06224887,-0.005915502,-0.042720012,-0.05242519,0.051708486,0.022430569,0.06280634,0.007057911,-0.013575424,-0.0212277,0.08079481,-0.02147323,-0.013379453,0.008326739,0.09309963,0.017564708,0.026890106,-0.06287877,0.046552416,0.026259042,0.022744674,0.0269631,0.008795852,0.011293355,0.04443882,-0.03297466,0.020633303,-0.043409348,0.006177628,0.039449945,-0.0037007937,-0.08239405,-0.05280105,-0.022015445,-0.01599425,-0.011593532,-0.012334515,0.032437053,0.031692218,-0.033947427,0.013624756,-0.006457404,0.04387737,0.018865526,0.015016055,-0.012386084,0.015436167,-0.0032028165,0.0068754987,0.045205258,-0.011522406,-0.038358755,-0.0069544725,-0.021284424,0.04651871,-0.045584075,-0.061140288,-0.0013860185,-0.00028062332,0.013739987,0.05501194,-0.0017835703,-0.0058841775,-0.071079426,-0.01436913,-0.048535958,-0.037193045,-0.043725096,-0.012510968,-0.011654041,-0.008817466,-0.001525518,0.005705471,0.02682872,-0.053734604,-0.00973174,0.027332764,0.013775419,0.08820183,0.004882396,-0.018672103,0.09492035,-0.0440527,-0.027117068,-0.06382977,0.024827095,-0.004910308,-0.013430275,0.005798154,0.030115496,0.042716987,0.03615206,0.024192663,0.0652867,0.051909987,0.017390259,-0.00905118,-0.013661174,-0.058053523,0.04064988,0.017665539,0.023404445,0.040854156,-0.055579286,0.043867942,-0.02719899,0.0293392,-0.014788683,0.013353338,-0.08195097,0.033156514,-0.02215869,0.07711726,-0.04072752,-0.0065519484,-0.06077083,-0.004473809,-0.014137402,-0.07917159,-0.0028698742,-0.014308,-0.024308491,-0.019434862,-0.020816209,-0.064616755,0.013023052,2.5819754e-05,-0.021287914,-0.03070562,-0.04238147,-0.0058148745,0.017240878,-0.010187703,-0.03388758,0.009959406,-0.010892687,0.056147672,0.06336887,0.01606627,0.027741967,0.014359284,-0.010211238,-0.075369164,-0.01868913,-0.0050955294,-0.0075478856,-0.00026786036,-0.018192414,-0.029363625,0.040065203,-0.03111628,0.02751477,0.024481965,-0.02858845,0.005954981,-0.04279054,0.05226167,0.047744114,0.07574564,0.07883211,-0.04823391,0.03170474,-0.0390174,0.025360104,-0.020707041,0.014726416,-0.025399227,0.030634142,0.03491227,0.032939345,0.09138387,-0.108529836,-0.018144233,0.0069556986,-0.046359133,-0.023923129,-0.08542325,0.044908088,-0.04963558,-0.016927,-0.01874929,0.039946586,-0.002559755,0.027618386,-0.014807782,-0.006544648,-0.06734836,-0.006590187,-0.03819267,-0.011592582,0.012200793,-0.02421323,-0.0021116456,0.010130435,-0.008523142,-0.04294161,0.018615123,0.023755483,0.0013819735,0.05995922,-0.0050221393,-0.029715292,-0.032544468,0.0039410703,-0.0026468826,0.061305784,-0.049335662,0.07212468,0.00068472524,-0.009070478,-0.0052916235
abrazo,0.004405399,0.045446716,-0.013912559,-0.07478124,0.024688203,-0.105336666,-0.05133616,0.019114453,0.005728587,0.02220912,0.13876578,0.09374249,-0.019967722,9.4483796e-05,0.03732062,0.06236869,0.03948284,-0.00463548,0.054337133,0.06283523,-0.07409887,0.07214655,-0.026085932,0.07868004,-0.0799108,0.008943168,-0.0021172136,0.009399848,0.050617117,0.10691638,-0.035428654,0.031057518,-0.06695707,0.0069263713,-0.00761078,-0.062425,-0.008824436,0.012971988,0.14545295,0.069448575,0.04497116,-0.055420555,-0.08808595,0.04373838,-0.082300104,0.1252859,0.06476335,-0.038210966,0.04779646,-0.11669024,0.0055067525,0.107072175,-0.012282066,0.022069672,-0.07884584,0.09068921,-0.07165859,-0.058248736,-0.0085542435,0.002716863,-0.037643924,0.011221644,-0.0043236837,-0.025158301,0.05103757,-0.057104994,-0.00414979,0.059268214,-0.037512824,0.028802712,-0.06670045,0.07034123,-0.0006486511,0.050592124,-0.079278685,0.029759914,-0.0019313454,-0.055220753,-0.092064284,-0.020431504,0.08484147,-0.065475605,0.015356464,0.03486233,0.03747219,0.0009906471,0.038074594,-0.043565966,0.07970069,-0.0047409385,0.034934632,-0.060500316,-0.08977916,0.021902543,0.062328625,-0.0060448563,-0.0049545877,0.021758731,-0.057182442,0.065315895,0.030504804,0.0996411,-0.054820575,0.07600682,0.058132865,0.08674407,-0.033464096,0.013757926,-0.021361249,-0.019314447,0.009304589,0.044865556,0.0032066882,0.008084468,-0.10664652,-0.03189231,0.04954228,-0.026160145,0.10084786,-0.08493421,-0.038138803,0.02286535,-0.044823654,-0.07721487,0.018407334,0.023429718,-0.01145617,-0.02155106,0.01298582,-0.03433143,0.008045309,0.12795563,-0.097758874,0.013960014,-0.07135801,-0.035256185,0.012114858,-0.042418443,0.040239662,-0.021420728,-0.023696782,-0.07234074,0.015570064,-0.0017269105,-0.10831691,-0.028288797,-0.0432925,-0.035632037,0.049603615,0.04104965,0.0799645,-0.026873935,-0.09972974,-0.035683442,-0.06256212,0.024033004,-0.047047026,0.07002635,0.003422001,-0.026578942,-0.046811346,0.033871517,0.06468121,0.021552963,-0.032501597,-0.054870725,-0.008343162,0.036816385,0.04963405,-0.02799156,0.0058270064,-0.077005714,-0.00054217613,-0.0030156064,-0.014719991,0.11946654,0.03493141,-0.012573084,-0.00493014,0.048927587,-0.0322616,-0.014605838,0.033846892,0.080502905,-0.06006218,0.09073035,-0.105402425,-0.04219206,0.014355712,-0.050320696,-0.02637354,0.048845835,-0.06307587,0.02198869,-0.0900397,0.041778095,0.021066025,-0.045251608,-0.12881936,0.09525996,-0.045775898,0.037297823,-0.0013026908,0.041751307,-0.081254065,-0.06118235,-0.06238513,-0.14391045,0.04567963,0.01553719,-0.025732433,0.060012497,-0.08870138,0.03568574,-0.008917587,-0.08456223,0.0085051805,-0.031029215,0.078329735,0.029278237,-0.025217503,0.034179308,-0.021671232,-0.02294027,0.057810217,-0.03688695,0.11190708,-0.0026144653,-0.008984688,0.04527899,-0.09089725,-0.0010177701,-0.01880816,0.03620387,0.005130717,-0.034697186,0.017638529,-0.028734008,0.06483744,0.0061776666,-0.010438383,0.0055034356,0.021053437,0.013982725,0.013620046,0.046643693,-0.07358458,0.11325321,0.10630746,-0.07298904,0.007829855,-0.022836493,0.06008629,-0.00028505697,0.030065143,-0.1003835,-0.036189966,-0.010591155,-0.097638205,-0.020241115,-0.01239722,0.034985922,0.059161413,-0.08641377,0.011312045,0.0032599159,0.008329578,0.010574183,0.0145255495,0.032649197,0.07158275,0.005702761,-0.048568018,0.004475525,-0.014547735,-0.068885304,-0.0055266796,-0.0148306135,0.045738164,-0.06384288,0.007923514,-0.048119538,-0.054448854,-0.06029185,-0.03962653,0.06275302,0.057405956,0.07090117,0.013882235,0.063198105,0.00053018593,0.017835258,0.03584013,0.058608256,0.03295181,-0.005523701,0.05758039,-0.02454621,0.004591611,0.08751052
abrumado,0.004554029,-0.050205685,-0.010304409,-0.009290938,0.03918748,-0.015507494,-0.03457369,0.044323415,0.009508082,0.02942482,0.08309714,0.061247654,-0.00788137,-0.038708307,-0.041615035,-0.0007418599,0.013012015,-0.012828529,-0.008372324,-0.0071287104,0.01741396,-0.027095314,-0.052210886,0.013509512,-0.06937557,-0.036514472,-0.015367391,0.059236508,0.024856534,-0.0061802743,0.07013675,0.0073527354,0.051781435,0.038737837,0.01818383,0.026169589,-0.003423368,0.05464562,-0.009998007,-0.011214356,-0.045390133,-0.051868223,0.0026162672,0.005056507,0.013209364,0.027265236,-0.0162577,0.04176543,0.016524654,0.057184525,-0.0028074323,0.045849394,-0.03927603,-0.00854378,-0.03882291,-0.09562201,0.0008836043,-0.06377165,0.039544333,0.017722594,-0.015846046,0.005222057,-0.022448216,0.032437928,-0.0016980411,-0.04832087,-0.0010987744,0.027137632,-0.018728616,0.0049003237,0.035379548,-0.020251853,0.037448652,0.0705025,-0.026652183,0.071399406,0.025505451,-0.043602575,-0.040999822,-0.046835374,-0.013392651,0.053175867,-0.017958138,0.021927016,0.012964926,0.019000739,-0.00608292,-0.022206668,0.055806935,-0.017757153,0.016554225,0.0060495236,-0.010210042,0.019223692,-0.014440903,0.058109403,-0.06791681,-0.0121967895,0.050859045,0.09828977,-0.019700179,-0.027078044,0.034643535,-0.01705524,0.024991179,0.01974507,-0.021761686,-0.001535348,-0.076489165,-0.021746393,-0.018209677,-0.06954942,-0.031152312,-0.012542302,-0.003010372,-0.06560814,-0.08443529,-0.009082234,0.015249185,0.07637604,-0.02907957,0.011137231,-0.030063825,-0.07148747,0.017712504,-0.010668543,0.011023113,0.06766172,-0.04130808,-0.0092910845,0.030456604,0.047067113,0.02526003,0.029098073,-0.003957177,0.076807275,-0.02164601,-0.02576816,0.064400926,0.025607722,0.037208814,-0.05200533,-0.108965926,0.06331459,0.00083256594,-0.009824663,-0.01951751,0.048652954,0.06582265,0.04771835,0.023738444,0.0015421695,-0.044585567,-0.00839867,0.03473045,-0.09837365,-0.026139144,-0.019825274,-0.00021941644,0.00066284224,0.0490214,-0.0028611883,-0.03788309,-0.028042002,0.008522993,0.0062236935,0.07319341,0.018817397,0.01541056,-0.008458299,0.009577717,-0.042409964,-0.013518847,-0.027235402,0.014986044,0.0040033655,0.039916404,-0.030802956,0.009999967,-0.04205029,0.11116551,0.006290061,0.016685132,-0.006809123,-0.044362452,-0.021363582,-0.047162477,0.005151575,0.105465,-0.043582402,-0.036033932,-0.017959626,0.04145658,0.058905847,-0.051438328,0.064621076,0.019467404,0.012825148,-0.0817562,0.040282667,0.04722149,-0.05257165,0.09050159,0.009999523,0.026603801,0.0482828,-0.024720067,-0.118326984,0.025248166,0.028139515,-0.033316188,-0.019034667,-0.043343425,0.016573459,0.0073467568,0.015255281,0.019411935,-0.080512114,0.06914684,0.08563166,-0.0244874,0.032446362,0.00041424777,0.0023420227,0.021361198,0.010621136,0.049860325,0.009400596,-0.018235927,0.0374055,-0.03465507,-0.01593048,-0.04498895,0.022495989,-0.009521664,0.015300365,-0.0143842185,-0.008666513,-0.005684543,0.025540395,-0.035555948,0.059901826,-0.014557427,-0.006319445,-0.07778166,-0.030689703,-0.00083449896,0.020063724,0.052081525,-0.028932823,-0.046886094,-0.008340485,0.045118757,0.020319479,0.041553658,-0.031402472,0.082534194,-0.021898268,-0.0038130374,0.05561189,0.059671547,0.011362395,-0.023759587,0.05478463,0.052014608,-0.029365623,0.10092192,0.05738897,-0.005849537,0.018840719,0.006084167,0.0339644,-0.03914864,-0.0016333032,-0.06090479,0.031934965,0.027432421,0.01453217,0.042864155,-0.0016334163,-0.046754707,-0.0121438885,-2.0368025e-05,-0.035552897,0.01156793,-0.029886058,0.0007241399,-0.0122527685,0.015381545,0.0018504852,0.011855101,-0.09104781,-0.024152463,0.0020518817,-0.020709446,0.056865282,-0.011474384,-0.029007781,-0.009640346,0.01405482
absurdo,-0.030818304,-0.02758116,0.006967619,0.020394914,0.022669299,-0.017938653,0.046744045,-0.052191895,0.00952987,-0.060554642,0.15531038,0.061708424,-0.07881651,0.019376101,-0.024096405,0.028930923,0.019459067,-0.0114853205,0.046806794,-0.028034173,-0.024852738,0.05501637,0.0031707233,-0.018428182,0.0001096713,-0.022557182,0.011515851,-0.04074807,0.050000105,-0.043525968,-0.022955656,0.017596267,0.03493379,0.0065996237,0.04188427,-0.003791379,-0.0075178198,-0.010155959,0.005135579,-0.016186828,-0.024737054,-0.040680457,-0.049841214,0.067512505,0.034891505,0.028699867,0.021052843,0.034549583,0.034212563,0.035768677,-0.033054437,-0.0023535888,0.016127603,-0.019192439,0.028450174,-0.05373454,0.042609468,-0.030374914,-0.037704222,-0.030073794,0.034774605,0.0069595627,0.06536991,0.04393053,0.012885095,-0.028973533,0.038942948,0.03764563,-0.059577137,-0.019835299,-0.016479015,-0.013500809,0.024639947,0.040060584,0.027473291,-0.020862745,0.061314147,0.023971906,0.029286124,-0.026791,0.004142183,-0.026606152,0.02172848,0.011551087,0.0107529685,0.02936869,-0.0046114293,0.0025071942,-0.018613728,-0.022732459,0.009403012,0.0009927633,-0.0017499278,0.038185224,0.055142015,-0.04006606,-0.05589352,0.0035824266,-0.020456916,-0.08055658,0.0091039175,-0.022569835,0.020622442,-0.03171967,0.05552457,0.03203175,-0.01593638,0.0043793325,-0.03367685,-0.014271953,0.06177549,-0.06506995,0.05396195,0.025691807,0.04387949,-0.0094633205,-0.02238098,-0.009806367,0.046527624,-0.0047138035,0.024355939,0.03272286,-0.10218724,-0.014646218,0.058874965,-0.04349433,-0.0069145276,-0.059719816,-0.011225402,-0.010373317,-0.05319184,0.065446824,0.001335625,0.0412819,-0.077756226,0.04160427,-0.04146856,0.013787101,0.08516595,0.02334054,0.049478855,-0.016690932,-0.036854595,0.020239525,-0.090491146,-0.031999286,-0.02094237,0.03771154,0.04721791,0.001665154,-0.025395392,-0.04396223,0.034588743,-0.01610117,0.026432201,-0.00491054,0.038266197,-0.02352863,-0.059187043,-0.029118503,0.05202664,-0.034057308,0.004980929,-0.038814146,0.009025573,-0.0073548406,0.026030332,-0.032102566,0.017551517,0.032236267,0.0035408817,0.019423634,0.0010018032,-0.04836488,-0.05527402,0.03393288,0.041389313,0.05340818,-0.02089229,-0.03451926,0.04984087,-0.017025674,0.038676176,-0.013935094,-0.007248709,-0.018158915,0.01993998,-0.0019371832,-0.018961942,0.0070709097,0.008601015,-0.047903676,0.04811093,0.032914057,-0.044527646,0.013198295,0.01962407,0.045882035,-0.029718027,0.05305709,0.05158344,0.07033001,0.013653026,0.00086187635,0.0039039522,0.051238615,-0.02575854,-0.08794508,0.03132901,-0.0033366897,-0.032635875,-0.0059053376,-0.0043417946,0.098080255,-0.022252709,0.02831616,0.019793242,-0.061311677,0.034705307,0.011606465,-0.013017192,0.022710832,-0.0055758897,-0.038631234,0.008079878,0.055165853,0.033355627,-0.012521031,0.008341056,-0.0115061635,0.021557966,-0.078576,0.06461661,-0.018909385,-0.057492387,-0.011915165,-0.012940909,0.011790494,-0.013776929,-0.028897405,0.015758963,0.043846514,-0.011224221,-0.01864234,-0.077504374,0.05011183,0.0038550694,0.10560578,0.056358036,-0.04642421,-0.014660525,-0.009393709,0.013033311,-0.015593265,0.050748214,-0.055534046,0.10498928,-0.006134885,0.033062924,0.023261284,-0.004065114,0.014377244,-0.036557283,0.019838491,-0.021000087,-0.012630883,0.020099973,0.0061391233,-0.0018850887,0.058617413,0.023242801,0.01194506,-0.041111503,-0.03552862,0.048743356,-0.07154136,0.0058904514,0.044897646,-0.04396373,0.048174087,0.028605206,-0.072614215,0.019975776,-0.019128172,-0.00064048637,-0.009208527,0.026256442,-0.029055534,0.026539132,-0.029492661,0.027146893,-0.025492467,0.06889213,-0.032866742,-0.05858015,-0.008063252,-0.030087642,-0.012830093,0.04092152,-0.020585945
abundancia,0.03572809,-0.040502775,0.031021906,-0.027364306,-0.016586738,0.039622996,0.0076010493,-0.028135449,0.018354237,-0.044804238,-0.015388694,0.007854023,0.0018768641,-0.028813176,0.0069020605,0.0029694252,-0.008228681,-0.05735548,0.027475348,-0.009823571,0.015370699,-0.055340394,0.007872226,0.017824125,0.020351531,-0.030629866,0.0049820887,0.030460907,0.015986081,0.04513243,0.021853276,-0.0093613975,0.00056380616,0.008315317,-0.032142878,0.025703434,0.010221526,0.02381485,0.01923376,0.035251778,-0.033396397,-0.0111442255,0.008332544,0.03481232,0.045947205,-0.0032473893,0.019874832,0.006252821,-0.0073612384,0.00040929453,-0.0087791,0.010270167,-0.059521336,-0.008120999,0.01472137,0.032313302,0.0054274034,0.033901796,0.040057387,-0.042915907,0.0005440132,-0.018454857,-0.021307535,-0.043194916,-0.029611519,-0.06331771,-0.014747981,0.0074375025,-0.04527408,-0.014634092,0.010397565,0.00065689697,0.036733933,0.023303803,-0.024115827,0.024126837,0.029613137,0.020735435,0.028735943,-0.043315403,0.02236417,0.0031818086,-0.0026093638,-0.016367678,0.03939795,0.032295868,-0.050459716,-0.021128466,-0.023086734,0.019619511,-0.045493834,-0.07329399,0.009138689,0.0069004623,0.035027027,0.02514881,-0.06542194,0.0013265451,0.02463142,0.0062956694,0.009466105,-0.054696552,0.015210096,-0.030303488,0.020272082,0.0058390107,0.026459722,-0.014481533,-0.023967179,0.0023665484,-0.014745753,-0.04008327,0.0072232997,0.037389915,-0.010656576,-0.01503462,0.025701767,-0.033943105,0.0052101347,-0.011005279,0.010422509,-0.032160137,-0.0045206156,0.01551591,-0.014442144,0.024517426,0.005298985,0.021330548,-0.024687106,-0.041311733,-0.07323679,0.046525225,0.0018658167,0.050450694,-0.00396771,0.0068830983,0.037978295,-0.00083652925,-0.004679333,0.026977466,-0.01717905,-0.022047605,-0.0004415802,-0.00042716495,0.011469887,0.0034675214,-0.05172877,0.059657533,0.01002416,-0.00024111383,0.012611287,-0.014860166,-0.019729933,-0.032876212,0.01670366,0.006452527,0.005735068,0.012333158,0.012652544,0.024655275,0.0031207341,0.0043493765,0.032963593,-0.010394057,0.029457526,0.032295186,0.016230235,0.024230642,0.002391109,0.001208043,-0.034637194,-0.025487652,-1.9293693e-05,-0.03417803,0.020155417,-0.0028201425,0.030025367,-0.0021484287,0.04305315,-0.019569661,0.046260297,0.025015213,0.042792004,0.01056704,0.026034705,0.00072280236,-0.001910922,0.020159774,0.017639339,-0.04365274,0.009946396,-0.008951268,0.010967576,0.02161605,0.038713686,0.03136472,0.019876068,-0.010050417,0.03454613,0.03541135,-0.017877128,0.006277399,-0.009149466,0.014446325,0.039227646,0.04770768,-0.0006597622,-0.059847634,-0.0754745,0.0032521645,-0.014504886,-0.012413758,-0.051666856,-0.049033277,-0.006076611,-0.078665204,0.04753641,-0.013620804,-0.02545304,0.0036617713,0.011873567,0.015987746,-0.023715027,-0.015789585,-0.03127943,0.037416145,-0.018136572,0.010225345,-0.0035696914,0.012794957,0.07524738,-0.015871366,-0.031222254,0.002983639,0.03149911,-0.0144811915,-0.0009889988,-0.0012126243,-0.0058363047,-0.035282087,-0.022097522,0.012970928,-0.024549274,-0.023523858,-0.019962426,0.005840856,-0.021889372,0.029426955,0.04613673,-0.017063558,-0.021741785,-0.033148352,0.013153788,0.016365925,0.016720943,-0.022377312,0.03875321,0.00668012,-0.010389849,-0.012849528,-0.014327945,0.016532684,-0.004004332,-0.03709261,-0.015425608,-0.036130197,0.040662587,0.07054374,-0.02388765,0.040978227,0.05151113,0.03294179,0.012776153,0.0143669145,0.007574359,-0.0076474473,-0.0073417258,-0.03871224,-0.049152553,-0.0070568207,-0.027832422,-0.039978668,-0.0052645546,-0.015506413,-0.024782183,0.018776307,0.03709798,0.008133982,0.036951542,-0.023557976,0.008203666,-0.015412292,-0.019908126,-0.010519065,-0.003430673,-0.009360531,0.003958001,0.028565748,-0.02650173,-0.024475016
aburrido,-0.032238442,-0.07151522,-0.009798104,0.025470886,-0.010243801,-0.0027362162,0.012803936,0.056972284,0.03466736,-0.0034272564,0.08710825,0.041505244,-0.011266069,-0.038809028,-0.008588529,0.0140615,-0.013467825,0.008992067,0.07152907,-0.05812333,-0.036566976,-9.4953124e-05,0.01170185,0.051190417,-0.06679223,-0.027388839,-0.045263473,0.055877987,0.0073012114,-0.01957563,0.031667225,0.021778705,0.039161008,0.0013905402,-0.002155507,0.027831538,-0.019624446,0.038748093,-0.025308434,0.017952144,-0.034745928,-0.033801142,-0.046502072,0.01997919,-0.07832917,0.018140713,0.0032707485,0.012027904,0.020935992,0.033029772,0.04300082,0.00062411174,0.03822818,0.016436782,0.03030869,-0.0017986329,-0.001987437,0.027478728,-0.030549407,0.02306753,0.050169434,0.01004699,0.05628375,0.05093974,0.015178321,-0.039759435,0.0067387247,0.02567339,-0.019973585,-0.01860903,0.070340104,-0.028131275,0.04364452,-0.017080646,0.01610146,0.0054844995,0.046796624,-0.041484423,-0.0001968635,-0.022002386,-0.03179554,0.076647244,-0.009709081,0.0020880096,0.042179354,0.02852711,0.0067084255,0.023364127,0.007149261,-0.08908894,0.015950715,0.0035872904,0.003143469,0.032460283,0.04281635,-0.02416819,-0.0669782,-0.033328794,-0.011551893,-0.019401273,-0.007435209,0.00550912,0.007581946,0.005377161,-0.0036155987,0.011945181,-0.04620282,0.05071881,-0.025907185,0.0037648508,0.012061221,-0.04416558,0.04689237,0.001826009,0.03143031,0.026670683,-0.08471327,-0.02557792,0.0009212196,0.040775545,0.011156695,0.04077383,-0.028436994,-0.046120815,0.045377072,-0.005577547,-0.0057476265,0.019315096,-0.033120718,0.032190155,-0.028046753,0.051363263,0.022461712,0.014421044,-0.020551488,0.057320155,-0.04651589,-0.02914365,0.064546265,0.015513758,0.065002665,-0.018303266,-0.031495105,0.035766836,-0.05191482,-0.06934328,0.0015263575,0.053633716,0.045294434,0.009381478,-0.015354497,-0.018718602,0.035534646,0.004161677,0.056765202,0.0009728814,-0.004640089,-0.069057666,-0.008732533,-0.003511829,0.030589763,-0.06007085,0.08608397,0.031283163,0.044508863,-0.026979625,0.009886043,0.016297814,0.0054007596,0.03695078,0.040137585,0.010927816,-0.018460726,-0.015207435,0.009401739,0.013832097,0.0036092976,-0.0028886257,-0.011551653,0.014815501,0.08554685,0.02772486,-0.023356605,0.029395252,-0.041860435,-0.015107249,0.02545772,-0.019744443,0.010661833,0.00930483,0.0329058,-0.013522627,0.032007407,0.031054016,-0.029015834,0.022226663,-0.027648125,0.012334707,-0.068287164,0.043937508,0.010277416,0.0146373045,0.044119596,-0.026644846,0.0010168,0.028247906,-0.02050489,-0.072337545,0.058576006,0.02808906,-0.01614244,0.008811726,-0.018165514,0.018722607,-0.008949352,0.0031443445,-0.0011797909,-0.05711621,-0.014447656,-0.021919979,-0.032104388,0.009656921,0.019932982,-0.025473785,0.0035966332,0.039857604,-0.0049531558,0.024684174,0.029584976,0.006753617,0.01402383,-0.05463925,0.009130053,0.006046996,-0.043178987,-0.0043855053,-0.002697569,-0.05778656,-0.024080886,-0.00062543247,0.0007031054,0.003325678,-0.009727115,-0.017645726,-0.09875565,0.032574918,-0.0023661426,0.07938336,0.026279744,-0.018900981,-0.003988802,0.0036221908,0.048753593,0.023952814,0.05171448,-0.035420638,0.03684512,0.012210027,-0.036497537,0.018035783,0.0037651781,0.052449126,-0.029748289,-0.018577022,0.022907922,-0.0109849125,0.060350817,-0.015329393,-0.033891294,-0.016433427,-0.033020135,-0.034590654,-0.008293872,0.0056914655,0.01324184,-0.035063706,0.017903259,-0.032651342,-0.026832027,0.022313962,0.012305046,-0.03388087,0.0047839386,-0.010932165,-0.0015089682,-0.02329972,0.033805583,-0.058282524,0.02326652,0.007818165,0.020807372,-0.06950537,0.010817664,-0.03163768,-0.010545017,-0.0145468395,-0.012578426,0.026594134,0.059535895,0.030167166
accidente,-0.0015668739,0.057290085,-0.003507737,0.029867787,0.06246074,-0.008625526,-0.0077138795,-0.00595228,-0.027303768,0.005736951,0.06188803,0.013138592,0.0210653,-0.021794174,-0.093126446,0.03002857,0.07118894,-0.08133927,-0.020495165,-0.04084075,-0.02863082,0.042881653,0.01765253,-0.009781271,-0.08424774,-0.0013385545,0.0017387755,-0.0074534314,0.0003942335,-0.023374334,-0.041072406,-0.05961761,-0.007986008,-0.06411533,-0.04053293,-0.034096103,-0.0016228026,-0.00657735,-0.019815195,0.015958503,-0.022961758,-0.07318498,0.001476503,0.0023780013,-0.014895678,-0.0019003828,0.032337148,-0.010323979,-0.0108725205,-0.020851098,0.041162845,-0.045587588,-0.0074113645,0.010748535,-0.010124862,0.0051118694,0.044013225,-0.03233388,-0.032093506,0.012906184,-0.025153968,0.03078654,-0.047943212,-0.01613661,-0.01174017,-0.0379976,0.035899334,0.018517077,-0.03392543,-0.028414583,0.03653212,0.0491176,-0.047638066,0.019863324,0.017818943,0.010365952,-0.012858627,0.018182399,-0.00027204026,-0.058372762,0.008826643,-0.025533862,0.016760763,0.05294462,-0.028155904,0.048133742,0.024616383,-0.017210603,-0.009172052,-0.045877595,-0.0008337428,0.04082071,-0.0122608505,-0.008797532,0.042407677,-0.013262554,0.020927288,-0.023465745,0.012537888,0.004465906,-0.04454913,0.015611167,-0.0068435,0.017123498,0.014229762,-0.009076638,-0.016411025,-0.07188611,-0.009921237,0.043838594,-0.06281966,0.016743831,0.04256479,-0.044226836,-0.039892737,-0.00169292,-0.049728226,-0.07437072,0.045658648,-0.008758607,0.016020473,-0.0070695146,-0.027772682,-0.05202676,0.03829835,0.011789346,0.007479309,0.008287841,-0.030720074,0.03286678,0.008232106,0.022518639,-0.0030994886,0.026275095,-0.0026586028,0.061587922,0.0018559177,-0.018572176,0.04740755,0.04043254,0.02286292,0.0053891256,-0.060234275,-0.033230733,-0.07176704,-0.074463636,0.036070354,-0.006831043,0.03584169,-0.028942378,-0.04437434,-0.024342155,-0.015000997,-0.049303774,0.06440585,-0.061566334,-0.017363274,0.031229503,0.020932872,-0.009869568,0.07874743,0.03472213,0.04623808,-0.061293643,-0.081898764,-0.040440667,0.035229247,-0.049904745,-0.01779242,0.0046604853,-0.0076349773,0.019033073,-0.020347105,-0.008327365,-0.0061105,0.0042095925,0.03361212,0.0042291335,-0.0034802724,-0.0112451045,0.0034802142,0.08588865,0.03255888,-0.033818983,-0.08205469,-0.027222518,0.06414769,0.030731497,-0.0065345457,-0.0016186764,0.022047432,-0.0011221401,-0.02605699,0.074126676,-0.017868081,0.049132384,0.0031582066,-0.0019704127,0.012871039,0.052862205,-0.04121205,0.056184933,-0.043139093,-0.031822164,-0.021549767,0.006126033,-0.034879234,-0.07719768,0.010005381,-0.0106902085,-0.017688712,-0.038236562,0.021203727,0.009005718,0.0067394497,-0.011738044,0.07751785,-0.04004057,0.04005845,0.019281205,0.025773026,-0.018850353,-0.011249527,-0.0041352436,0.007268821,-0.004985008,0.041674882,-0.04118765,0.03075728,-0.015721235,-0.04427273,-0.05646359,-0.037570592,-0.0021252623,-0.023774093,-0.004690172,-0.04927871,0.04380588,-0.0076396186,0.0025479859,-0.026252054,0.00055626547,-0.0036953236,-0.023720361,-0.032347567,-0.059411723,0.00989841,0.0445194,-0.010068009,-0.047855042,-0.0036435388,-0.049144782,0.062855184,-0.04518327,0.0128789125,-0.0035299985,0.04066241,0.01802289,0.053817574,-0.034912877,-0.015755413,-0.014304399,-0.008411798,-0.028624175,-0.0027254857,0.033271287,-0.035628527,-0.060267083,-0.028891817,-0.04208295,0.023657123,0.042358775,-0.0111437,-0.03363036,-0.01649789,-0.02955813,0.036436282,-0.0026309397,-0.011011228,0.006949788,-0.007927022,0.016217189,0.009221005,-0.017610429,-0.008759146,-0.070236325,0.058018893,-0.05874016,0.06193131,-0.03702352,0.039988715,-0.04738723,0.027557593,-0.025978567,-0.020651883,-0.044115722,-0.01921835,0.039548963,-0.006465178,-0.013957161
ácido,-0.015006036,-0.0076842774,-0.06663958,-0.005808078,0.096899495,0.03134599,-0.020274011,0.029514689,-0.017122388,0.08525766,0.031504024,0.028222326,0.06766837,0.013495348,0.004847154,0.119955786,-0.10694683,-0.001964327,-0.017243369,0.017861828,-0.027567996,0.08592771,-0.0055858344,-0.11317042,-0.08525519,-0.0870088,0.13655101,0.1862009,0.02889741,0.052363623,-0.085720085,-0.086765744,-0.0077092685,0.08841522,-0.12373526,0.063236535,0.026363365,0.014169835,-0.001881076,0.05981503,0.017536715,0.025191931,0.013938133,0.040404696,0.10454942,0.026976526,0.028104652,-0.05254111,0.018748086,-0.11959427,-0.13654685,0.022984587,0.074725404,0.019563364,0.025028612,-0.00020149187,-0.03888249,-0.0031696227,0.10886674,0.004930077,0.1484489,-0.05280649,0.008368369,-0.016191337,0.16251156,0.048822116,-0.11399815,0.041991435,0.033998214,-0.05469377,0.010062628,-0.013197951,0.003452838,0.011266812,0.11809912,0.07296486,-0.010700656,0.0011305902,0.017055366,-0.024688318,0.013184978,-0.055723805,0.06269577,-0.06525556,0.04979511,-0.001051737,-0.040054776,-0.017138306,-0.0908539,0.07468954,0.054288607,0.023445928,0.02511502,-0.01810509,-0.048490755,0.072744876,-0.081372716,0.10504102,0.00936888,0.08907407,0.06778338,-0.017526573,0.0066928975,0.05746406,-0.0029371046,-0.0060999803,-0.09744654,0.048672393,0.07964755,0.053097256,0.03281372,-0.034790702,-0.031844594,-0.116997465,-0.044587128,0.03479533,0.10557149,0.01196398,0.07515064,0.10027214,-0.056799114,-0.01472453,0.016462814,0.057872314,0.06404611,-0.017172765,0.08245715,0.0016664431,-0.07482975,0.0004206784,0.1049609,0.034013413,0.014275044,-0.06973183,-0.09526725,0.015343083,-0.061612304,-0.07282426,0.13399005,-0.004206246,0.053363137,-0.027137809,0.061360322,0.08496998,0.035784617,-0.031639487,0.08549681,0.033881083,0.049706295,-0.011191435,-0.011918513,0.055809513,0.029487245,0.043160055,-0.017425397,-0.06475927,0.034291778,-0.06665168,0.033452034,-0.029225027,0.036897354,-0.048782673,0.033361893,0.09562124,-0.06720456,0.042052764,0.06372677,-0.089758106,0.04276852,0.023464117,-0.020983724,-0.06009895,-0.046961796,-0.052736275,-0.028936226,-0.031966213,0.11224945,-0.031424034,0.03022324,0.13580318,0.12266975,-0.046122864,0.034148697,-0.025892425,0.06646023,0.044118807,-0.008873709,0.0047095967,0.086599514,-0.014652611,0.060461357,0.15298231,0.08152452,-0.051772226,0.08941375,0.023777435,0.023784686,-0.016208759,-0.07069935,0.031106299,-0.067508705,0.008398285,0.013471227,0.04028325,0.034615308,-0.044605646,-0.12336381,-0.20002408,0.09801511,0.011787184,-0.10077685,-0.030799076,0.026622307,0.028636135,-0.0014167195,0.087914646,0.019308686,0.030890375,-0.04449874,-0.012498779,0.13359843,-0.01145853,0.07926904,-0.0027502887,0.05971374,0.0101975445,-0.0068264054,-0.056482024,0.09393044,0.062168855,-0.051524904,-0.08681893,0.066801466,-0.070425905,0.037044335,0.017340459,-0.059959773,0.016130837,0.050615534,-0.023394573,0.056210887,0.01413139,0.029362854,0.058621414,-0.021647647,-0.0013543199,0.07652359,0.051610433,0.060264945,-0.03720821,0.052088402,0.009899093,0.0665279,-0.04942656,-0.03619383,-0.020540418,0.017251095,-0.00044289837,0.0183342,-0.0007936582,-0.019600412,0.07022258,0.010848835,0.06928101,0.014992669,-0.062033262,0.014013156,-0.0956571,-0.022697907,0.021072613,-0.03064444,-0.009686059,0.054716446,0.030834503,-0.05711463,-0.07758073,-0.052266788,-0.10069556,-0.16271281,-0.11026406,0.06332659,-0.05458677,-0.028464075,-0.009460127,-0.08390285,-0.06884022,0.024360482,0.010115754,0.041625943,0.06066805,0.014879297,-0.007096611,0.075880595,-0.07329929,-0.060372636,0.02782381,0.029438468,-0.026341666,0.19113211,-0.10548313
acogedor,-0.068757266,-0.022283783,0.00015581293,-0.0416882,0.01350435,-0.03825683,-0.0321724,-0.0142627,0.05502925,-0.0456082,0.09456074,0.01915952,-0.017988691,-0.01491991,0.024364557,-0.013404755,0.005269462,0.037741058,-0.10111721,0.0039326143,-0.07986338,0.04730795,0.047047794,0.044143744,-0.042378042,-0.078432836,-0.04559942,-0.02521241,-0.020911533,0.0059958654,0.018526824,0.032712847,-0.0012064582,-0.00672225,-0.03252073,0.0040650708,-0.020552784,0.0028811074,-0.0049714437,0.042084124,-0.007957788,-0.11786412,-0.03028967,0.053988796,-0.0840373,-0.01721558,0.041921936,0.017224843,0.029371858,-0.079683915,-0.03827008,0.02243874,0.032849424,-0.026108956,-0.03953615,0.032618072,-0.023555357,0.05335259,-0.0115477815,0.0063198255,-0.03198803,0.0028538157,0.03389754,-0.050242823,-0.017615678,-0.046457123,-0.00517646,0.04031854,-0.041403145,-0.05540418,0.009238006,0.0065990174,0.018872708,-0.015326305,-0.009877845,-0.0325793,-0.05991664,0.0015653351,-0.05640619,0.010778448,-0.005423759,0.061043892,0.0032437977,-0.047522284,0.0626811,0.04671955,-0.02067859,-0.010279545,0.017447444,0.022669245,0.0016689872,-0.0010768324,-0.058722626,-0.0053291908,0.05439997,-0.046107125,-0.0059903497,0.02776735,-0.02144891,0.066023245,-0.034841966,-0.055715892,0.005465377,-0.022110734,-0.03747205,0.02807003,-0.011751332,0.015212461,0.04330923,-0.023395391,-0.018687088,-0.03740579,0.0603243,0.07951231,0.025047928,-0.001960225,-0.0010077858,-0.023057235,-0.011020586,0.05326597,0.054896194,-0.0018186107,0.030696947,-0.057888735,-0.015938794,0.002506404,-0.027349407,0.017116342,-0.03196173,0.013207291,0.04042786,0.055748623,0.008858879,0.01104579,-0.057121363,0.008392927,-0.032327443,-0.022269258,0.06704289,0.0084030405,-0.041422628,-0.0059426245,-0.0038016592,0.048607778,-0.043867584,0.006215877,0.053817365,-0.0005861915,0.012990191,0.03117968,-0.020146059,-0.08194119,0.024007171,-0.056439392,-0.014149432,0.031485822,-0.04705355,-0.0247058,-0.016293276,-0.0066446555,-0.060280133,-0.014254831,0.052737333,-0.040203895,-0.008382797,0.024016684,-0.05294797,0.025858056,0.10343336,-0.034624185,0.06606963,-0.0038389307,-0.017208874,-0.039140273,0.024038577,-0.013963525,0.038569592,-0.071097195,0.026263436,-0.018887183,0.055105593,-0.037471212,-0.0010713573,0.004485036,-0.0029368827,-0.05852678,0.0034192386,0.006571269,0.0025936756,0.06620915,-0.006302348,-0.008254575,-0.0050268658,-0.014013241,-0.0010965569,0.01722105,-0.017390348,-0.044671293,-0.04526057,0.022572126,0.037683345,0.05602005,-0.021106077,0.03382492,-0.044989865,0.024307596,-0.009045188,-0.09921876,0.063245595,0.0029349676,0.029336898,-0.033731736,-0.07120235,-0.035611086,0.01732793,-0.01814028,0.010881834,-0.035435557,-0.009801216,0.06777505,-0.007456124,0.01941448,0.057252724,-0.005813622,0.006280986,-0.022695104,0.013244515,0.046572667,0.015495322,-0.017097352,0.022972884,-0.11971555,0.06297014,-0.09658676,-0.01666686,-0.009018115,0.028940694,-0.01522509,0.02270869,-0.08518648,-0.002318855,-0.016094584,-0.0038863786,0.039713252,-0.04776564,0.004244686,0.022841599,0.09735192,0.037442077,-0.02869435,0.018145548,-0.016589748,0.041651804,0.0046596215,0.041182484,0.04367008,0.028310653,-0.018940909,0.0025166217,0.027655736,-0.0053675785,0.013130735,-0.0069345236,-0.04150078,0.008872851,-0.028780457,0.061733995,0.08652456,0.005290342,-0.014031028,0.034368776,0.01692298,-0.03679603,0.03469243,-0.038255274,-0.016098766,0.054358985,-0.08959868,0.036080755,0.024901846,-0.100432344,0.004616806,0.04927278,-0.0077094426,0.020767497,0.01456573,8.247899e-05,0.08872624,0.011179837,-0.01260549,-0.03567455,-0.029651102,0.038372997,0.040527124,0.030890137,0.004751722,0.03269524,0.070084795,0.022573205,-0.0029067392
acontecimiento,0.026404407,0.00913134,-0.014634465,-0.007166562,0.00060705724,0.010645707,-0.033594456,0.0025251,-0.015568089,-0.006249299,0.047926817,0.013587553,-0.04144697,0.005463645,-0.04101819,0.00964318,0.036727104,-0.023228955,-0.0060049477,-0.0063680634,-0.014198751,0.03731048,0.0006486507,-0.024077576,-0.020826546,-0.0047598504,0.000543094,-0.0059447554,0.021130528,0.011459573,-0.004058673,-0.020735515,-0.008645912,0.0019446545,0.0052451724,-0.024170253,-0.009608955,-0.0051181326,-0.001328215,0.011108711,-0.00883486,-0.05775181,-0.028752897,0.0013047958,0.0012171337,0.029192459,0.019815426,0.04105603,0.009484615,-0.0411156,0.042490527,-0.025592366,-0.0008472975,0.021911683,-0.015117184,0.03246554,0.0036388864,-0.010346534,-0.013492346,-0.0053397473,-0.0115721505,-0.024895996,-0.012564964,-0.022583084,-0.010236188,0.004636953,0.011732798,0.010666672,-0.015758874,-0.015692215,0.020849394,0.009708022,-0.007742375,0.017860502,-0.0061357715,-0.010362492,0.0025208192,0.01751077,-0.028884683,-0.04701754,-0.017958807,0.0038374292,-0.017960759,0.0014681148,0.033127587,0.008405766,0.011936547,0.008370296,0.008722393,-0.018930767,0.0041621546,0.0244781,0.022290932,-0.0088736955,0.003183609,0.013984451,0.01588066,-0.0011264705,0.010969749,-0.045416042,-0.035799757,0.0025553044,-0.033142377,-0.009985696,0.0055016726,0.0039015268,-0.01917309,-0.0044547464,0.010365304,0.01044528,-0.030482123,-0.007545096,0.013913526,-0.018320546,0.009057133,-0.006458725,0.0033826919,-0.026466532,0.013060787,-0.014325007,-0.03158196,-0.008243911,-0.04112263,-0.0273524,-0.0022608605,-0.0051329727,0.023563813,0.023630403,-0.022069369,0.0051625404,-0.012648166,0.027180694,0.011567132,0.026573727,0.0017302877,0.008560732,-0.0072690714,-0.009918735,0.03593834,0.026580822,0.009141524,-0.0027714772,-0.018460881,0.012607291,-0.05701572,0.026412604,-0.032026757,-0.0052327584,-0.008913118,0.016738057,0.0138469795,-0.014095921,-0.00835692,-0.0043817195,0.008206915,-0.009954568,-0.006226855,0.0138048865,0.0076971,-0.0019861392,-0.005602496,-0.0106922,-0.0016879049,-0.0345537,0.010842647,0.010914401,-0.004468695,-0.0069548907,-0.027148979,0.016910793,-0.009685412,0.0030816735,-0.01955619,-0.016098715,0.007417369,0.0010007459,0.0011709929,-0.021140145,0.011668686,0.00011016572,0.0053297253,0.051555708,0.008857519,-0.0047884597,-0.030107792,-0.029940877,0.023616608,-0.0063471473,-0.0071617314,-0.0016455089,-0.010415352,-0.009707596,0.0105728125,0.022798982,-0.007087598,0.011719959,0.014426863,-0.009899159,-0.0073123565,0.017030785,0.0047434294,0.04448046,-0.017212959,-0.0019328746,0.0071514193,-0.017572535,-0.027475227,-0.04271984,0.0016149431,-0.0059483526,-0.008146381,-0.009270707,-0.005032388,-0.0030664222,0.009692793,-0.018739643,0.050466675,0.003230423,0.0017321694,0.008203011,0.0045384215,0.02913837,-0.003470662,0.0012386312,0.00907987,-0.005012887,0.0015172202,0.004324083,0.008996902,-0.049805667,-0.012876818,-0.031468578,-0.013256158,-0.020178987,-0.0007638407,-0.004378768,0.020523142,-0.009053495,-0.005801202,-0.008619273,-0.002590428,0.0063646333,-0.018103983,-0.029938597,-0.024459142,0.00060753024,-0.020256,0.041613363,-0.016558023,-0.02786521,-0.010685904,-0.021903213,0.024620214,0.028307986,0.02357765,-0.0054409737,0.017428953,-0.001101297,-0.00023500879,0.030729285,0.0020367631,-0.006351509,-0.012296566,-0.027757196,0.0058516217,-0.00411624,0.011462379,0.005807603,-0.010528722,0.01977733,-0.008503763,0.0102501465,-0.016292507,-0.0019690245,-0.017547907,-0.045837793,0.02180008,0.0070671346,-0.006648856,0.01566637,-0.021541677,-0.012852637,-0.012815103,-0.01258417,-0.0038115864,0.0089412,0.026062997,0.01635133,0.0059932116,-0.01680874,0.013465393,-0.012815705,0.023020592,0.013472069,-0.01354994,0.013620143,-0.028643698,0.02135029,-0.0053705,0.009523956
acre,-0.19714127,-0.05370455,-0.018282166,-0.14661904,0.056947574,0.09690709,0.17647295,-0.011437729,0.19956629,-0.07068478,0.11143538,-0.025823643,0.045776296,-0.021847188,-0.026943296,0.06613956,-0.2209403,-0.12935187,0.09478571,0.06413097,0.13789251,0.15329935,0.02566213,-0.086545385,-0.21205555,0.008792302,0.15455602,-0.03205906,-0.032968022,-0.044430196,0.054827143,-0.085591145,0.06444544,0.017060043,0.04278023,0.107019834,0.11301479,0.0039873,0.06992892,-0.06891117,-0.036107063,-0.015529315,-0.003252864,0.034925953,0.12085318,-0.08293515,-0.056837574,0.0950154,-0.06456847,-0.08056054,-0.17409736,-0.122849435,0.06470834,-0.05526316,0.07409946,-0.08877039,0.029457131,0.022192145,0.1141656,-0.006209237,0.036480144,-0.07408963,0.004424984,0.08940629,0.041202437,0.046365473,0.08764702,0.0573877,-0.071038164,-0.12285549,-0.20308185,-0.06175341,0.11473602,-0.15448014,-0.10779134,0.0024446498,-0.022696694,0.12815143,-0.121073864,0.096478045,0.021838954,0.0624644,-0.13333587,-0.08896995,0.008192952,-0.06348148,-0.03201814,0.06628954,-0.03185023,0.04285839,-0.022753129,-0.027161859,-0.29703605,-0.15847212,0.082599826,0.214785,-0.21655394,-0.0033434134,0.016560912,-0.1837705,0.021607386,-0.105596565,-0.041581046,0.2106059,0.15606879,0.030356968,0.01563633,0.22312109,0.37502944,-0.016296182,0.07792608,-0.20100486,-0.052074436,0.013766982,-0.070954375,0.09512598,-0.11447936,0.07017765,0.19224358,0.089389324,-0.33661827,0.011099164,0.037244342,0.0029549226,0.12877052,-0.05510813,0.061012674,0.19110747,-0.074855305,-0.0443642,0.00762969,0.14113694,0.027268508,0.11928,-0.1029119,0.046090767,0.027313551,-0.10426778,0.049748484,-0.15577684,0.1706153,0.16370045,0.045695428,0.08398086,0.099582426,0.0099237235,0.045306806,0.011070768,0.040756296,0.068952575,0.04397599,-0.15990888,-0.07185166,-0.17993325,0.13397212,0.1322047,-0.026857564,-0.12879845,-0.029016728,-0.09560894,-0.001188534,0.13632949,0.14671479,0.14445603,0.045937832,0.09180633,0.03690445,-0.016385145,-0.06456702,0.0440361,0.14073412,0.0255286,-0.17606513,-0.041989114,0.0053976267,0.008094142,0.120304696,0.117746174,-0.031129042,-0.13677992,0.06971837,0.21501946,-0.04348916,0.048027396,0.109148115,-0.115166664,-0.18833333,-0.10721239,0.0041827695,-0.02607903,0.079672925,0.02903825,0.076618634,0.18636876,0.07488747,0.09573131,0.019133708,0.038135312,-0.07078827,0.08356386,0.010103042,0.056916326,0.06912815,-0.10252341,0.14037155,0.025508404,0.0238475,-0.22538577,0.00776503,-0.036359057,-0.11374447,-0.13174234,-0.015915185,0.09327208,0.05552427,0.15448004,-0.14863549,0.123360515,-0.10172742,0.118089974,-0.026130388,-0.021803984,0.0732829,0.08351009,0.07304045,0.1064396,0.1846209,0.057632614,0.018611513,0.054886986,-0.062190693,-0.12241217,0.13672543,-0.088853575,0.11835778,-0.17252226,0.11126542,-0.18499434,-0.11626754,-0.10395528,0.037432328,0.032794345,0.14096536,-0.23431194,0.04970606,0.053166237,0.023888988,0.15505295,0.09001347,-0.042669415,0.1253949,0.02852866,0.17952098,0.055985678,0.10386783,0.08805933,0.115277804,0.042691052,0.018766263,-0.0056114583,-0.042039037,0.06852428,0.051714923,-0.078623116,-0.025531337,0.11309823,0.08913511,-0.20272624,-0.10368833,-0.07792202,0.07260269,0.17483781,0.106474936,-0.026952012,0.07598239,-0.0988788,-0.20782049,0.11238697,0.008870113,-0.014602353,-0.1263576,-0.047180574,0.06926672,-0.15034202,0.10898093,0.07270432,0.2195463,-0.024519881,0.09798921,0.07698893,0.0590174,-0.05865841,0.03487691,0.21222062,-0.057350073,-0.063033484,0.04963857,0.21099128,-0.02718304,-0.1891365
activar,-0.05714709,0.0010819217,0.049058706,0.030517252,-0.017011462,-0.1007021,-0.018457571,0.010800731,-0.02676048,-0.03990339,0.003244703,-0.05262256,0.08627362,-0.022187524,-0.04122131,-0.0021918577,-0.018788762,0.02599483,-0.015488823,0.004504916,-0.026724385,-0.0075496044,0.06277621,-0.010691936,-0.0053189783,-0.013788253,-0.009882471,-0.009146288,0.033642206,0.034320798,0.033176612,-0.030560723,-0.007664714,0.03374142,0.011698841,-0.026851261,-0.04465792,-0.042542275,0.01174377,-0.018441927,-0.08862988,-0.090398006,0.050133567,-0.07867416,-0.011294179,0.028607385,-0.0016364629,-0.0017054646,0.008190003,0.034116324,-0.03138502,0.04587766,0.02576001,0.008437571,0.03126392,0.03773092,-0.046084996,0.0043052123,4.9187493e-05,-0.048990007,0.055860043,0.043498788,-0.068314455,-0.047456022,-0.07828113,0.027171604,0.08648837,-0.017315464,0.018453756,0.0013688281,0.00096702063,0.029926762,0.040895123,0.026530027,0.08881036,-0.018451227,0.032012943,-0.016883053,0.03292606,-0.033095352,0.05090487,-0.005848263,-0.0043509672,-0.024144335,-0.005689737,0.0037147813,-0.020857908,-0.01908213,0.029842712,-0.005094688,0.040392276,-0.024152985,0.015473696,-0.016858766,-0.038107228,0.04456754,-0.03145468,0.032874163,0.015174503,-0.016920233,-0.034198966,0.069681846,-0.013670023,-0.0078963265,-0.006743574,0.0406533,-0.011134536,0.00024027162,0.05197345,0.16009699,0.09831715,0.040875066,0.012378156,-0.010125506,0.023360545,0.015400273,0.047908302,0.03237713,0.042959522,0.04658242,0.017658971,-0.045129597,-0.05711366,-0.019152502,-0.019887729,0.030227175,-0.049460873,0.00770093,0.02588228,0.0823859,-0.027346611,0.08765467,-0.026978796,0.07193392,0.06887381,-0.009320073,0.017829642,0.01810543,0.07921713,-0.01629778,0.021231502,0.016444614,0.01748728,0.038401682,-0.038156,-0.014557225,-0.013995857,0.017112963,0.06416839,0.006006047,0.021075783,0.021276817,0.03832207,0.00476948,-0.012481522,-0.019023245,0.0371622,0.0884674,0.0394485,0.0063034785,0.03422945,-0.06599655,-0.077496,-0.06521865,-0.036078524,0.007846827,-0.101603,-0.0045192954,-0.0081237275,-0.021231897,0.07070283,0.066060014,-0.04616478,-0.018185295,-0.011243555,-0.0050468,-0.02349233,0.026659815,0.033975657,-0.085527726,0.03801852,-0.018203476,0.03247119,-0.015173868,-0.000907181,0.0050167837,-0.0034236268,-0.000587374,0.032688763,-0.03925137,0.048842523,0.028873065,0.013503894,-0.0033184513,-0.07436997,-0.034574974,-0.0013596833,-0.011514162,0.08019186,0.07006497,-0.008125207,-0.012323472,0.039361116,-0.026340866,-0.034515474,0.046102654,-0.047569063,-0.08990384,0.00067202625,0.07722502,-0.0037129223,0.0060043107,-0.017990958,0.029652238,0.07557189,0.04302427,0.047363833,0.07142311,-0.020082312,0.022547932,-0.0067768465,-0.0014449839,-0.018265568,-0.04459097,-0.032083172,0.029631332,-0.038857017,0.045495983,0.0241085,-0.05832907,-0.0018714858,-0.048634768,-0.015934944,-0.03232254,-0.025992649,0.03334812,0.00047686245,0.059071053,-0.00021874532,-0.029496664,-0.079076685,-0.0392445,-0.06160167,-0.021018108,-0.05292465,0.022508124,-0.0051670414,0.037660368,0.038356397,-0.020066252,0.038572907,0.048072785,0.08744043,0.02103255,0.030790508,-0.028166339,0.015741797,-0.02837328,0.014091152,-0.06533844,-0.02127259,-0.0052960943,0.007105021,0.08595675,-0.03077527,0.0017965125,0.012100062,0.10312456,-0.0021827768,-0.027350329,0.05972309,0.053588256,-0.010334562,-0.014757483,-0.024904555,-0.03126785,0.02621668,-0.030118106,0.04741037,0.034246415,0.057382196,0.025822848,-0.0016344255,-0.010475413,-0.039658736,-0.02762725,-0.11395368,0.004882133,0.0632751,-0.029652586,0.0019497335,0.04541252,-0.03821042,0.06316602,-0.08160209,-0.07929722,-0.029960029,-0.08436216,-0.018350909,-0.05209838
acuerdo,-0.06471736,-0.037926268,-0.004663681,-0.010152243,-0.024833018,-0.03544241,0.0013102125,-0.00937627,-0.03101213,0.002025731,0.016757833,0.012506564,0.0054657087,-0.019225063,-0.017747335,-0.012538153,-0.025010249,0.061647218,-0.032275368,0.026697958,-0.014707934,0.0038686804,-0.038014326,-0.039003644,-0.07610316,-0.024011401,-0.061575565,0.020047046,0.053359628,0.012892255,-0.01899367,-0.039805565,-0.014167179,0.07314592,0.033769038,-0.017510412,-0.0075959996,0.00030806474,-0.024451846,0.033173338,-0.06645637,-0.01283219,-0.056265015,0.015479006,0.014187962,0.0019193148,-0.009884667,-0.02264727,-0.031740095,-0.008935058,0.024454633,0.07202471,-0.043584082,0.027537743,-0.026288813,0.027934587,0.013088723,0.03318601,-0.069282986,-0.02494553,0.009620319,0.010916217,-0.035588097,-0.009123908,0.01321132,0.00988221,-0.01184288,0.011016931,-0.011264204,0.03352356,0.03569368,0.03324316,0.025745854,0.010384961,0.010841387,0.014317937,0.059946697,-0.032859053,0.016069861,-0.056371596,-0.037524663,-0.036673725,-0.02302823,-0.006125158,-0.003892482,0.013021063,-0.003277624,0.022878706,0.069941714,0.012677406,0.0138280885,-0.015826052,-0.016215695,0.009766614,0.011096437,-0.023612633,0.01978977,0.039031062,-0.08111296,-0.06369609,0.0029280297,-0.0053011216,-0.03546767,0.041694086,0.012173179,-0.022736624,0.0027697377,-0.029819125,-0.0808815,0.096759,-0.047325816,0.0058695152,-0.004366102,0.0038457897,-0.04199867,-0.041330904,-0.056884494,-0.007002672,0.026219407,-0.008750642,0.02513636,0.042434126,-0.115219764,-0.055835705,0.06908729,-0.035382133,0.012872622,0.0013237232,-0.05028371,0.026125377,0.026578508,0.063116856,-0.032541577,0.07188782,-0.07835508,0.0776371,-0.017069163,-0.0025468778,0.08124275,0.017856665,0.04840654,-0.0076971664,-0.020751156,-0.003964474,-0.08257486,0.027897304,0.016252184,0.006237811,-0.012377377,-0.0064193406,0.040003177,-0.003922502,-8.801216e-05,-0.015635291,-0.04829727,-0.009389205,-0.0068929195,-0.05219908,0.0066503077,0.0025138904,0.013938237,0.009222275,-0.06372867,-0.0030199129,-0.0074602147,0.005072927,-0.0038476076,0.0013821522,0.016366431,0.0034861658,-0.01015151,0.004944878,0.0034825394,0.0072423853,0.011629728,0.0347342,0.022808822,0.033241335,0.030697385,0.012874924,0.0345134,0.019919807,0.012802832,0.019508183,-0.02410168,-0.016352456,0.0059001558,-0.048782516,-0.03085166,-0.0013168895,0.03186326,-0.010520317,0.024183825,0.031443175,-0.014617612,0.07348656,-0.019926475,0.01922509,0.027826997,0.07776763,-0.044002954,0.042564973,-0.009844701,-0.05166764,0.009514689,0.03144839,-0.025471566,-0.06145315,-0.04260516,-0.0015965564,-0.024758497,-0.014272415,-0.001607772,0.036491618,-0.0361749,0.013705273,0.058704685,0.0027371359,-0.043825418,0.01776998,0.011127773,-0.0073373844,-0.032655653,0.022177368,-0.011979171,-0.04161655,0.0007190099,-0.014106558,-0.009732307,0.011314335,0.010045219,0.01635401,0.019860903,0.046095565,-0.036321286,-0.023554036,0.024753332,0.021087492,0.04464603,-0.0914677,0.011726249,-0.0064781574,0.06259522,0.022508213,-0.1162791,0.016922986,0.026892997,0.06847865,-0.056898743,-0.05221648,0.047658395,-0.0008771506,0.058271825,-0.011436752,0.0035693443,-0.03760363,-0.00902927,0.024425343,0.016046653,-0.037152316,-0.054405347,0.042713523,0.0064676064,0.041986722,-0.012692627,-0.028096557,-0.0430889,0.014870193,-0.028175587,0.018920368,0.00863597,0.029228916,0.022354534,0.027633606,0.01805549,0.0066843424,-0.004297839,-0.0044427845,0.060974937,0.015401561,-0.05467843,-0.12602873,-0.013039867,-0.024937646,0.020526655,0.15275721,-0.018399438,-0.023821078,0.06178459,0.017484883,0.018037753,-0.06350621,-0.049935102,0.06587056,-0.016394407,-0.025887242,-0.023702763,-0.01636702,-0.0056137256,-0.020295644
acurrucarse,-0.038452227,-0.03811917,0.01480668,-0.004107404,0.04700478,-0.103175975,-0.04421149,0.04187901,-0.01703443,-0.01884329,0.0020285212,-0.018767267,-0.0039584795,0.027001387,0.044932783,0.024614641,-0.011015677,0.0048950417,0.008023936,0.008399096,-0.020045308,-0.03146868,0.060430348,-0.017598998,-0.017607857,-0.008153813,-0.035803672,0.029793838,0.054201283,-0.0070130005,0.00696336,-0.062299214,0.008971488,-0.013114201,0.01625438,-0.024070457,-0.02521423,0.014163807,-0.033101663,-0.015801843,-0.026959544,0.016576078,-0.003454317,0.054473184,-0.027621737,0.043607943,0.012100784,-0.114654064,-0.024523553,0.0149044795,0.033764675,0.018894384,0.067694545,-0.016886495,0.012004815,0.05297888,-0.041950278,-0.013591546,-0.003701017,-0.04837835,0.0026795932,0.04114504,-0.012549832,-0.04151285,0.0013023391,-0.0020860601,0.0037632636,-0.016462546,-0.061498035,-0.038661268,-0.03298203,-0.06855764,-0.0094982395,0.08201502,-0.013312863,-0.001317267,0.004868339,0.020405116,-0.00076678547,0.0075969375,0.0026569334,0.03294374,0.021087175,-0.078807,0.025007868,0.024355145,-0.0038030848,0.0011626792,-0.010628406,0.02478781,-0.049013138,-0.0467424,-0.012898758,0.04788391,0.030333376,0.006719795,0.0028653503,-0.020547466,-0.05407375,0.058461823,-0.018293113,0.0008484762,0.0077800886,0.0719044,-0.05810566,0.039928563,-0.036279533,0.005236794,-0.0049775224,0.12042459,0.022425365,0.0021566097,0.04011143,0.053992428,0.042618807,0.017294358,-0.01243629,-0.023961646,0.026803171,-0.009599623,0.0066703977,-0.0094524985,-0.0073680626,-0.019434866,0.050115984,0.034339793,0.020945424,0.03084966,-0.008158563,-0.023303643,-0.033281866,0.067114994,0.014638258,0.0021744117,-0.043766048,0.0346779,-0.0058870786,-0.052189045,0.004252316,0.052081954,-0.008787531,-0.018978039,-0.012123294,0.02981618,-0.023673821,-0.022193026,0.048529632,0.0009404543,-0.0051193517,0.020978214,0.0059600906,0.0037698417,-0.01099766,0.0021618356,-0.014653103,0.045533102,-0.042942822,0.037882786,0.014267613,-0.041926768,-0.02249084,-0.009596102,0.05644258,-0.0047565796,0.016053852,-0.023521794,-0.013799784,0.0094237495,0.08225072,0.0508476,0.05796038,0.0033878132,-0.013936239,-0.004222971,0.0426386,0.028076012,0.000119713506,-0.055787813,-0.028836196,0.026067734,0.013393901,0.0014502928,-0.003118521,0.091390535,0.022904743,-0.07753236,-0.020958262,-0.027824868,0.0082772225,-0.028495977,0.009848798,-0.023569493,-0.04557187,0.0056848163,-0.02216572,-0.034441173,-0.035360325,-0.020710865,0.03564369,0.02411392,-0.02101728,-0.0075601637,0.041360214,0.01911592,-0.025281847,0.069988154,-0.026344284,-0.07652541,0.0049953074,0.0642425,-0.007901044,0.022560623,-0.017619139,0.012402903,0.038474604,-0.03467474,-0.045900814,-0.05410052,0.019260675,0.054469742,0.03621568,-0.06834284,-0.0015938317,0.034454856,0.033532392,0.020518636,0.008663638,0.06709535,-0.065281644,0.06609003,-0.01674444,-0.01932392,0.009733535,-0.0020546117,-0.01258322,-0.047151465,0.025900424,-0.0054187,0.043448627,0.009864565,-0.008077765,-0.03197015,0.035805397,0.005579845,-0.019292772,0.05164302,0.008273857,0.031477846,0.0006969854,0.007656317,0.01135393,0.008230472,0.055359147,-0.019651625,0.082580365,-0.028026188,0.0386628,-0.01724179,0.020596312,0.03166547,-0.014473669,0.0052141547,0.0006775194,0.0062168846,0.04983639,-0.04048053,0.050782572,0.009019651,0.000774616,-0.012094048,0.03334061,-0.0360641,0.008275254,0.044166867,0.0292795,-0.01782899,-0.000106663254,-0.041379545,0.078601554,-0.031012207,-0.01973435,0.047728125,0.05490666,-0.008618313,-0.03394126,-0.002031202,-0.014199944,0.016952677,0.02863589,-0.0072516305,0.014059919,0.008960914,-0.007817151,0.023902772,-0.04189136,-0.012467273,0.015957925,-0.024002785,0.043363962,0.03477418
adicto,-0.03229613,-0.0717376,0.039391737,-0.019579409,0.022094112,-0.047104187,-0.043139,0.07902848,-0.01611102,0.021128323,0.1040277,0.0035182156,-0.011963457,-0.015751535,0.062263966,0.10027722,-0.02156156,0.047856007,0.06619664,-0.04386971,-0.019490758,-0.023735877,-0.013404684,0.11658156,-0.024053141,-0.06780666,0.007146639,0.106896535,0.012953205,-0.11725241,0.06751394,0.06062889,0.07139009,0.019180905,-0.015357537,0.0150897,-0.01930331,0.11671982,0.030362476,-0.027058195,-0.03098135,-0.068742976,0.03656168,0.023193663,-0.087366275,-0.012163481,0.009669924,-0.07724417,0.035631947,-0.089528605,0.021659005,-0.024717633,0.09694352,0.0425522,0.07170037,0.056066275,0.0666495,-0.021936918,0.0033672675,0.08493178,0.05825741,0.02642965,-0.035504453,-0.024992228,0.008903185,-0.03073601,-0.02871705,0.050864507,0.025716007,-0.041142866,-0.029664502,0.08243376,0.004244663,-0.087169915,-0.006530481,0.040883668,0.08228688,-0.028469253,0.07110741,-0.04046617,-0.0789618,0.03629345,8.609388e-05,-0.020144885,-0.04127995,0.0100432895,0.020472765,-0.012574273,0.049734104,0.027113745,-0.0034081198,0.010706842,0.017534912,0.11200627,-0.04034768,0.06734334,0.0022744113,0.046719026,-0.07279543,0.018645788,-0.043799385,-0.029511726,0.12903894,0.01922014,-0.041109778,-0.034837455,-0.016789204,0.060273618,-0.05335586,-0.0128722545,0.09372502,-0.07371501,0.0053554242,-0.044126164,-0.005866672,-0.060035605,-0.098181106,-0.05090177,0.008059731,-0.035209507,-0.023749974,-0.0026179724,-0.0042689615,-0.004182535,0.013629126,-0.028272912,0.028044235,0.010572167,-0.0067197443,-0.009081736,-0.02230909,0.09903213,0.02683655,0.027922768,0.010556938,0.031698853,-0.04121984,-0.006294792,0.096593305,0.036040463,0.13239859,-0.022220135,-0.054196358,0.046608087,-0.077782035,-0.14535113,0.00948347,0.037694313,0.028524261,-0.017948851,-0.036531273,0.059936255,-0.045524966,-0.043267254,0.0070670024,-0.106571294,0.003610038,0.040568262,-0.060827233,0.075070344,0.0343299,-0.049102493,-0.039739795,0.0791807,0.030382928,-0.035497554,0.02253453,-0.068631254,0.014473985,-0.008141376,0.044325076,0.072304055,-0.016398063,-0.024066072,-0.0027656935,0.05399496,-0.0013151236,-0.06739585,0.060980428,-0.05583007,0.04818116,0.07294361,-0.048145417,-0.06084614,0.0012031819,0.008711381,-0.014646707,-0.0103803985,0.023737768,-0.056007106,-0.033640098,0.043482207,-0.018149845,-0.08625688,-0.025229791,-0.04259823,0.07535913,0.08249966,-0.037609883,0.13973957,-0.05360619,-0.023867259,-0.009878439,0.10857658,-0.076194085,0.08028234,-0.034908634,-0.116321996,-0.051228486,0.050741296,0.0016783921,0.008098426,0.004633329,-0.09233701,-0.04770071,-0.0013386119,-0.027156139,0.024028663,0.0070874626,0.037901178,0.027577454,0.120110415,-0.01058008,-0.024372214,0.03510333,0.023208424,0.03617753,0.019867491,0.08850563,0.0417579,-0.1369083,-0.065559946,0.014295104,0.055448055,0.02314068,0.036866605,-0.05916828,-0.07434086,-0.043901242,-0.060887497,-0.066495635,-0.078517124,0.052213795,-0.049137767,-0.07004395,0.040586405,0.09351339,0.13506202,0.036618132,-0.0005893588,0.048480473,0.01363072,0.08727441,0.064561695,0.1124477,-0.034664944,-0.00476385,0.058383107,-0.0060639093,-0.04893165,-0.0525618,0.072806925,0.0045157513,0.026640588,-0.009150231,-0.02512733,0.05862543,-0.078298226,-0.07233741,-0.068135515,-0.0018636112,0.09806543,-0.024823248,0.034198515,0.0020251744,-0.09420204,-0.028485183,-0.022306293,-0.09931231,0.052842837,-0.05490203,0.013335519,-0.012243515,0.028747648,0.04946621,-0.08767727,-0.0574044,0.021321004,0.051524602,0.0151365325,-0.06311406,-0.09391047,0.025954744,0.06478331,-0.031684678,-0.00057399436,-0.016676858,-0.011122272,0.03626945,-0.0011108354
adinerado,-0.023855422,-0.06041632,0.02239817,0.024640841,-0.0185561,0.042890526,0.02178598,0.026994577,0.05132025,-0.024105424,0.0777999,-0.014789643,0.0066216337,-0.01737515,-0.025898173,-0.00090247486,0.02971521,0.017387807,0.029475424,0.034900695,-0.04524579,-0.09070272,0.036655806,0.04591471,-0.051578756,-0.0410403,-0.034319367,0.014623864,-0.047633573,-0.012354698,0.01808818,-0.052685887,0.0049496456,-0.016388172,0.014228214,0.013943759,-0.02596878,0.036591526,0.029389683,-0.0054973145,0.0096664205,-0.05836956,-0.047917254,0.008463919,-0.0207555,0.014761158,0.0514187,-0.025932528,0.0022427065,-0.014767286,-0.016623843,-0.009449793,0.0358809,-0.018078867,-0.026123047,0.009997792,0.04010808,0.03532213,0.0019211482,0.0022686047,-0.033400692,0.042895965,-0.033971243,-0.008502443,0.0014382987,0.020212412,0.018154869,0.02765139,-0.01623545,0.0033850493,0.03622394,0.042419866,-0.020984808,0.004990978,0.010832813,0.0231927,0.011929874,0.014371975,0.09525685,-0.0039269924,-0.06414825,0.0020050604,0.0057430603,-0.03877691,-0.022114899,-0.003111287,0.015479705,-0.006395058,-0.0034671044,-0.062318698,-0.05890239,-0.0047409544,-0.00012483448,0.03820417,0.05354289,-0.048602443,-0.036996357,-0.026215084,-0.031703316,0.0950196,0.027477527,-0.030836293,0.005243145,-0.0214928,-0.030972606,-0.014783668,0.014233314,0.01107755,0.0068075536,0.020869378,-0.03084496,-0.043989755,-0.023501448,0.050977204,0.024698067,0.017592868,0.020410635,-0.026636146,0.008291371,0.0035820082,0.0053257286,0.008872536,0.020857465,0.007513743,0.06664716,-0.0026190889,0.045500606,0.009457357,0.006254375,-0.044464648,0.064503275,0.054956295,0.019991484,0.011509971,0.00023744651,-0.019066583,-0.060623366,0.0476605,0.082151726,-0.018897055,0.02136231,-0.0023207068,-0.09409288,-0.0030858193,-0.02311309,-0.05567064,-0.0005620795,0.019980237,-0.029411897,-0.023807935,-0.070010856,-0.011618179,-0.01554361,-0.05510942,0.043534562,-0.05663622,-0.0026690206,-0.0724324,-0.0068692733,-0.048509963,-0.03268131,-0.009216367,-0.014881627,0.056875892,0.031265683,-0.0011332957,-0.025155133,-0.029694153,-0.04054985,0.018205324,0.038199432,-0.030390585,-0.08306492,-0.058274567,0.030135393,-0.0046904907,0.014950546,0.052460033,0.009384364,-0.08654673,0.019319719,0.009864877,-0.08034071,0.032699395,-0.03563759,-0.05354071,0.07137544,-0.017911874,0.042726573,0.025067238,-0.039748717,-0.029693842,-0.0021239556,0.033287175,-0.045996375,-0.01714635,0.026666176,-0.062398892,-0.0673553,0.030522484,0.018131629,0.017024262,-0.021320596,0.030768137,-0.019171804,0.025719864,-0.011723774,-0.11091569,0.016348146,0.05236659,-0.02373238,-0.036341846,-0.02934836,-0.090817325,-0.070912614,-0.014362317,0.0051486953,0.022396248,0.017395133,-0.029323041,0.023323068,0.07275534,0.016794479,0.011615399,-0.016110357,0.039684974,-0.033759512,0.0051871096,-0.03567365,0.022290364,-0.03325092,-0.058992423,-0.060978025,0.0015878698,0.02170762,-0.010917417,0.0070937034,-0.02969164,-0.040935982,0.038041405,0.01456533,0.024543867,0.020235602,-0.010483503,-0.050887477,-0.012330155,0.024417082,0.07472203,-0.013398081,-0.022757603,0.015522471,0.056569505,0.029820684,-0.009229655,0.0941022,0.0023321947,-0.024843672,-0.014826706,0.0013248123,-0.01657092,-0.012497114,0.036798853,0.03463163,-0.01292786,-0.048454072,-0.048561018,0.036411453,0.010406568,0.023860086,-0.008702615,0.023410596,0.064700164,-0.087378435,-0.022868797,-0.016859872,-0.033355188,-0.02322064,0.00825422,-0.027975438,0.02885881,-0.010427706,-0.06256332,-0.038331836,-0.0088483635,0.005357753,-0.03925908,-0.02113524,-0.0023005526,-0.00920631,-0.0031692972,0.024513593,-0.06765942,0.03686333,0.06234136,0.07230697,0.022919592,0.032026958,0.053785533,0.064413406,0.035883833
admirado,0.0032363567,-0.040650226,0.054057777,0.0068011214,0.028465714,0.028164376,-0.027437756,0.095621504,0.013546137,0.013469064,0.0685663,0.021515321,-0.017257007,0.098744676,-0.046413362,0.0022373374,-0.0010233894,0.080949895,0.014156739,0.012392864,-0.038650237,0.01594325,-0.024857992,0.08112443,-0.014853731,-0.012431668,-0.033000678,0.03254169,-0.057377014,0.020404978,0.03443886,-0.012974182,0.050179172,0.00886207,0.015484139,-0.05365124,-0.028304521,-0.016581403,0.02600594,0.033201743,-0.013167481,-0.05555862,-0.06395062,0.017412126,0.00096321106,0.033897538,-0.00014982905,0.015890453,0.009159235,-0.028029617,-0.04008734,0.05801434,-0.022139454,-0.025429074,-0.105309114,0.02158661,0.038748853,-0.007340138,-0.048434734,-0.047904152,0.016537014,-0.058231983,0.031729117,-0.028521607,0.013774239,-0.058446765,0.004195374,0.0172749,0.009888153,0.046814322,0.019682957,0.0044061667,-0.04150307,0.06759311,-0.04591455,0.015792625,0.049758527,-0.004511844,-0.04209033,-0.03360999,-0.068607725,0.008908002,-0.035274047,0.023843927,0.03206649,0.0069349995,0.027905727,-0.039959103,0.032166626,0.028863836,-0.0015805316,-0.014341889,-0.04150561,0.0023668748,0.07502891,-0.033025384,-0.042828623,0.0037937614,-0.0064941877,0.049430642,-0.04052976,0.009353906,-0.025859466,-0.09043806,0.025662646,-0.006047333,7.652079e-06,0.028628426,-0.018017313,0.043733332,0.05713251,0.02647294,-0.047151186,0.009514809,0.01011871,-0.0020170256,-0.028902698,-0.017386839,0.03514028,0.08853574,-0.03783413,0.038717598,0.03266031,-0.0047921836,-0.01494255,0.070352964,0.030124072,0.055144276,-0.012669419,-0.022923931,0.062052373,0.041229468,0.044817206,0.035905126,-0.086615555,-0.017618226,-0.041626044,-0.013606304,0.08876742,0.010395776,0.03107195,-0.029622642,-0.05301157,0.011006125,-0.026990712,-0.017114421,-0.010877922,0.026746513,0.03226256,0.012829481,0.006717715,0.019809853,-0.032621637,-0.00866478,0.04768326,-0.012704588,0.039546806,0.037588604,-0.019873636,0.009938176,-0.02437461,0.06069424,-0.030632045,-0.023336355,0.01468887,-0.032787193,0.029872904,0.061190434,0.047624327,0.023468716,-0.050929945,-0.04997062,-0.021502271,0.011418526,-0.00088519015,0.025387798,0.051242404,-0.02282201,0.048766963,-0.040364187,0.100438714,-0.019633148,-0.045903925,0.012195049,-0.09227615,0.014034127,-0.0016300492,-0.018483575,0.005930089,-0.03481304,-0.05246175,-0.0077956533,0.08111144,0.018878618,-0.010503724,0.036303002,0.029647123,0.011375924,-0.0071369554,0.0667296,-0.048153553,-0.052212812,0.011900177,0.03543528,0.033953037,0.014898916,-0.0015472472,-0.084298134,0.013612242,0.01854385,-0.037463147,-0.0233072,0.031293716,0.0013688215,0.0126655465,-0.040230792,-0.020333884,0.0041386704,0.020901266,0.01426886,0.0006244651,0.035668693,-0.057204675,-0.053793978,0.08777367,0.028647523,0.0074360883,0.02972078,-0.016969256,0.01835418,-0.030373756,0.012462452,0.005953487,0.009025314,-0.037893165,-0.012731387,-0.046909828,-0.021547655,-0.056456603,0.007000692,-0.0029717397,0.010273905,-0.013767118,0.0045466893,-0.06992156,0.022678161,-0.008137936,0.036634557,0.0072135916,-0.02646339,0.030161997,0.01937735,0.040315263,0.012028744,0.048633784,-0.037317656,-0.03783866,0.04729904,-0.051893014,0.06563323,0.00336966,0.02618795,0.00079449423,0.05206016,-0.049471956,0.0043665045,0.0009110538,0.01705979,-0.013871676,-0.009679005,-0.011055061,0.05890313,-0.031836312,-0.027759625,-0.043177698,-0.02183326,0.022915145,0.00080173515,-0.05399681,-0.0070846146,0.045238674,0.007918137,0.022282353,0.02961871,-0.025420403,0.022436341,-0.010536894,0.014287917,0.026905825,0.030438453,0.003476008,-0.12000681,0.033898864,0.020699874,0.020479908,0.035439115,0.0353774,-0.0075126146,0.00065363996,0.0038266426
adorable,0.0040276195,-0.003086271,0.03035379,-0.06252331,0.030898312,-0.005288039,-0.03477737,0.055942245,-0.027388802,-0.043899167,0.0033168718,0.020308182,0.0105636325,0.018719206,-0.03935259,0.04382828,0.07339953,-0.0028056556,-0.0096121775,-0.028533245,0.002514094,0.05873033,0.04690803,0.017170098,-0.014285194,0.0039606476,-0.039925136,0.011102838,-0.010612994,0.007927737,-0.0097016385,-0.024130328,0.04820168,0.027497133,0.0063103093,-0.0039052907,-0.027184928,0.033690635,-2.2752876e-05,-0.01865229,-0.004473281,-0.055339314,-0.019533584,0.04001496,-0.096772194,-0.00046588335,-0.00712939,0.021435047,0.016308885,-0.0027433378,-0.0019728024,0.016058605,0.06343581,-0.022097113,-0.043072302,-0.017399652,-0.0048526707,-0.03705969,-0.009609999,-0.019946026,-0.007930788,-0.023108786,0.004764196,-0.011600847,0.030491766,-0.025364771,-0.012931449,0.025761666,0.009056978,0.0023460316,-0.029564852,0.022157,0.019562393,0.0033868046,-0.02374939,-0.11368948,-0.011432471,0.00040417112,0.020354737,0.023706725,0.013476202,0.032827403,0.0096549755,0.0126101775,-0.008474027,0.016004672,0.03737979,-0.017694304,0.015361061,-0.04197492,-0.069760576,-0.068317786,0.01727525,0.013931916,0.09879221,-0.05343766,-0.048908476,-0.023168683,-0.021142315,0.0119648995,0.0038158956,-0.02233988,0.0141639365,-0.026429629,-0.069288395,0.03101264,-0.024621582,0.040425856,0.020536184,-0.057775922,0.007866043,0.009879758,0.016245022,0.065202884,-0.005149257,0.04267931,-0.00026814692,-0.0017282671,0.04828016,0.043800056,-0.04782038,-0.047436833,-0.0013743809,-0.04918668,0.020022571,0.0196435,0.023257893,-0.0032863445,-0.021994423,-0.01714893,0.013588819,0.055998225,-0.013468636,0.056832023,-0.0363471,0.025411801,-0.050593458,-0.042047292,0.018728282,0.054186437,0.0018865723,0.042556416,0.0074077896,-0.0011764701,-0.03063431,-0.078118004,0.07769078,0.0039471905,0.026464915,0.01541699,0.02967182,0.0079300385,-0.019261932,-0.0017330924,0.05587455,-0.0016349506,-0.036632083,0.009548737,-0.04851561,-0.04491869,-0.00093890855,-0.015874797,-0.0030955684,0.01105846,0.023189038,0.0008751537,0.039704185,-0.047844198,0.03094,-0.004581819,-0.014518627,0.009575533,0.033768635,-0.035077095,0.015737018,0.050047584,0.04518182,-0.024892088,0.05657598,0.024840191,0.04811045,0.009637562,0.0065518063,0.020954654,0.010231891,-0.071737505,0.023559766,-0.0021467006,0.03402845,-0.024470534,0.04566115,0.0009997083,-0.0012528865,0.0088957045,-0.055344414,-0.001970025,0.0038627868,-0.027184555,-0.042226195,0.06702775,0.03998321,0.02494252,0.0009021461,0.017570836,-0.016261233,0.07804469,-0.048524927,-0.06635452,-0.0056658164,0.025327416,-0.03912252,-0.021149624,-0.037381776,-0.017699588,-0.037420817,0.0009432289,-0.013024593,-0.048487704,0.030839514,0.011796655,0.04295689,-0.012188556,0.028506191,-0.014806511,0.01797318,0.013864154,-0.014775631,0.03811725,-0.032139488,0.017991597,0.0010430777,-0.05506906,0.07566322,-0.018246561,-0.05537281,-0.0434225,0.012986364,-0.011799777,-0.016097551,0.00841598,0.002932113,-0.013435217,0.035682358,0.008617655,-0.051408272,-0.014440025,0.025685338,0.08577318,0.045488525,-0.016647624,0.03814403,0.02086619,0.06746206,0.07477998,0.044690516,-0.015235935,0.017070074,0.015326685,-0.025374833,0.02907097,-0.018842105,0.035530943,-0.00317499,-0.023604577,-0.012808235,-0.023388611,0.06569853,0.059759073,0.03406047,-0.033345792,0.035999235,-0.012271004,0.012827422,0.03743742,0.05525434,-0.036639564,0.03797794,0.028773526,-0.0037846374,0.020210559,-0.028110474,-0.05259002,0.030371802,0.02680227,-0.015790425,-0.06686334,-0.017830048,0.0136829605,0.0083824545,-0.017987665,0.036024164,-0.06843464,0.00033663135,0.024345411,0.01067086,-0.023080204,0.00837083,0.04185814,0.045620862,-0.04850633
adulto,0.0024737834,0.039781164,0.031502217,0.012900243,0.016599718,0.008455114,0.011666398,0.025972191,-0.008632418,-0.051472474,0.11883493,-0.060669035,-0.08542128,-0.0028492035,-0.10712242,0.092777275,0.06940073,-0.0068587526,-0.056917332,-0.008248756,-0.08790563,-0.0050432244,0.04934918,-0.008127816,-0.01344836,-0.028953385,-0.048198953,0.010475488,-0.03532417,0.0047987937,0.056105144,-0.015575528,-0.00292214,0.093426235,-0.15514465,-0.012908904,0.037395213,0.08992771,0.018496659,-0.010098368,-0.021440152,-0.038990766,-0.05504322,-0.0039249877,-0.063015096,-0.00023109466,0.019429645,-0.009966176,-0.0043124324,-0.03847928,0.114088535,0.03298179,0.087173775,0.018068647,-0.0775219,0.058665596,0.04899796,-0.039661944,-0.05604439,0.005567214,-0.024823168,-0.083883636,0.025208348,-0.052904464,0.0060232556,-0.02755263,0.009324618,0.08539992,-0.012146038,-0.028176188,-0.11326438,-0.05155052,0.04673731,-0.109136246,-0.0074032396,-0.036844358,0.01763905,0.006186472,0.17190614,-0.020419886,-0.06098948,0.010006077,-0.00897982,0.007378305,-0.09693505,-0.04150201,0.034626454,-0.0677056,0.038191974,-0.051214986,0.013222781,0.041879684,0.07893629,0.06334869,0.11567743,0.008589564,0.003306602,-0.023993665,0.007782611,0.04149038,0.072631106,-0.12865165,-0.03134373,0.036982615,0.010040309,-0.026370179,0.048192147,-0.038992066,0.004987725,0.0077329264,-0.038410608,-0.034420945,0.0026712604,0.113830484,0.025091803,0.015470736,0.023970118,0.020701844,0.033073008,0.006120185,-0.00071685313,-0.04887755,-0.0065382035,-0.0025364994,0.026544914,0.031685237,0.01270027,0.08376492,-0.011380565,-0.02848345,-0.04719481,0.08835984,0.03183668,-0.002197016,-0.031880923,0.047882598,-0.029307354,-0.00016093701,0.08167184,0.085799724,0.044875495,-0.01085023,-0.055975378,0.05135289,-0.029373214,-0.03245105,0.0004911527,-0.008936912,-0.01429007,0.0009829256,-0.12020396,-0.036225487,0.006776011,0.008256544,0.0077068,-0.045672912,0.025519902,-0.046537474,0.01870275,0.08857863,0.05713574,-0.005965845,-0.06923581,0.042938776,-0.057328302,-0.054380238,-0.054294676,-0.14409305,0.052402187,0.015223363,-0.03317625,-0.021333601,-0.01946332,-0.020513836,-0.018801771,0.0024501414,0.020276502,-0.060921192,0.021458793,-0.041980088,0.029141018,0.04532068,-0.01214137,-0.014159399,-0.05320143,-0.015982475,-0.061571218,-0.0005526588,0.11719978,-0.024966754,0.04570488,0.07495234,-0.0060957987,0.026419798,-0.013403034,-0.04510454,0.106273755,0.023142764,-0.12159636,0.0597005,-0.019577658,0.014874674,-0.05380383,-0.030229378,-0.069935046,-0.0058158757,-0.04792774,-0.09322901,0.022860348,0.005740353,-0.015717909,0.06261404,-0.046941064,0.10895811,-0.036939945,-0.034787823,-0.038812734,-0.017735463,-0.0012959547,-0.026224097,0.0017619922,-0.06788952,0.03624227,0.04298707,-0.0015577413,0.007944355,-0.0714598,0.05671245,0.0741912,-0.013416173,0.042098023,-0.06385043,0.014251314,0.031208863,-0.0067558093,-0.0676894,0.0408457,-0.0016947768,-0.042060398,0.095098354,-0.0014720319,0.023173932,0.03826554,-0.051530678,-0.06243942,0.039036028,0.06222816,0.09606653,0.044343747,-0.04004873,0.04750209,0.04949214,0.04988683,0.004524514,0.06549945,0.0017058104,-0.09473552,-0.010553014,-0.06287352,0.050748397,-0.046296403,0.011401477,-0.011191057,-0.010707438,0.014911467,0.013607964,-0.012044062,0.0046064556,-0.06262328,-0.03044163,0.008186348,-0.040357716,0.023618065,-0.026791275,0.039957497,-0.11103316,-0.0019408471,-0.039590456,0.016098162,0.029655388,-0.035834737,0.024370871,-0.010452949,0.0098925335,0.010654221,0.019253705,-0.049239013,-0.0089761885,-0.021043818,-0.020480197,-0.08861075,-0.06609379,0.020424347,0.017686278,-0.050646596,0.09379878,0.016110161,-0.011529259,-0.0805948,0.07442342
afectar,0.063693225,-0.020251058,0.045893133,-0.015235196,-0.0080108335,-0.0055502895,0.010213665,-0.0006139322,-0.008871496,-0.0586492,0.026202284,-0.000622926,0.0011696927,0.03229127,-0.0526009,0.015831849,0.016511882,-0.037354503,-0.016191028,0.019953303,-0.06546765,0.032673832,0.06573578,0.011432789,-0.0581224,-0.07062194,0.02067211,0.026599789,0.045250177,0.0124156745,0.043270666,-0.06287245,-0.05234741,0.04420474,-0.0102467425,-0.043763753,-0.0149277905,0.055460136,0.039894145,-0.0064611156,-0.098405965,-0.023359329,0.023149848,0.020297492,0.03984857,0.026279554,-0.019604636,-0.03317443,0.01992074,0.058514714,0.019397965,-0.004196795,0.009892146,0.015609051,-0.011864367,0.063939035,-0.0030115026,-0.012158527,0.0062845177,-0.078812875,-0.009315454,0.026170446,-0.048752572,-0.008615805,-0.055644628,-0.021511398,0.038714778,0.0049195685,0.019462058,0.032271888,0.010969707,0.098131984,-0.04325321,-0.023570523,-0.024229849,0.0025874183,0.010285844,0.025645608,0.014601957,-0.007560455,-0.09106678,-0.030103192,0.009846025,0.042228043,0.013804555,0.025729092,-0.0074088047,-0.028206958,0.0004983929,-0.03795733,0.05668935,-0.0060322755,0.011886972,0.009390217,0.019302603,-0.0025969793,0.0070395377,0.002116736,-0.04140715,-0.09958297,-0.0107114175,-0.07858446,0.026090913,0.030064376,0.01651637,0.03654338,-0.041647047,-0.022278503,0.04790755,0.13353692,0.0066825696,-0.0060066334,-0.015752288,-0.04030433,0.03129182,0.02261679,0.050082665,-0.025226558,0.06111249,0.06248069,0.0019749634,-0.0062326244,-0.00812271,-0.05433507,0.0050867754,-0.027529987,-0.05377819,0.018485384,-0.018723806,0.061804082,0.0025775644,0.09673431,-0.01138936,0.048375797,0.019643603,0.013158544,0.009684515,-0.025770912,0.07428535,-0.032434836,0.050888207,-0.0007198788,0.035721675,0.021263951,-0.002075515,0.0039729103,-0.024874264,0.057012647,0.06291985,-0.014537093,0.019334657,-0.0203969,-0.030943265,-0.009096687,0.061264466,-0.008618127,-0.07647338,0.00854681,0.03306847,0.0054351757,0.07204668,0.009012283,-0.04229961,0.0030350953,-0.002678223,0.008055146,0.037716515,-0.0031719105,-0.037268054,-0.00432367,0.06362786,0.03153209,-0.025801504,-0.0054852366,-0.0016323827,0.006470164,0.029917717,0.027085774,0.028091088,-0.038309965,0.08834264,-0.036470596,0.047011536,-0.044627722,0.0059793927,-0.077839166,0.016866634,0.02215375,0.03051017,-0.04476655,0.021284962,0.0010914385,0.013175155,0.09307245,-0.012473173,-0.0837181,0.011770721,0.11872432,0.08524191,0.04585372,-0.028722635,-0.07089091,0.02251578,-0.027630793,0.032401454,-0.04376335,-0.04057459,-0.075723805,-0.025167873,0.0031112414,-0.0114381565,-0.020022634,0.11829615,0.00030868748,0.046639178,-0.028564861,-0.01408771,0.08382944,-0.012128201,-0.055342186,0.036330525,-0.04003371,0.02184687,0.01572554,-0.0044294684,0.0054177158,0.02587041,0.037674297,0.026184043,-0.0057090316,0.042540085,-0.06261171,-0.021250514,-0.04387336,-0.016072594,-0.035620157,0.022013122,0.031915706,-0.07793351,0.020691853,0.016521381,-0.005442608,0.050070804,0.075180106,-0.018207284,0.0133197075,0.009168563,0.031017167,0.011862439,-0.030900009,0.00864783,0.010355282,0.11827531,-0.040327672,-0.0078363605,-0.01762011,0.04959183,0.00992082,0.009364002,-0.04999657,0.027862286,0.010865477,-0.037417095,0.005011386,0.005826306,0.019976085,0.0037329423,0.032786075,-0.014420052,0.03378195,0.0024317019,0.00041694473,-0.04161179,-0.00036385632,0.010034882,-0.033488948,0.011816344,0.05655669,0.025487415,-0.012338501,-0.068346076,0.033088993,0.06852704,-0.06388171,0.026001245,0.045210492,-0.011652357,0.006523576,0.08993363,-0.021340147,0.0027480777,0.07667623,-0.024889922,-0.004093819,-0.08556855,0.048126195,-0.06831253,-0.07280546,0.0060325437,-0.034617517
afecto,0.007187891,-0.055119477,0.027384559,0.038977105,0.04441985,-0.05647672,0.03522889,0.050588667,0.007657011,0.04711228,0.12265547,-0.006912809,-0.06773026,0.044911362,-0.018109571,0.07069999,0.113171324,-0.004802093,-0.012997573,-0.031356115,-0.054551445,0.013126269,0.054410774,0.05412177,-0.04999697,-0.025845742,0.030757552,-0.003080675,0.033016868,-0.0127583025,0.035312563,-0.05867813,-0.03582009,0.033435646,-0.05940502,-0.07068786,-0.011478996,0.0724081,0.045863867,0.007926897,-0.063950315,-0.06757583,-0.05301403,-0.04138806,-0.050993063,0.052504532,0.025354465,-0.04103585,0.054307472,-0.0015154693,0.047991443,0.027396321,-0.06213354,-0.0062887324,-0.07255826,-0.001528313,-0.040894397,-0.002075106,0.015251177,0.035807997,0.022927627,-0.058572847,-0.09470497,-0.059079845,-0.06381718,-0.05306402,-0.023314606,0.03776209,-0.039147183,0.015892038,-0.061849605,0.054934938,-0.06643455,-0.01532332,-0.08314721,0.0011116226,0.020732006,0.017720535,0.06731619,0.009807286,0.047977142,-0.014411139,-0.00015179292,0.026118208,0.025109235,0.0049966015,0.043409083,-0.05297318,0.0668152,0.09127728,-0.023346866,-0.07579276,0.0054506185,-0.045292147,0.03544447,0.05206709,0.004352006,0.024623994,-0.011462328,0.0400886,-0.003624099,0.011990303,0.0145478,0.04123662,0.047708847,-0.04464472,-0.08324698,-0.005517225,0.020830348,0.013967956,0.040117066,0.0077226656,0.052544277,0.02819373,-0.015147993,-0.08046882,-0.007691601,0.010098422,0.049782258,0.087136984,-0.044531178,0.0066853976,0.017974043,0.0004642546,-0.0026778597,-0.0011696771,0.03791925,0.02979157,-0.042517483,0.003841164,0.04598697,0.088814855,0.009819817,0.020394053,-0.085828006,-0.0108833825,0.03452375,-0.05822424,0.12555535,0.017533991,0.00017713904,0.011470305,0.009840247,-0.017832711,-0.039469678,-0.00436614,-0.05461687,0.06258137,0.06444611,-0.039414577,-0.01994335,-0.017051678,-0.12921014,-0.012224893,-0.031881664,0.015803905,-0.06997384,0.02929478,-0.043792732,-0.0065579847,-0.029959153,0.039422113,0.011334548,0.03217125,0.076698445,-0.06853322,0.001988025,0.013026339,0.025000203,0.03189221,0.045450002,-0.07873473,-0.046887286,-0.091221005,-0.0043612504,0.032142434,0.06308733,-0.0024628714,0.120696925,0.004021421,0.072379135,-0.03357742,0.019977735,0.0034948767,-0.0074154525,-0.028022747,0.04340803,0.04265392,-0.014459396,-0.045741156,-0.020778943,0.0022215142,0.026085228,0.02529279,-0.06601398,0.045818053,-0.06076051,0.024604471,0.006517905,0.13600612,-0.030579273,-0.06827254,-0.079376,0.054270685,-0.06722556,-0.08283144,-0.02002271,-0.098686635,0.043501668,0.051496126,-0.0071265125,-0.018861178,-0.0014688015,-0.01980852,-0.036637865,-0.11120441,0.041868784,-0.051716767,0.07070391,0.0150643345,0.04170846,0.04525145,0.052550714,-0.02508086,0.04413757,-0.027740052,0.014242348,-0.021064477,0.024412537,0.0780259,-0.04067176,-0.024796376,0.026429117,-0.010759224,0.009740993,-0.08266656,-0.028609399,0.0027536699,0.021503612,0.10115802,-0.024228863,-0.023559807,0.039725546,-0.053399254,-0.025445808,0.026169632,-0.019476175,0.10110793,0.12404785,-0.057313908,-0.01716629,0.0035492238,0.06701918,0.015686527,0.042461924,-0.08082471,0.11045811,-0.0070169256,-0.081465766,0.03793646,-0.023924056,-0.018051041,-0.010659012,0.010892613,-0.016815798,-0.0053877095,-0.0031141879,0.097612865,-0.06350644,0.025988672,0.060766418,0.0918685,-0.029333312,0.010200531,-0.023297409,-0.035516314,-0.001805881,-0.060662467,0.030784365,0.0014751554,-0.029911954,0.041589107,0.08024803,-0.01431529,-0.013538979,0.11877574,-0.016188826,0.025327746,0.09382115,0.0022835522,0.034090653,-0.017708745,0.029189656,0.20215324,-0.0055582547,0.041707247,-0.014177096,-0.0094614355,-0.056403548,-0.012643322
afianzar,0.00930383,0.0061129,0.04204182,0.060606964,-0.014101742,-0.0077063837,-0.008558429,-0.0077182353,-0.0027935933,-0.025843058,-0.009574779,-0.045508172,0.017499402,-0.036264006,-0.026227942,-0.008785718,-0.030189952,-0.0039323973,0.014220492,-0.029727587,-0.076373145,-0.050390683,0.09171885,-0.020474222,-0.06988131,-0.007717271,-0.003970492,0.06644287,0.053619556,-0.028067535,0.023528377,-0.01658721,-0.028267479,-0.052765537,-0.008958449,-0.020303383,-0.049423117,0.0019920995,-0.0031464675,0.050441075,-0.073454395,-0.059330452,0.010898682,-0.03832135,-0.037536647,0.018407622,0.0087679345,-0.044888437,0.03629635,0.013398422,-0.0066253976,0.04450662,0.011347726,0.0009398737,-0.04935372,0.022253124,-0.036799397,0.009281674,0.06312355,0.055779744,-0.0032586723,0.014475555,0.017256033,0.018573191,-0.06831708,0.027148845,0.0767024,-0.027248744,0.02957496,0.009820113,-0.01574955,0.029769938,-0.018670026,-0.020399047,-0.017798694,0.010849812,0.010257165,-0.017611573,0.0800467,0.012186631,0.016623098,0.02705531,-0.01613801,-0.039426513,0.043333378,0.084472016,0.0017430735,0.02141147,0.021075353,0.042727705,0.020744482,-0.005210268,0.02475452,0.03635793,-0.017205922,-0.016468387,0.027588384,0.009667436,-0.028128961,-0.021050047,0.021633403,0.037186507,-0.04817469,-0.009124771,0.026829561,0.005044208,-0.011097987,-0.027623076,0.05268424,0.122336105,0.033236377,0.036637466,-0.02571176,0.051829375,0.019889668,-0.04620596,0.023531662,-0.020686597,0.05210668,0.05740089,-0.01576209,0.031618312,-0.01698923,-0.02296758,-0.00078350544,0.0020069382,-0.011766979,0.014643071,-0.040379528,0.044639442,0.022243107,0.10457038,0.050213706,0.03768244,-0.07506068,0.030757368,0.0076410333,-0.067656845,0.05541885,-0.03285178,-0.0025875287,0.00044056348,0.033769272,0.0025332433,-0.014738821,0.033578448,-0.035520714,-0.01192642,0.036054254,0.0088161975,0.041168146,0.019428367,0.014244551,-0.018862937,0.045273665,0.04552913,0.03441391,-0.020663578,-0.062012214,0.021132851,-0.016472153,-0.03960005,-0.055605512,-0.02983441,-0.013672982,0.024055388,-0.023134792,-0.030089976,0.004491792,0.022486266,0.012485185,0.016443914,0.020024015,-0.03393761,0.06399659,-0.023011018,-0.041106977,-0.0020166752,0.039720792,-0.028067188,0.04730626,-0.02391225,0.0034525234,-0.005337481,0.02600584,-0.022304196,0.003626842,-0.07253692,0.022608798,0.0045215143,0.017322693,-0.014058733,0.011374326,0.033710834,-0.0037803978,-0.044235457,0.016610773,-0.017600942,0.068103306,0.024281217,-0.015867919,-0.021117436,0.016567932,-0.005622379,0.014978558,-0.004931376,-0.0030031502,-0.08968485,0.009672545,-0.03726987,-0.026082834,-0.026936132,-0.011117326,-0.009358237,-0.032891072,-0.0783845,0.036566146,0.006876821,0.073746696,0.020519989,-0.024814209,0.06381892,-0.0022011187,0.06353697,0.07118616,0.06901858,-0.01528102,0.045222428,-0.05851454,0.013622345,-0.0063431985,-0.065003805,0.060131907,0.046998493,0.027351981,-0.0035242343,-0.004217859,0.0381942,0.024507236,-0.00016365519,-0.0129623115,-0.030486023,0.034672946,0.023278113,-0.05543781,0.038716342,-0.030084612,0.04012779,-0.033456083,-0.038301475,0.0054614968,0.018375887,0.10586071,0.039630733,-0.0046488703,-0.019926457,0.019242052,-0.005854162,-0.0023015935,0.016053405,0.0134067,-0.019130899,0.026123857,0.05897638,-0.018221408,0.013001187,-0.03424477,0.08390511,-0.04065383,0.038393,0.046191037,-0.039552253,-0.0075794724,0.013246846,-0.040390484,0.033340596,-0.031114051,0.0017479344,-0.051752035,0.03745087,0.033512898,0.046287637,-0.0590849,-0.024991753,0.00566215,0.073391594,-0.029212164,0.01315245,0.10450451,-0.035784863,0.026952164,0.08738005,-0.05141314,0.047206484,-0.0027684777,0.015584978,-0.009956394,-0.009000172,-0.015513927,-0.011513109
afligido,-0.055091668,-0.07737696,-0.022780463,0.038336482,0.01127584,-0.031697534,-0.03480855,0.0063914238,-0.015383181,-0.0011917055,0.09538078,0.00041122973,-0.051239274,-0.045743715,-0.10200662,0.011721459,0.047751445,0.03553251,0.030283256,0.007830746,0.06294369,-0.0052935905,-0.04540926,0.029148249,-0.062199663,0.007912988,-0.046206675,0.057909865,0.011646241,-0.023631439,0.07405965,0.03656288,0.060144432,0.054617394,-0.048762858,0.01713693,0.02118395,0.08124797,-0.0028787886,-0.014776806,-0.010426,-0.03697483,-0.041305922,-0.03096935,0.04184963,0.011237981,0.0061381576,-0.002218237,0.012851773,-0.016113479,-0.009836363,0.020685734,-0.03650052,-0.05454799,-0.014012225,-0.03492863,-0.024222467,-0.09677547,-0.00666899,0.002788966,-0.01054759,-0.014351772,-0.11156716,0.0059886565,0.016756596,-0.056072976,-0.03377952,0.016846847,-0.030337086,0.006502325,-0.0077667264,0.026198843,-0.017104559,0.009486422,0.025491094,0.03239545,-0.018398032,-0.038094353,-0.016715396,-0.02026454,-0.06698304,0.0389557,-0.07730434,-0.009949557,0.017817086,-0.033398848,0.013016603,-0.077111065,0.03486457,-0.064554684,0.0054243244,-0.029889937,-0.09171308,0.0058242967,0.024634363,-0.010456291,-0.014109567,-0.019129837,0.028356245,0.07347751,-0.022053033,-0.0056132157,0.038544934,-0.009334803,0.017357681,0.009644242,0.0014185028,0.02379359,-0.011070642,0.03949104,-0.0060630697,-0.036510784,0.0046139695,0.00904319,0.026725475,-0.00090365484,-0.028916413,0.010150182,0.032835603,0.0018238506,-0.024663663,-0.019567598,0.017041702,-0.015981779,-0.005482126,-0.032715216,0.017509373,0.020027956,-0.023314167,0.0023972024,0.062409606,0.030578373,0.046547357,0.01664807,-0.04762492,0.035775017,-0.056245394,-0.048951834,0.069650695,-0.025844412,-0.02644897,-0.0072223567,-0.07883268,-0.0107158,-0.05252948,-0.02986726,-0.049204063,0.037212975,0.046331495,0.018054482,-0.014353857,0.031645358,-0.008986895,-0.03980693,0.062432356,-0.01729828,-0.02432228,-0.03353647,0.05438208,-0.0019780588,0.0346426,0.025776858,0.02827188,-0.03636497,-0.01440238,0.039830245,0.066745184,-0.014598951,-0.0064381766,0.017949361,-0.0014104034,-0.056631465,-0.05493641,-0.061194684,0.07425626,0.026607018,0.062825106,0.0017951729,0.021770587,0.03455869,0.075076066,0.06911628,-0.012067755,-0.02710052,0.027422292,-0.04600464,-0.045301348,0.025008423,0.0067973575,-0.06531555,-0.0064748614,0.032182235,-0.022970935,0.040155,-0.026751574,0.03005998,0.011123032,-0.012063255,-0.061850946,0.015890997,-0.013969756,-0.01451687,0.051518798,0.016923368,0.025177535,0.046523128,-0.028960058,-0.09185527,0.012399115,0.026148956,0.008348086,-0.020298954,0.01955234,-0.0178355,-0.023384934,-0.010725928,-0.035964638,-0.06320701,0.06173234,-0.02993975,0.057062495,0.07175826,0.039780337,0.0062846835,0.020975625,0.037421983,-0.011140271,-0.021397209,-0.036029287,0.09455091,0.0012987735,-0.044624,-0.09767052,-0.047935773,-0.020348672,-0.008651146,0.002863047,0.017305229,-0.05481181,0.037616473,-0.05005137,0.00086221815,-0.004252265,0.022603553,-0.10596894,-0.0013948784,0.040309515,0.041249815,0.059469692,-0.032101102,0.023793519,-0.03480693,0.028673053,0.058218498,0.046943,-0.021230131,0.0041719824,-0.03165348,0.007631126,0.011636798,0.047336336,-0.014351575,-0.032733437,-0.022321025,0.025032286,-0.039752748,0.039527316,0.08516531,-0.03919569,0.034871843,-0.051283833,0.05931569,0.017654005,0.043436177,-0.018346999,-0.05216077,-0.002788354,0.02722617,-0.016091216,-0.013456293,-0.053109646,-0.01955936,-0.013237135,-0.017519388,-0.04088636,-0.01942269,0.06463121,0.013798169,0.022913104,0.01719909,0.024937868,-0.07377077,0.0017562503,0.019230807,0.006970324,0.0038942609,0.01323773,0.0023727312,-0.025725435,-0.043111525
