MAYUS,0,1,2,3,4,5,6,7,8,9,10,11,12,13,14,15,16,17,18,19,20,21,22,23,24,25,26,27,28,29,30,31,32,33,34,35,36,37,38,39,40,41,42,43,44,45,46,47,48,49,50,51,52,53,54,55,56,57,58,59,60,61,62,63,64,65,66,67,68,69,70,71,72,73,74,75,76,77,78,79,80,81,82,83,84,85,86,87,88,89,90,91,92,93,94,95,96,97,98,99,100,101,102,103,104,105,106,107,108,109,110,111,112,113,114,115,116,117,118,119,120,121,122,123,124,125,126,127,128,129,130,131,132,133,134,135,136,137,138,139,140,141,142,143,144,145,146,147,148,149,150,151,152,153,154,155,156,157,158,159,160,161,162,163,164,165,166,167,168,169,170,171,172,173,174,175,176,177,178,179,180,181,182,183,184,185,186,187,188,189,190,191,192,193,194,195,196,197,198,199,200,201,202,203,204,205,206,207,208,209,210,211,212,213,214,215,216,217,218,219,220,221,222,223,224,225,226,227,228,229,230,231,232,233,234,235,236,237,238,239,240,241,242,243,244,245,246,247,248,249,250,251,252,253,254,255,256,257,258,259,260,261,262,263,264,265,266,267,268,269,270,271,272,273,274,275,276,277,278,279,280,281,282,283,284,285,286,287,288,289,290,291,292,293,294,295,296,297,298,299
DESILUSIONADO,-0.032153614,-0.046057247,-0.00991006,0.012173908,-0.025625637,0.0065527307,-0.018391596,0.02446751,0.0062520127,0.0070260195,0.04374627,0.017711245,-0.021455575,-0.018141646,-0.029460337,0.008249601,0.013012058,0.0038926702,0.020663928,0.010772299,-0.0041845096,-0.017919434,-0.013816318,0.033923652,-0.074299656,-0.03721924,-0.046706334,0.028243821,-0.017267019,-0.004099181,0.03665876,0.004338028,-0.0026211613,0.010688111,0.040466726,0.0035840299,0.013546984,-0.014978632,0.009534394,0.019163428,-0.024915531,-0.019207163,-0.02177003,-0.00039190598,-0.018589241,0.008751631,-0.0005069039,-0.008930558,0.045223743,0.033687033,-0.0076673585,0.008053577,0.0005755145,0.014555748,-0.011191371,-0.03587295,0.0012574429,0.014295468,0.0021327296,0.010129582,0.038104206,0.019413976,-0.024046406,0.045384757,-0.008185784,-0.031248186,-0.010287027,0.016115133,-0.0057946793,0.013052091,0.017484333,0.0074909567,0.009716126,-0.0048799436,-0.005108088,0.025367502,0.012037726,-0.017656103,0.014136503,0.001554325,-0.048704773,0.037585866,-0.009828069,-0.016502753,0.012480665,0.0044082394,-0.006065387,-0.022198668,0.024217283,-0.026813243,0.004400492,0.026919832,-0.0055494546,-0.0010196933,0.0064050397,-0.0061162873,-0.035903122,0.009030699,0.0012611148,0.00035151187,0.003228724,0.045449268,0.014600169,-0.031679757,0.0022692902,-0.0073819137,0.014851994,0.019904716,-0.04134684,0.013346998,0.0028202373,-0.030477865,0.0061521195,-0.02521818,0.032186568,-0.017451284,-0.07120754,-0.013498816,0.021458318,0.0077956365,-0.0038044208,0.013566988,0.0057618013,-0.0283688,0.02100712,-0.029317811,0.013067363,0.01409918,-0.021805836,-0.012083392,0.024872756,0.023148082,0.015878972,0.023342771,-0.04395704,0.023709696,-0.01725175,-0.0024946246,0.03547535,-0.02198878,0.0054009873,-0.011237311,-0.043769777,0.012590287,-0.022468176,-0.029407244,0.013785427,0.020931266,0.01971496,0.027051708,-0.019164324,-0.020649493,0.0019031562,-0.0018507892,0.04438275,-0.045876935,-0.027741738,-0.015645448,0.0054423846,0.016108423,0.02801796,-0.003323188,0.0014834757,0.0070989346,0.002103972,-0.033291098,0.012286084,-0.010797004,0.02896621,0.02537283,0.0045274408,-0.04724787,-0.03539706,0.022073923,0.022671293,0.010961092,-0.015886204,0.0013899521,0.004086011,0.014257553,0.045195073,0.01584372,-0.014511759,-0.010524439,-0.016630454,-0.006161151,-0.03220708,0.015311073,0.027296904,-0.0048853983,-0.01818036,0.014806185,0.029017296,0.026026845,-0.0424902,0.016568568,0.0074826535,-0.016654644,-0.025400847,0.03290554,-0.015392333,-0.03120188,0.032464117,0.01498242,0.0022755875,0.017487828,-0.026006749,-0.054202355,0.0059898496,0.0031101387,-0.012829389,-0.0146537,-0.0059084278,-0.006428129,-0.0014058535,-0.0031006546,8.669931e-05,-0.010017881,0.013185944,0.019496555,0.015000999,0.022453187,-0.006921403,-0.0027501637,0.031074796,0.0040323352,0.011319271,-0.012228816,0.011396102,0.010180322,-0.036104023,-0.011519309,0.0019639144,-0.0041393405,-0.0055049057,0.01455099,-0.01048912,-0.011916305,-0.028050292,0.02721585,-0.017488565,-0.0035734202,-0.03230641,-0.017770113,-0.065246865,0.00053517846,-0.010255737,0.037066225,0.031135304,-0.025342982,0.0100028,-0.053461045,0.008341763,0.023721112,0.017294,-0.009738603,0.00874741,0.0080405325,-0.015619619,0.020668626,0.02520749,0.00475006,0.020272855,0.00106721,0.024237886,-0.05222164,-0.0022718534,0.036517575,0.004889504,0.011177367,-0.006165949,0.012404166,-0.018998738,-0.005549773,-0.026683135,-0.015750505,-0.008030215,0.034253493,0.0027115382,0.013072759,-0.042245,-0.008378258,0.00091974624,0.0036934623,0.016117692,-0.005495754,0.012107196,-0.0139700305,0.023578275,0.0059697116,0.00851917,-0.05216045,-0.017654382,-0.0017127141,0.0037738837,0.018493108,0.023525579,0.03614831,-0.020911954,-0.00899485
INTERESADO,-0.03189832,-0.026617607,-0.0055205887,-0.020397129,0.00093302864,0.0059311767,-0.010504832,0.00067797845,-0.0015925128,0.03073592,0.05095347,0.021054232,-0.01730704,0.009669508,-0.011300359,-0.009137511,0.026823845,0.047936082,-0.059440367,0.005258375,-0.028961977,-0.003919452,0.016379181,0.026130045,-0.01749382,0.014052327,-0.018990634,0.062203933,-0.004803593,0.007640665,0.033284564,-0.02552021,-0.030639715,0.028686438,0.02198452,-0.0011482022,-0.0066290856,0.0032100915,0.00076669705,0.004065202,-0.056330588,-0.024471734,-0.022765415,-0.016831692,-0.051208276,0.0052151256,-0.007007218,-0.02836187,0.032574188,0.018100018,0.049711782,-0.0024568522,0.017088728,-0.0033130723,0.003109229,-0.018410457,0.004749118,-0.017547341,-0.012474678,-0.040776014,0.029279616,-0.00042491304,-0.02711674,0.01920995,-0.03556392,-0.017074957,0.00075647567,0.022827199,0.008071219,-0.0120223705,-0.0016629148,0.035319794,-0.021150298,-0.004740911,0.019653218,0.010844482,0.02531662,-0.022514358,0.045381848,0.039596636,-0.0427784,0.0017738742,-0.016380694,0.01824356,0.014999132,-0.027394298,-0.03382221,0.010539684,0.0067870026,-0.01649899,0.0068361224,0.0025620938,0.005424084,0.012643614,0.029242363,-0.0140054375,-0.00911266,-0.006719006,0.035711024,0.03165788,-0.05243453,-0.006871515,-0.010356826,-0.0014095546,0.06667314,0.011741891,0.031165017,0.015711108,0.0011391096,0.051108103,-0.012177045,-0.036846373,0.029083107,-0.009513614,0.031871106,-0.0035508391,0.001915582,-0.019830614,0.025613805,0.055238623,-0.0008722927,0.039360557,-0.027910957,-0.021032391,0.04818782,-0.0016713121,0.0017960765,0.01829104,-0.017278409,0.018013507,0.033151314,0.047093075,0.028309548,0.010410342,-0.00705354,0.017486524,-0.032797914,0.013733893,0.06723974,-0.003983448,0.019239154,-0.0071149725,-0.033998515,0.00913309,-0.037662465,-0.0087931,0.026110288,-0.01034929,0.016712775,-0.021184452,-0.0024582513,0.019754656,0.00905316,-0.0025033292,0.04037605,0.013036908,0.047200542,-0.026999613,0.023716524,0.026427094,-0.037795346,-0.021706318,-0.027580235,0.060136966,-0.013923627,-0.011012628,0.026553674,0.034973066,-0.07781366,0.0050595836,-0.0027984749,-0.041483942,-0.020518865,-0.014305547,0.045568388,0.0048514158,-0.0075399694,0.03095187,-0.007600444,-0.004422457,0.05715887,0.05558157,-0.046987142,0.022288183,-0.06328054,0.007379796,-0.0020253595,0.045764275,-0.011907414,-0.0218082,0.016603168,0.0027204645,-0.00031224472,0.0032837237,-0.011748952,-0.016022848,-0.009603239,-0.0015243314,0.02034914,0.04760428,-0.03661583,-0.029320559,0.019616224,-0.0011039639,0.023985395,0.074058674,-0.016258053,-0.04715495,0.021615835,-0.008412661,-0.03070831,-0.020501498,-0.0183068,0.024334349,-0.00045975132,-0.048880674,-0.01520401,0.0012372029,0.031802677,0.038131356,-0.0034044853,0.034870196,-0.021482982,0.009534505,0.03226607,0.027000487,-0.0194512,0.024681197,-0.010512084,0.0015418772,-0.020777736,-0.010142113,-0.0075921523,0.0018433933,-0.043162394,0.010326602,-0.0006307256,-0.014593282,-0.025259256,-0.00029454048,0.021753838,0.014474471,-0.0030262345,-0.016954074,-0.09619861,0.018551372,0.010121296,0.03942446,0.023972789,-0.01960998,-0.0026332336,0.040840052,0.02038178,0.008529022,0.001779296,-0.029831804,0.010813023,0.033726003,0.0011551505,-0.007950327,-0.010390006,0.014692743,0.022844767,0.04013454,0.025973061,-0.03965306,0.026004765,0.030454563,0.008272112,0.019393133,0.015012059,0.017544018,-0.027148157,-0.019394025,-0.030117538,-0.018147077,0.0029270977,-0.015074468,-0.013954393,0.054810435,-0.01167519,-0.005203127,-0.020247985,-0.013292116,0.02667589,0.037801165,-0.019379046,-0.010434289,0.019632557,0.020203134,0.0005620834,-0.068165384,-0.018813558,0.020838877,-0.0116660185,0.015621677,-0.034664698,0.0028053385,-0.020782301,0.009808175
DEPRIMIDO,-0.04694786,-0.06430998,-0.009798702,0.0006951729,0.01759695,-0.021980103,-0.016933378,0.016448949,-0.009691561,0.00588133,0.051329747,0.011943673,-0.017110655,-0.06306708,-0.0122755775,0.01655832,0.017236186,0.0328707,0.038133323,-0.0062255557,0.01524101,-0.022891711,-0.017883943,0.016136386,-0.062690936,-0.051494427,-0.05300773,0.08280246,-0.005002195,-0.028990265,0.058048066,0.0054551177,-0.010953539,0.027550114,-0.019969106,0.038495746,-0.0133315,0.02714838,-0.021558879,0.064426295,-0.019312471,-0.021574123,-0.026389726,-0.01633873,-0.026249675,0.014653865,-0.0037078774,0.0040141046,0.04170111,0.012657381,-0.044127166,0.0024185183,0.015961226,0.0014258423,-0.06390321,-0.06095006,0.005191143,-0.024141092,-0.033381674,0.04549457,0.032040283,-0.020399809,-0.009608799,0.011987344,-0.021772495,-0.079174824,0.013665736,0.03029105,-0.06868973,-0.01465943,0.0030064872,0.044396184,0.011351977,-0.023446696,-0.0012099937,0.026597941,0.030206267,-0.017531335,0.027066126,-0.022908933,-0.03024015,0.046680525,0.023813158,-0.017430196,0.023632154,-0.012471003,-0.005403405,-0.04671374,0.026234087,-0.04708979,-0.021633036,0.041816123,0.004342228,0.031028409,0.079003096,-0.024268517,-0.01927195,0.0048951916,0.013932707,0.03891292,-0.017255232,0.013100514,0.008606276,0.026644677,-0.007532589,0.0044319984,0.0025087968,-0.043391988,-0.01055984,0.017668128,0.011342886,-0.101270474,0.03440285,-0.01792609,0.037473977,-0.022362556,-0.038140506,0.002519051,0.007684068,0.0005711233,-0.025663225,0.046177555,0.0041908156,-0.033985402,0.00078652124,-0.00059022405,0.008496639,0.08127619,-0.04670401,-0.02750192,0.05027123,0.043406248,0.052723527,0.015954107,-0.036885753,0.060700487,-0.03956392,-0.019288233,0.049127962,-0.004755809,0.03371048,-0.007998372,-0.03615466,0.03754196,-0.046754796,-0.04856597,-0.008900445,0.017402235,0.014324972,-0.0094403885,-0.015344303,0.0114343325,0.044910215,-0.007945441,0.03819204,-0.09821093,0.0053409394,-0.017738882,0.0506649,0.03214782,0.054217156,-0.025793435,0.018867929,-0.027785761,-0.009770723,-0.019009002,-0.012123053,-0.011601254,-0.010728225,0.037359882,0.024359614,-0.035380397,-0.03147088,0.028026205,-0.010334802,-0.0010459712,0.055603914,-0.022249307,-0.019886225,0.019976677,0.07436162,0.028227929,-0.032914385,-0.043186292,0.033827886,-0.0046183076,-0.011141801,0.029793981,0.05284028,-0.011123569,-0.047452815,0.018221542,0.056419425,0.036241632,-0.023425933,0.023171347,0.0062752897,0.026155224,-0.06917093,0.019965827,0.0037598088,-0.010049986,0.038092382,0.007926846,0.011970058,0.027460415,-0.018393077,-0.07523103,0.02429114,0.05152412,-0.000494155,-0.006950241,-0.034923464,0.015545695,0.020919207,-0.035695497,-0.003287469,-0.014904037,0.008583071,-0.010542628,0.078247555,-0.028355613,0.027264731,-0.0047901487,0.016296748,-0.00282552,0.064001605,0.0026882254,0.010762993,0.044891134,0.002566251,-0.049137168,-0.049928732,-0.017786525,0.019726202,0.012065578,0.01399356,-0.034959313,-0.050686248,0.063156284,-0.04723953,-0.02284059,0.045097742,-0.0019567164,-0.09896976,0.008027867,0.06601301,0.052933935,0.049381565,-0.025503729,0.007188127,-0.0036022393,0.028113067,0.012865855,0.07697929,-0.008484978,0.024320915,-0.023650475,-0.006772272,-0.04778626,0.019364284,0.020142235,-0.018215233,-0.014557874,0.01597584,-0.008792047,0.022421626,0.06443299,-0.04147747,-0.02156038,-0.025456263,0.09576346,-0.010850329,0.0076367026,-0.024859771,-0.0062591145,-0.028900005,0.048001237,-0.013604773,0.011093084,-0.035588674,-0.0038909046,-0.014042765,-0.014183726,0.0022196705,-0.0037946505,0.048257265,-0.010204324,0.030886093,0.016960334,0.010540074,-0.07756548,-0.0029318552,0.004429272,-0.024244979,0.03387621,0.04542296,-0.013349601,0.012325019,0.0057172487
ACUSANTE,-0.0023674734,-0.009340628,-0.016693143,0.03863533,0.018755425,0.0005480775,0.001050313,0.012668605,-0.007998971,-0.023378212,0.069897875,0.04766412,-0.030657895,0.059328653,-0.020369805,0.026603522,-0.008153565,0.03123425,-0.008706484,-0.012859505,0.0025281848,-0.015270643,-0.07133654,0.028048104,0.02594193,-0.0051589827,0.022170397,0.04774328,0.023501169,0.019107766,0.025169175,-0.041900273,0.008224834,0.01251534,0.006493001,-0.010364718,0.01801441,0.02741183,-0.015539311,-0.033961568,-0.024378432,-0.07839668,-0.047224216,0.012263294,0.0054328176,-0.025090883,0.00287359,-0.006002963,-0.008772197,0.0013562579,-0.0056046764,-0.04793547,0.028594129,-0.009474401,0.037431862,0.076450765,-0.014523834,0.025874281,-0.017059887,-0.019109983,0.00092364557,-0.0042448416,-0.036850795,0.043742206,-0.014682147,-0.0033591485,0.06725081,-0.0051488187,0.00060332956,0.058688823,-0.0010408473,0.001103248,-0.036337785,0.014402864,0.0060375812,0.0045513073,0.088241115,-0.0041699833,-0.01640157,-0.055664197,-0.0013595809,-0.026287042,0.0032982477,0.012388636,-0.02191514,0.02296454,0.016974175,0.00031701382,-0.01982799,-0.007028748,0.020647688,0.009888093,-0.048438955,-0.003081529,0.036061093,-0.01011183,-0.009411862,-0.0056072837,-0.032249045,0.016497333,0.00016472596,-0.0021865293,0.09419612,0.0064422875,0.020517018,-0.02569647,0.006478154,-0.03548266,0.015549124,-0.016522383,0.039053034,0.0018535263,-0.030024774,0.0044239713,0.023444347,0.0062773493,-0.044231642,-0.017983995,0.104642585,-0.04172193,0.009024299,0.01439054,0.036610413,-0.059723336,0.061777785,0.0035577607,0.018414717,-0.042316094,-0.024264295,0.028735496,0.006921871,0.055269096,0.026314156,0.030155333,0.00562266,0.011084331,0.002019289,-0.054580905,0.051971655,-0.02024227,0.042506535,0.036486078,-0.062142096,0.0509768,-0.051169343,-0.015249123,-0.024187902,0.064459816,0.053310625,0.005811645,-0.043746125,0.055745676,0.024058621,-0.0024329335,-0.0019800568,-0.00023884128,0.0074668736,0.0037688285,0.01949052,-0.008765094,0.0379446,0.02376815,-0.0401187,-0.019575186,0.012473995,0.005569466,0.0104306815,0.00016561657,-0.030478671,0.009243229,-0.0003777865,-0.007688808,0.013240659,-0.013413388,0.010860835,-0.005203902,0.05088444,0.008933397,-0.0046139727,0.017209057,0.037925255,0.0221322,-0.01900797,0.0022925208,-0.010731811,-0.009902026,-0.0063011735,-0.0050899675,-0.015118071,0.004315703,-0.0025985886,0.010369728,-0.018163277,0.039676595,-0.061509315,0.03831707,0.0042253523,-0.0058713527,0.055711344,0.10466404,-0.07459617,0.05141867,0.017391425,0.03255614,-0.04002408,0.039962225,0.008901558,-0.060326762,-0.017000157,-0.009355045,-0.025228819,-0.024492051,0.011002894,-0.029429112,-0.02477508,-0.018816724,-0.030648189,-0.009102017,0.06807376,0.01610594,0.0489408,0.02130093,-0.00030498687,-0.010736234,-0.021869697,0.038871937,-0.020825837,-0.035946038,0.010907758,-0.008114526,0.013076096,0.022389518,0.05081794,0.016179107,-0.025311453,0.0010272939,-0.012316578,0.013524399,-0.09088493,-0.026679857,0.03646896,-0.0018514978,0.03925657,0.037247267,-0.03807825,-0.030715192,-0.02966411,0.069953404,0.009514508,-0.049286637,-0.06903402,0.039927132,0.078128755,-0.02327772,-0.012434008,-0.06694516,-0.0082528535,-0.006445645,0.002792413,0.018881194,-0.039669264,0.007924581,0.038416423,0.076088995,0.011410623,0.008282541,-0.008078424,-0.003090304,-0.01122476,0.080508865,-0.0062708254,0.022311302,-0.022322383,0.016668012,-0.025908122,-0.09526237,-0.029105753,-0.005040763,0.056800857,0.07323289,0.010871258,-0.041697282,0.0035024062,0.009285942,0.009789857,-0.0146238785,0.0009785021,0.03259839,0.001605675,-0.028125353,-0.008849656,-0.12375618,-0.0067051505,0.0068493453,-0.05206763,0.00934935,-0.024870733,-0.0035438917,-0.0057144784,-0.025330476
CONTEMPLATIVO,-0.013101715,-0.03978461,-0.010738863,-0.023258379,0.01196134,-0.046466943,-0.012700534,0.0050471094,-0.019697508,-0.008599802,0.0667648,-0.0070740706,-0.027878262,0.0028839167,-0.009505615,0.023206374,0.017931165,-0.003659534,0.02387948,0.003616413,-0.029817991,0.061376326,0.012236893,0.029675644,0.008211366,-0.012732647,-0.03178007,0.013449235,0.0064362437,-0.03355784,0.009007245,0.015605159,-0.019616561,-0.032510668,-0.011927116,-0.020835748,0.014933634,0.031556666,-0.010498352,-0.0026211066,-0.0008347379,-0.05301812,-0.026646938,-0.02123954,0.027719906,-0.0224678,0.021767966,-0.027080432,0.040344875,0.005974348,0.0207679,0.0002565564,0.03192226,-0.008525528,-0.0062040435,-0.0016560195,-0.031120373,0.009441326,-0.026562048,-0.0009930078,-0.034424327,-0.015495978,-0.009623926,0.020332552,0.013385747,-0.015475815,0.042424664,0.019009978,-0.04282926,-0.028766394,0.022351323,-0.017616352,0.04596456,-0.008026386,0.011332791,0.0072070444,0.0036701332,-0.016391385,0.019172383,0.018092584,-0.009341943,0.024999198,-0.034839675,-0.02540657,0.00089882093,0.0043650097,-0.008310869,-0.025136136,0.02566753,-0.019829944,0.016785685,-0.0064920587,0.0013324458,-0.007811647,0.055414863,0.016412426,0.011133297,0.010578925,-0.0028353832,0.0129236905,0.015238062,-0.014808377,0.024672925,0.025826529,0.03668908,0.0036604747,-0.009315336,-0.00040893,-0.0011747957,0.015126899,0.021171091,-0.0067349444,0.010862719,0.0036182827,0.03261315,0.01356584,-0.0054145455,-0.056971993,0.00017491977,0.010333304,-0.02410829,-0.021113925,-0.0034214181,0.008874116,0.007875053,-0.027612334,0.026313078,-0.008756976,-0.029269516,0.046163112,0.01072076,0.02628499,0.03113137,-0.00795929,-0.014388504,0.0050118407,0.0027471096,-0.032080553,0.050897084,-0.0068680225,-0.011978058,0.0077340095,-0.017949654,0.034936164,-0.044939708,0.031026695,0.00051727146,-0.0044835894,0.0069039334,0.03195519,-0.033699244,-0.031917673,0.014319378,0.01410653,0.009509077,-0.0033768998,0.015933055,-0.014383074,0.0064007244,0.0035434687,0.010136521,0.009823741,0.023246644,0.004174472,0.013712615,0.0022491496,-0.028962445,0.010113319,0.013975918,0.016690928,0.007433678,-0.026017439,-0.040529706,-0.011418341,0.019415135,-0.0027849542,0.012642836,0.0077193836,0.016239777,-0.012901636,0.034961756,0.0049453173,-0.015494736,0.049463823,-0.013709901,0.016810961,-0.007749195,-0.011745838,-0.0220858,0.0035129194,-0.0071033016,0.013123881,-0.010246713,0.010008821,0.023619577,0.016616205,0.029930606,-0.019597758,-0.02710807,0.009221431,-0.0019031093,0.022521306,0.021527318,0.008333992,-0.032405734,0.011670647,0.0069577,-0.05492071,0.03328507,-0.006657876,-0.02849014,-0.013010709,-0.021846062,0.012488658,-0.024773523,0.045283865,0.0012003146,0.0024566953,-0.0010757074,0.0078017353,0.009157202,0.0034015086,-0.028896563,-0.028868442,0.020862177,-0.010554455,-0.011865996,0.05953405,0.02997629,0.02219293,0.022736296,-0.036286734,0.014182429,-0.012026498,-0.022255128,-0.0046988125,-0.024166157,-0.02589581,-0.03099653,-0.0021607992,-0.025919188,-0.0098777525,-0.05231203,-0.009791946,-0.07663085,0.043466087,-0.07328075,0.06441495,0.030518617,-0.018484239,0.025796294,0.005481701,0.02977122,0.093060784,0.059599906,-0.0010492535,0.0051318714,0.028383251,-0.05016757,0.004565877,-0.014962542,-0.023704547,0.010114538,0.028993977,-0.005969025,0.0043124696,0.07433394,-0.011772905,-0.018877067,0.009433899,-0.015640516,0.023520105,0.019039538,0.008601619,-0.009050104,-0.016781216,-0.007561717,-0.020007048,-0.03332577,0.025252458,0.028400026,0.0070744,-0.012667244,0.010304168,0.028154543,-0.015862066,0.006991235,-0.024409745,-0.006417495,-0.00019890288,-0.0018214248,-0.0033965595,-0.01187611,0.012593662,0.0014710681,-0.03561123,-0.038587287,0.028605534,0.0010398173,0.009026938
CARINOSO,-0.010762146,-0.025648901,-0.02173234,-0.042750757,0.086712874,0.0019772085,-0.02044135,0.08136341,-0.0035033973,-0.037004337,0.107397474,0.045037486,-0.06400661,0.026786154,0.012621538,0.01408485,0.14065781,0.07947137,-0.008758882,0.032330185,-0.046810415,0.035336185,0.016651329,0.05247062,-0.03572739,-0.02378998,-0.0381381,0.020450931,-0.017815765,0.045064498,0.012829454,-0.07681837,-0.04772835,0.03539338,-0.053213045,-0.0679209,0.0024097776,0.030232335,0.043504726,-0.015835926,-0.008146188,-0.081078745,-0.054769505,-0.049415506,-0.124780804,0.069631845,0.014142427,-0.041615244,0.047231797,-0.17189173,0.002457675,0.023847425,0.014788107,-0.01820424,-0.042544413,0.017557448,-0.04491727,0.011105879,-0.048278976,0.061455864,0.02493787,-0.008320264,-0.016958326,-0.043501917,0.08353284,-0.059560463,-0.018120332,0.017879955,-0.030940685,-0.017482959,0.00995628,0.015958983,-0.044626094,-0.026360266,-0.039038755,-0.03526355,0.008374042,-0.004048317,0.026375746,0.0036263075,0.05329506,0.02361339,-0.0030396516,-0.018166408,-0.0024961554,0.010080456,0.049460478,-0.02951833,0.052079823,0.019578004,-0.031782534,-0.07735893,-0.040345043,-0.024254398,0.06700822,-0.028343821,0.011802538,0.00057457335,-0.058096223,0.08536691,0.009744398,0.011010367,0.010415666,0.06287629,-0.006880408,0.019020654,-0.036693733,0.021332504,0.064178966,-0.0083824545,0.029855099,0.046125066,0.0037790688,0.03473518,-0.01924164,-0.0060711866,-0.00057330116,0.046740536,0.02578833,0.03463797,-0.031566445,-0.010331143,0.0027496987,-0.011783946,0.045019064,0.044155803,-0.015187207,-0.018794242,-0.002258507,-0.0034786742,0.0065261875,0.06786887,-0.03593149,0.005451704,-0.08832326,-0.007746986,-0.029192211,-0.049986783,0.07466022,-0.0070548956,-0.019697933,-0.017814433,-0.0082019,0.030364143,-0.05611503,-0.045952145,-0.016180998,-0.0022411135,0.028583404,0.0041332925,-0.022814436,-0.04141548,-0.055277333,0.027403783,-0.043769177,0.024393339,-0.08046078,-0.037434418,-0.056820676,-0.051355198,-0.04377724,0.020912746,0.06452195,0.075963065,0.032641932,0.0005435784,-0.011751876,-0.025639163,0.013086362,0.0013496802,-0.0068019666,-0.04594224,-0.009551048,0.0025679518,0.05410469,0.053915314,0.03250304,-0.0077094925,0.016129442,-0.037177317,0.058431886,-0.02131999,0.024342325,0.09290578,0.022248603,0.024009723,0.0074252863,0.040529665,-0.0033097568,-0.0379358,-0.01787178,0.050063614,0.010524024,0.014979619,0.0033442576,0.03126519,0.037066743,-0.0032075145,-0.07995215,0.028443398,0.022500915,0.054391187,0.010087549,0.044158783,-0.08556745,0.04641836,-0.014474833,-0.09967842,0.033360213,-0.025126057,-0.019970477,-0.0032245668,-0.0713809,-0.013237628,-0.019314958,0.03067142,-0.0011153491,-0.03875748,0.034737796,0.0017183158,0.023731861,0.010753057,0.05007966,-0.034199335,0.018433532,-0.04085776,0.046319205,0.016224828,0.038969155,0.038004935,-0.0092442585,-0.06381259,0.015323076,-0.018559048,-0.023824291,-0.05715242,-0.03251575,-0.026577914,-0.0007570453,-0.010241262,-0.019461317,-0.029610477,0.030323813,-0.010734386,-0.028862836,0.032923397,0.05987117,0.09659011,0.046427514,-0.02250817,0.038966257,0.04935525,0.036006257,0.011043357,0.0395205,-0.008741338,-0.007319485,0.037200905,-0.100940414,0.0023170854,-0.012002564,0.023597296,-0.0014072096,-0.035289206,0.04014067,0.01821868,0.01744237,0.064337865,-0.002391746,-0.026009714,0.031698205,0.0703736,-0.058040697,0.042505067,-0.011962044,-0.028443396,0.021523334,0.043082222,0.04717311,0.0080878055,-0.013593734,-0.08116298,0.04043833,0.007744601,-0.06605503,-0.013670562,0.022965083,0.01436228,0.0035241249,0.037988342,0.0056060585,-0.034463476,0.026518064,0.092266925,0.038043916,-0.0030018832,0.06593912,0.04022596,0.03563533,-0.0009859556
SATISFECHO,-0.064579755,-0.05060304,0.0073079607,0.0034404313,0.014142081,0.022053327,-0.00785609,0.061327875,0.005091519,-0.017832067,0.04048878,0.01878827,-0.024499154,0.008651357,-0.072687805,-0.023333885,-0.01323551,0.048880175,-0.030551262,-0.012972979,0.021459106,-0.054209523,-0.024231726,0.035095546,-0.054451954,-0.037450857,-0.05662281,0.06262061,-0.002691196,0.032221768,0.02137796,-0.027347824,0.027302483,0.015509297,0.030146318,-0.019752305,0.02218054,0.022086198,0.009668102,-0.03237427,-0.045554936,-0.016695127,-0.03962447,-0.013261151,-0.035087515,-0.0066017457,0.0037638827,0.018624267,0.030625181,0.031562377,-0.0010492583,0.028125849,-0.0040325765,-0.0028593035,0.011537544,-0.051129587,-0.029192992,0.04687292,0.03754272,-0.0108856615,0.005437831,-0.020445956,-0.019908259,-0.038940895,-0.047007307,-0.030119887,-0.0069841985,0.02813745,0.025157418,0.0056125373,0.066987865,0.030959759,0.04660745,0.010505638,-0.0058556707,0.05313546,0.021930238,-0.020651583,0.012229115,0.01725745,-0.016616663,-0.0054131676,-0.012895139,-0.0064862,0.018454827,0.011654594,-0.014547118,0.017324124,0.012330771,-0.008453143,0.017905708,-0.012329967,0.008955904,-0.007887147,-0.0008388021,-0.024185287,-0.042412717,0.03685964,0.021406779,-0.014845871,-0.026963396,-0.017239887,0.010369538,-0.05031635,0.022966513,0.013511983,0.010987277,-0.009181351,-0.025769163,0.030030722,0.02082405,-0.0075659924,0.023218714,0.021623518,-0.0011872815,-0.024264807,-0.039200664,0.030643089,0.03635884,0.032033782,-0.006834078,0.0040015155,0.0376602,-0.06690214,0.006775473,-0.025345987,-0.032941576,0.017177217,-0.031807162,-0.0094189,0.04740344,0.04285154,-0.02498659,0.0169035,-0.0713947,0.058398653,-0.009652723,-0.0069727697,0.034577303,-0.029313233,-0.011908211,-0.02747966,-0.041744195,0.038457785,-0.053503163,0.011998849,0.016508583,0.03618877,0.019689823,0.017723443,-0.019735958,-0.0016014634,-0.004765956,-0.035103727,0.036075965,-0.0008221008,-0.008049562,-0.060673106,-0.0065705124,0.07493583,0.0042155073,-0.0028416568,-0.04746747,0.034665953,0.011354116,-0.026227096,0.02520863,0.00090557087,0.016480321,0.010067347,0.01254922,-0.060799055,-0.026353465,0.029584447,0.022754889,0.0052243033,0.0018634993,-0.017569192,-0.004506606,0.008266817,0.085263856,0.0052645835,0.008625484,0.0003428964,-0.03452289,0.029996637,-0.020422593,0.023607748,0.042775434,-0.026021725,-0.012369721,-0.025137216,-0.00082165253,0.016422646,-0.020643936,0.021105593,-0.01242557,0.012939878,-0.027679257,0.05039049,-0.005610115,-0.019704431,0.044759862,0.028846297,0.006082359,0.03305291,-0.0063462076,-0.0630876,0.024441386,-0.031294603,-0.030095363,0.005607131,-0.034125015,-0.032782573,0.0044130073,-0.03616872,0.011649639,-0.016683506,0.011744033,0.03823598,-0.0028745094,0.035475127,-0.018491082,-0.018658224,0.06471125,0.004807686,-0.026214937,-0.0050869943,0.0015931076,0.04572274,0.013844137,0.004294917,0.01095695,-0.00029687735,-0.052107774,-0.024390934,0.014449967,0.0020981003,-0.017350817,0.032939076,-0.035688918,-0.010631566,0.015511031,-0.027162323,-0.10981842,0.035770707,-0.014255417,0.040998776,0.022572992,-0.022448929,-0.0048578,-0.013376159,0.014336599,0.00086705264,-0.01988938,-0.009837542,0.016782114,-0.011973717,0.0068603656,0.006614421,0.023515413,-0.0121412445,0.040098313,0.011606261,0.019271217,-0.055769373,0.035719484,-0.007856683,-0.016236896,0.01651485,0.02092368,0.026070323,0.023080382,-0.034031834,-0.03632555,0.026807573,-0.0040978184,0.004325494,0.032743424,0.02654163,-0.053463984,-0.043971203,0.009839966,-0.011776161,-0.0051537645,0.008201371,0.013632766,-0.030293021,0.050961696,8.094994e-05,-0.010672959,-0.071705915,0.00423565,0.016338293,-0.014508711,0.012377933,0.08263761,0.009787921,-0.0018476159,0.04030181
REFLEXIVO,0.006122712,-0.04661698,-0.018895846,-0.019238275,-0.0029104594,-0.018162329,-0.04709298,0.039579403,-0.013604751,-0.03346315,0.09230941,0.007799832,-0.025940958,0.029246783,-0.06660346,0.05713042,-0.01869024,0.014317997,0.003352331,0.009905726,-0.05655922,0.06575982,0.0022358382,0.057383142,-0.019451797,0.014228663,-0.035814345,0.02252375,0.0018876225,-0.042308066,0.0011889208,0.032432318,-0.057103273,0.00042088656,-0.042182084,-0.002703744,0.0017965175,0.01827046,0.0035667466,0.023624457,-0.0035696654,-0.116859496,-0.04322877,-0.042037524,-0.0037935032,-0.0027385503,0.026067099,-0.012939835,0.039728973,-0.06149735,0.009396333,-0.011248639,0.034022767,0.019041415,0.01307664,-0.04603859,-0.06770891,0.032506105,-0.039720844,0.034721874,0.0093253385,-0.03336516,0.06405648,0.026698448,0.0199708,-0.023506787,0.02684934,0.021607881,-0.033457033,-0.04156919,0.06765471,0.004444139,0.0046524056,0.010323137,0.007078164,0.029606417,0.019314172,-0.02908713,-0.019221205,0.02032945,0.012465205,0.0013320777,-0.013742353,-0.045788005,-0.006639824,0.023857865,-0.023707718,-6.13695e-06,0.04885017,0.016579177,0.012350477,0.018281043,0.050051957,-0.03857961,0.06550239,-0.036783665,-0.005081661,-0.006120948,-0.022840507,0.040289976,0.039687507,-0.037441272,0.0060890242,0.040010408,0.0665431,0.008577686,-0.06367533,-0.0064035067,0.019608578,0.028600624,0.011968121,0.035054956,0.027366785,0.02278216,0.030898258,0.018898156,0.0018332447,-0.013630082,0.0053217076,0.04002779,0.003426858,-0.036286615,0.0011552777,0.037760675,0.006240174,-0.028285561,0.02793825,0.006744612,-0.04116441,0.02443326,-0.0020384772,0.048007887,0.042526055,0.0011345688,-0.038414694,0.010147521,-0.019854555,-0.06180266,0.08596301,0.0076765576,0.015774416,0.018248737,-0.018315893,0.051234163,-0.07728566,-0.020704344,-0.026658872,-0.02220526,0.035893098,0.028362019,0.02753067,-0.023399472,-0.012965895,0.033956468,0.017813073,-0.014877089,-0.017111553,0.016820358,0.003096581,0.03275897,0.031355947,0.004991377,0.016606797,0.026703242,-0.004703385,0.00671505,-0.040051978,0.017438028,0.033267874,0.03476607,-0.013856762,-0.028968124,-0.07186998,-0.039691232,0.018145029,0.011845795,0.049999375,0.008837081,0.028249308,-0.03369028,0.07785541,-0.015023734,0.0008018594,0.037594374,-0.031482846,-0.014721926,-0.024309885,0.005413548,-0.02606236,0.019149844,-0.027273938,0.010589589,0.042157736,0.0047271596,-0.016337043,0.049630474,0.033573635,-0.0074111805,-0.027335394,0.02873784,0.006563442,0.05599491,-0.0019273469,-0.02248517,-0.05558546,0.031733543,0.013835768,-0.081092276,0.025746355,0.00996861,0.0042161974,0.009996191,-0.064137146,0.033141654,-0.03179045,0.06341476,0.008021067,0.04046126,-0.032874696,0.041502845,0.0047228914,0.02135995,-0.031940576,-0.046102818,0.008116729,-0.027556604,-0.0026744623,0.01092677,0.044711735,0.011219222,-0.0006935671,-0.07859105,0.00041478954,0.0137486365,-0.030838177,-0.01848457,-0.008833583,-0.0044747125,-0.008147635,-0.01149526,-0.022640668,0.008328312,-0.007938592,-0.016075362,-0.08122016,0.06432582,-0.019236993,0.09809522,0.057537645,-0.032954667,0.071581915,0.007031275,0.00070665684,0.03190395,0.070312664,-0.011946483,0.030480918,0.045295306,-0.044452153,0.026167046,0.003917481,-0.024893021,0.030420257,0.010196594,0.03810007,-0.027525984,0.007177136,-0.018372482,-0.031670734,-0.013151943,-0.0085574705,-0.0070528747,0.0046664886,0.027114486,0.00161923,-0.036709074,-0.028933985,-0.017711297,0.01698935,0.02907988,0.008914309,-0.053407248,-0.026596107,-0.024772026,0.025598675,-0.008698168,-0.008433156,0.010725348,-0.0043950034,0.0026572421,0.029004969,-0.01789042,0.007396782,0.007667811,-0.003948074,0.015947238,0.020423306,-0.002946651,0.04290341,0.03592959
AGRADECIDO,-0.032292243,-0.049964733,-0.007875414,-0.052431226,0.032021727,0.00503104,-0.02896042,-0.001013572,0.048673272,0.0019912638,0.03562804,0.047368832,0.011550378,0.029059218,-0.055459697,0.0037156402,-0.0028838913,0.070337616,0.018214682,-0.028413743,-0.029674845,-0.0042901025,-0.014844183,0.046296187,-0.061833337,-0.030839277,-0.046818193,0.061111346,0.021484789,0.02825545,0.04637407,-0.03163098,0.011671247,0.020267095,0.009293905,-0.0654128,0.030125393,0.005077441,0.027172737,-0.013480765,-0.020798735,-0.032073498,-0.054202314,-0.01738216,-0.06162358,0.043508727,0.0046377094,0.021367626,0.029581496,-0.011082333,-0.014533864,0.05146872,-0.014369605,-0.0081230085,-0.03355079,-0.015845994,-0.012431923,0.027951678,-0.038148552,-0.010515633,0.029582316,-0.0408462,-0.043980192,-0.045428704,-0.017133072,-0.029106574,-0.0005175793,0.0431575,-0.007527658,0.023431627,0.043796286,0.07531835,0.009979145,0.008311414,-0.024842875,0.009095794,0.01471688,-0.06132583,0.0019744348,-0.00898056,-0.0040106587,0.0225776,-0.02170855,0.06272022,0.0549309,0.008473577,-0.032021005,-0.026726076,0.045481965,-0.003559952,-0.006824191,-0.036720518,-0.024469623,-0.009199278,0.023830961,0.017120792,-0.03170876,0.027856315,0.030019654,0.050162632,0.009791766,-0.0051866705,-0.023398902,0.008977179,0.011537915,0.01600814,-0.014537064,-0.04580513,-0.0045702886,0.024270449,0.060149126,-0.006304223,0.035619598,0.052887022,-0.0146884,-0.019853737,0.012994595,0.03935388,0.023113284,0.03319657,-0.04572269,0.006551522,0.02010244,-0.039590314,-0.014152325,0.004055043,0.0047715507,0.0067128395,-0.024204519,0.00089662895,0.023449296,0.03734652,-0.04941962,-0.0075669223,-0.090748884,0.013378947,-0.024649315,-0.048641935,0.044686384,0.029223677,-0.013305795,-0.03844387,-0.06174069,0.006805785,-0.024870457,0.00997548,-0.005948912,0.05194757,0.028616836,-0.01769164,0.020932155,0.0014439676,-0.030112574,0.0031501176,0.019083522,-0.011155786,-0.015024113,-0.007124645,-0.014367405,0.010101451,0.025963904,-0.01852561,0.0007781552,0.023692014,0.038875405,-0.008522396,0.05310847,0.021095876,-0.0038315903,0.00019931131,0.001204252,-0.031612635,-0.004511661,-0.010860978,0.0487709,0.013047893,0.010614085,-0.0046729054,0.0037452397,-0.0009895895,0.07439828,0.03315581,-0.026711497,-0.005448766,-0.038848996,0.06607691,-0.013938808,0.02292368,0.0037982792,-0.0081782015,-0.010595118,0.015275,0.00077557005,0.012710196,-0.035989765,0.045388144,-0.029122101,0.026594797,-0.018463207,0.043482415,-0.011314644,-0.02775976,0.039744522,0.057002082,0.01707008,0.027153585,-0.019897489,-0.045693073,0.051089507,0.0068805907,-0.029990153,-0.050995458,-0.022033785,-0.016439581,0.008513004,-0.028154373,0.02058727,-0.0069163134,0.013447568,0.08507338,-0.030011743,0.040590446,-0.01915077,-0.0072777527,0.033108298,-0.015104268,-0.0025633785,-0.0040200753,-0.004429451,0.0433301,-0.027367316,0.009869635,0.0015342219,-0.010235927,-0.006754252,0.004624328,-0.012030446,-0.0073824995,-0.04973698,0.0048673027,-0.017292956,-0.013224656,-0.017420137,0.0034942015,-0.06375969,0.018635157,-0.028663265,0.029978454,0.023078004,-0.014840541,0.0045631104,0.001623513,0.030967005,9.771139e-05,0.016593622,-0.010083736,0.0028517523,-0.010080115,-0.014704798,-0.023795225,-0.014072721,-0.032102264,0.029789532,0.007578375,0.02671117,-0.017286228,0.0034866917,0.046638,0.0070079435,-0.016371766,0.026137626,-0.008523404,0.024068095,-0.027485007,-0.03927906,-0.011520607,0.02410905,-0.0110406075,0.025265886,0.019728132,0.020137718,-0.053335454,-0.040609896,-0.024215626,-0.011947251,0.011871169,-0.004670926,0.000670304,0.024935795,-0.0024646265,-0.023674488,-0.059280768,-0.02004197,0.026515478,-0.033461917,-0.013622113,0.015730761,0.022449557,-0.0443249,0.029925844
ALENTADOR,0.013226144,-0.02568539,-0.0060678124,0.004537506,-0.019061334,-0.017145362,-0.031135641,0.012143378,-0.0141971735,-0.04203886,0.082805455,0.04505405,-0.0029005073,0.005347792,0.018602543,0.008465708,-0.002899515,0.034910824,0.066479646,0.09887476,0.038917072,0.03454276,0.041054066,-0.03008708,-0.065356396,-0.08177408,0.014187939,0.023399448,-0.0111757545,0.012251803,0.0010567799,-0.0005227183,-0.025456233,0.014080518,0.016829774,-0.07688946,0.012665781,0.039546814,0.026278714,0.04232665,-0.00444131,-0.08685283,-0.026458437,-0.021729834,-0.001579592,0.0011840118,0.022784777,0.0102899885,0.072811455,-0.073202275,0.038385373,0.012134071,0.025318816,0.031313527,-0.03624275,-0.005695766,-0.020450214,0.012283415,0.018316574,0.023932,0.004896801,0.012075583,-0.0034758998,0.022929234,0.04085042,-0.03559035,0.009711759,0.056605425,0.035012454,0.0028123148,-0.007845446,0.031221423,0.025687285,0.0012614654,-0.05037142,0.024528315,0.040322796,0.02792687,0.032167252,0.016625417,-0.017017541,0.010736823,-0.028607342,-0.006743739,0.04508823,0.004376604,-0.016984526,-0.007763498,0.024000864,-0.025521917,0.01671735,-0.021260956,0.010953981,-0.01752827,0.018955404,-0.026290536,-0.026595283,-0.024326976,0.0037548793,-0.06299011,-0.006363569,0.029772867,0.006617465,-0.047728516,0.06484074,-0.0043809125,-0.02118981,-0.07035312,0.005699754,-0.013730118,-0.0021118717,-0.003967516,0.06037159,0.054759752,0.009388851,0.01931561,0.015217586,-0.02909752,0.040252026,0.0038128933,-0.00042366795,-0.024667487,0.022964882,-0.03417872,0.0077632116,-0.039686058,0.0021943678,0.015131793,-0.031920724,0.011392985,0.031287156,0.050245337,-0.011510365,-0.0076683443,-0.040702015,-0.023158137,-0.029732369,-0.07465599,0.07897977,0.005092982,0.017818645,-0.0038324974,0.031064032,0.034288872,-0.08977473,-0.009519155,-0.046604365,0.051662818,0.05470972,-0.007976707,0.057935726,-0.035119116,0.031640146,0.0053930352,0.044734582,-0.008537524,-0.008441881,0.00026390515,-0.0117140915,-0.004380962,-0.018196877,-0.031048268,0.037134204,-0.08076379,-0.0069065965,-0.015806943,-0.0034550426,0.056223452,0.002975413,0.02866775,0.050038297,-0.011976718,-0.02519704,-0.012055502,0.023931935,0.0050274753,0.010080826,-0.0029078363,-0.0043965364,0.012955392,0.009865502,-0.008149715,0.0109090535,0.040509094,-0.03270115,-0.009589605,-0.032086395,0.003913395,0.0329308,-0.0040081455,0.004386864,0.02120361,0.02482113,-0.002207051,-0.06698507,1.5362632e-05,-0.02583475,0.0064564794,-0.04130929,0.038876843,0.029489286,0.080068365,0.0377921,-0.0015938377,-0.0028411131,0.035046097,0.0071558226,-0.07677028,0.07805042,-0.022079907,0.017498491,-0.053093396,-0.021828897,0.01268121,0.019121885,0.019729331,-0.014633826,-0.03963939,0.030461725,-0.0028670165,-0.012574501,0.010119271,0.03980023,0.029755328,0.012453551,0.02589306,-0.0041642906,0.025517272,0.0054280586,0.007405859,-0.005560573,-0.025774425,-0.05672515,-0.025187083,0.04779052,-0.042515,-0.036974262,-0.00066709355,0.0010474529,-0.015962131,-0.02504055,-0.03786054,-0.006812591,-0.0008207988,-0.018612105,0.03577712,-0.01521291,0.06313746,0.03243516,-0.00473559,0.031906955,-0.05338165,0.024349567,0.046425562,0.038463354,-0.011578075,0.008416756,0.017622977,-0.013531294,-0.017928429,-0.036109507,0.01413076,-0.041980807,-0.017095352,0.040964987,-0.021884652,-0.036027305,0.022781417,-0.012210588,0.019501606,-0.027681336,0.019856771,-0.036891367,-0.04201631,-0.027174141,-0.04098878,-0.0029993055,0.07100369,-0.014189348,0.045191087,-0.039247762,-0.0316578,0.03042746,-0.0029915178,-0.004544123,0.029295612,0.027650915,0.048421625,-0.018361961,-0.021613318,-0.06523155,-0.0340086,0.041923903,0.0063259313,0.053194605,0.0054033706,0.010231641,-0.0014165152,-0.0064881914,0.012071491
PENSATIVO,-0.03197217,-0.051443636,-0.021273427,-0.06437518,-0.021646038,-0.062543355,-0.07932322,0.049531847,-0.017940901,-0.015840925,0.058365684,0.010403329,-0.02629285,0.012485553,-0.09749624,0.027764274,-0.0039625484,-0.014404794,0.010249786,0.060581256,0.00012297276,0.02750594,-0.014969887,0.0072754957,0.011784798,0.008365778,-0.06409021,0.040912606,-0.021601316,-0.029292885,-0.006707605,-0.010239132,-0.0057864073,0.030372236,-0.04150353,3.848225e-05,0.00079183653,-0.0006091022,-0.02327454,-0.007643049,0.011357191,-0.028626708,-0.029043717,-0.083821714,-0.02922131,0.04095043,0.001663654,0.011202825,0.017536476,-0.03877367,0.035016816,0.0045174556,0.020944433,0.009330704,0.041513145,-0.081195205,-0.043972503,-0.022836115,-0.020070301,0.039962474,-0.0028426002,0.008468933,-0.0015039673,0.043051556,0.030383455,-0.0887216,0.022387614,0.028418574,-0.0658591,-0.02825667,0.018448697,0.0054170396,0.037863858,0.0022819508,-0.0026692213,0.056169216,-0.016188433,0.0094994,-0.006804226,0.035146214,0.023321047,0.048583336,-0.032183077,-0.029772725,0.003903071,0.0046185693,-0.019494547,-0.03353295,0.0595537,-0.039746556,-0.010291377,-0.013383635,-0.06621571,0.016662152,0.11285664,-0.06510641,-0.0058623734,-0.017231168,-0.013626562,0.044000037,0.07383655,-0.0123505,0.012700636,0.005627733,-0.02350655,0.015198493,0.021121524,0.028175222,-0.04137352,0.04675583,0.007638562,-0.024548765,0.00376327,0.002006338,0.029551972,0.028153662,-0.04104179,-0.0030856356,0.022731233,0.0037540356,-0.027026441,-0.018848073,0.03575847,-0.060717702,0.0132754315,-0.045264088,-0.004652651,0.007120352,-0.026237868,0.04771352,0.057029314,0.04033309,0.043224443,-0.0044842046,-0.07218612,0.050212,-0.030046958,0.012697376,0.06834638,-0.02605392,0.03141011,-0.014177458,-0.022565758,0.057424784,-0.05032907,-0.0352443,-0.004816613,-0.059392117,-0.0019188286,0.008566653,-0.0008576792,-0.013931319,-0.009897396,0.007425736,0.119009614,-0.018182516,-0.015473878,0.064639546,0.03170541,-0.0065971273,0.015705109,0.017988298,0.041182686,-0.020190964,0.020647028,-0.046738666,-0.031636782,0.028588353,0.0043916013,0.06850421,0.010577435,-0.03762093,-0.06916799,0.031558488,0.044435814,-0.0044577783,0.05192248,0.010258064,-0.01581578,-0.005003494,0.09599426,-0.04114199,-0.035983957,0.03181291,-0.037613012,-0.00027290484,-0.040783234,0.017248793,0.025732785,-0.026943935,0.004102509,0.0020683717,0.026638057,0.035095107,-0.02591012,0.065476626,0.03905528,0.0046321643,-0.026831545,0.038672317,-0.0035711601,0.023566132,0.017194502,0.007991863,-0.016252993,0.056847453,0.008171469,-0.09353721,0.029396191,-0.009866613,-0.044313353,0.033997513,-0.06640103,0.02738292,-0.0046469476,0.015764145,0.027978905,-0.021257836,-0.011272635,0.010079339,0.021808911,0.02037822,-0.03418982,-0.034123395,0.013986457,-0.03159029,-0.053693093,0.012726853,0.013332813,0.018321786,-0.013607138,-0.031233523,-0.02009247,-0.035691705,-0.030180175,-0.030849222,0.022308463,-0.009162628,-0.029628359,-0.012995294,-0.033226322,0.029263355,0.020637615,-0.013007988,-0.12223615,0.02433777,-0.023182413,0.053944178,0.050106145,-0.023210393,0.099254414,-0.050606385,0.0006084498,0.019818157,0.029846372,-0.008250526,0.027038647,-0.013313396,-0.046453398,0.09139775,0.030526128,0.013495976,0.021746522,-0.043520335,0.019833514,0.004858967,0.025712436,0.0011583574,-0.001958007,-0.013234239,-0.042263146,0.056155056,0.0028489819,-0.012224705,0.007305583,-0.020158596,0.011419294,0.025072284,0.0058322297,-0.01426506,-0.020488452,-8.359284e-05,0.0046262466,-0.006925676,0.028015543,-0.051378325,0.01846959,-0.019477857,0.021573914,0.030690318,-0.019709479,-0.085474886,-0.032641426,0.04321809,0.0009405194,0.004976432,0.006776784,-0.006766348,0.07005756,-0.003123898
COMPRENSIVO,-0.0137891015,-0.026446287,-0.013826161,0.0073224306,-0.013100377,0.0204086,0.001651083,0.033034828,-0.019858839,-0.034314156,0.08891767,0.0007078275,-0.029656572,0.011935583,-0.05154866,0.0019144276,0.040184643,0.050154366,-0.032679603,0.03600098,-0.048310168,0.01817504,-0.009816969,0.060958322,-0.03800106,-0.013500348,-0.037041184,0.0066698305,0.015403564,0.008191227,0.011750014,-0.004535531,-0.014973405,0.026794884,0.0008250088,0.0003047323,-0.00390719,0.025878286,0.007553994,0.013079146,-0.010375435,-0.095089026,-0.028141458,0.00688122,-0.026563937,0.0066369823,0.0065807947,-0.036081858,0.0015576847,-0.07791696,-0.005904568,-6.200317e-05,0.015534199,0.0024212499,-0.029462356,0.008389439,-0.055568933,0.010562536,-0.021351378,0.020987533,0.025814896,-0.019773068,-0.0047171465,0.023326717,0.01747798,-0.021607792,0.023996096,0.008137277,-0.01919733,-0.0100743435,0.029396016,0.05549409,0.014970533,-0.0207418,-0.038157176,0.006843675,0.0012824506,0.018154686,0.004014464,-0.008419585,-0.024557201,-0.004967004,-0.012598631,-0.0068284124,-0.025284618,0.01100913,-0.018276844,-0.022212071,0.04044191,-0.0065216185,-0.0103848195,-0.02990372,-0.010180525,-0.018121794,0.056149464,-0.050780304,0.004728158,-0.022600843,-0.014014932,0.05435737,0.02352215,0.00206344,0.017835746,0.02924539,0.020919299,-0.01357565,-0.026180673,-0.025749285,-0.00014455817,0.02521762,0.016783828,-0.039845753,0.0003355615,0.065821365,0.0074879997,-0.023953592,-0.027987415,0.009795995,0.014639939,0.07346143,-8.455068e-05,-0.025754472,-0.029998174,-0.0060648257,0.022655804,0.010644205,0.0106517775,0.0029049867,-0.024528814,0.005928585,0.027493333,0.042895045,0.0058922656,0.014268202,-0.05492375,0.0026305213,-0.0015327908,-0.06157471,0.06867618,0.0040004505,0.033711564,0.020093456,-0.017872347,0.030488605,-0.024617163,-0.03379902,-0.03615128,0.012879527,0.017784644,0.021857893,-0.024386471,-0.009111053,-0.028032908,0.038388018,-0.025171315,0.009003847,0.0037443177,-0.010170845,-0.016118005,-0.03258108,-0.0051004537,-0.00025646092,0.014534001,0.021341152,-0.025195194,0.018446814,0.008075108,0.025263805,0.01739926,0.02959506,0.013276962,-0.009654294,-0.044229645,-0.04752289,0.039146345,0.009422613,0.020575805,0.024237005,0.043457933,-0.030890886,0.08468819,-0.021030104,-0.0026428371,0.006456782,0.0076141246,-0.00873479,-0.029206976,-0.012488963,0.0126212435,-0.0030020718,-0.025408864,0.012148547,-0.035000082,0.0059026964,-0.025892321,0.0010918707,-0.0012529268,0.012989494,-0.010340819,0.0143007105,0.014316494,0.028376881,-0.004501897,-0.0039844275,-0.030797858,0.06262794,0.019312931,-0.05352064,0.035841607,-0.0050588665,0.00065931695,-0.020807475,-0.04100139,-0.012929492,-0.019209249,0.06719393,-0.018266318,-0.0059965565,-0.0023929772,0.029970381,-0.025803536,0.036075875,0.026218116,0.0010783252,0.017188799,-0.046827607,0.025455648,-0.04126098,0.017643062,0.044133473,0.021316996,-0.0826122,-0.027248615,0.025949841,-0.01989995,-0.04049119,-0.019600717,0.031487454,0.007322696,-0.005669221,-0.039271712,-0.018287536,0.005938448,-0.0026959837,-0.05538553,0.04668439,0.0025077858,0.06899591,0.032192968,-0.032049555,0.042586673,0.008654387,0.019386884,0.020509047,0.010327307,-0.0109529635,-0.027043551,0.024554238,-0.05620672,0.014560345,0.02017591,0.011573588,-0.0022063756,0.0014889076,0.029514512,-0.02627269,0.01755039,0.0078294305,-0.03320427,0.0029599273,0.020499302,0.0075063608,0.03517992,0.02228056,-0.02093756,-0.03955347,0.00186686,-0.015225999,-0.0005290702,0.041765593,-0.014399101,-0.046984598,-0.0068759085,-0.02014543,0.024794165,-0.0034475455,-0.01996061,-0.025257645,-0.004804735,-0.008490354,-0.014824921,0.0019511506,-0.013656884,0.014619849,0.0057377745,0.015025902,-0.018949522,0.008166002,0.021633634,-0.043378312
DUBITATIVO,0.04751463,-0.025155572,-0.006228851,-0.015295393,0.043202788,-0.017692039,-0.049779173,0.04694112,0.008368646,-0.02286409,0.09311126,-0.0057407604,0.0053044837,-0.0063490486,-0.07783106,-0.03179991,0.023989392,-0.0001678682,0.0273444,0.04283534,0.007920395,0.0015100559,-0.01644964,0.0012601127,-0.0064281737,-0.015726903,-0.032990754,0.055736378,0.010305976,-0.011292698,0.03053141,0.0017445015,0.00096982677,0.04153554,0.03832891,0.0071889227,-0.028293917,0.016544811,0.0043976963,-0.01351106,0.0123578515,-0.07328767,-0.039574344,-0.0184839,-0.009591932,-0.0037008747,-0.001862266,0.05275085,0.055130377,0.027657602,0.038770083,-0.013019457,-0.00085324637,0.0024399022,0.0102766855,-0.049321126,-0.06798306,0.027766313,0.018841695,0.063343145,-0.0013929071,-0.0046219365,0.01966688,0.0550442,-0.027073199,-0.051693566,0.005717799,0.0056276773,0.007849395,-0.027311517,-0.0060491688,-0.018741475,-0.000893199,-0.05678759,-0.025745537,0.08337187,0.024330001,-0.016161697,0.028122548,0.045448616,0.003646684,-0.007536933,-0.003397684,-0.042301696,-0.00521363,0.014754989,-0.061476126,0.018179387,0.04384444,-0.058790617,-0.018949458,-0.044998374,-0.0037241627,0.022093585,0.03999139,-0.0661183,-0.047794882,0.015964901,0.022240998,0.02002415,0.033027463,0.046068225,0.0375576,0.011238194,-0.012623658,0.008198561,-0.03866727,0.05929424,0.003185771,0.03824745,0.041184258,-0.0023512195,0.026423639,0.010430447,0.03514255,-0.008349178,0.006548327,-0.010913965,0.019807534,-0.0242076,-0.007161913,0.028603042,-0.038364116,-0.042376127,0.016742712,-0.021752378,-0.0074662883,0.0063375817,-0.029611686,0.06260078,0.04535995,0.034966495,0.03023457,0.013148943,-0.07604916,0.051023975,-0.047004793,-0.06123001,0.051170785,0.014819248,-0.0032466047,0.009453631,-0.016081227,0.049903523,-0.08182915,-0.037392046,0.005491752,-0.012387101,0.024058875,0.029219398,-0.033279367,0.0026166807,0.01441649,0.04456452,0.0014187478,-0.041737016,0.0034626084,0.009769392,0.0016110832,0.002174645,0.035232514,0.039891113,-0.0037287506,-0.017790131,0.0277058,-0.011204764,0.005297679,0.055251464,-0.010560189,0.017742103,0.04041529,-0.02124281,-0.011811062,-0.035662096,0.013923379,-0.02630611,0.0014090822,-0.020869536,-0.009737836,-0.0036134166,0.064729124,0.011156684,-0.023449844,0.006900031,-0.008866715,0.06345405,-0.053642046,0.033822794,0.0031140384,-0.01510741,-0.0008763787,0.013092567,0.0946723,0.04012673,-0.04663418,0.07465165,0.031677213,-0.021877717,-0.016899837,0.049192768,-0.018470742,0.04116368,0.012218344,0.028056946,-0.041174427,0.058170635,0.0019460933,-0.0708357,0.023282059,-0.04968115,-0.025091583,0.03703748,-0.03812656,0.00046321528,-0.004972658,0.026079115,-0.013094405,-0.025268562,0.019160917,0.07640524,-0.002548029,0.025563525,-0.0011139722,0.035240363,0.047245953,-0.013122052,-0.0344682,0.030520836,0.012030732,0.0036176022,-0.0061948756,-0.017839432,-0.052438643,-0.0492556,0.04323211,0.005378883,-0.02397662,0.019298948,-0.035101388,0.009817665,-0.0011326546,0.014498969,-0.0037349814,-0.017164053,-0.08716985,0.029329265,-0.034738168,0.055359297,0.05502777,-0.032110725,0.043882728,0.037824247,0.026603635,0.05114783,0.068435386,-0.019641638,0.053021993,-0.006678407,-0.009400305,0.051144373,0.04296077,-0.0031014432,0.045441277,-0.048928894,-0.005747517,-0.0022813699,0.016682172,0.026973918,-0.03476256,0.043877814,-0.048112318,0.027292933,-0.035457686,0.0036345895,0.010076095,-0.016181955,-0.03631039,0.06456667,-0.019291526,0.024992462,-0.011518102,0.0031904583,0.0053675384,-0.00065818307,0.011698608,-0.008310203,0.0020375396,-0.04390291,0.0039207255,0.010737285,-0.03679272,-0.04473322,0.0014117874,0.004878111,-0.01078843,-0.0090860175,-0.031708416,-0.038773824,0.046515655,-0.029108742
AVERGONZADO,-0.034709398,-0.034030434,-0.0053299344,-0.0071534435,0.0037930831,-0.000504018,-0.019324398,0.03589915,0.0007140413,0.0042069005,0.04323884,0.01332911,-0.024343064,0.0073903087,-0.074334085,0.006532427,-0.032028075,0.036002792,0.011092441,-0.0072026774,0.0063135806,-0.027422389,-0.015009527,0.0341221,-0.03509183,-0.01778361,-0.025753055,0.022863211,0.029285282,0.0040638456,0.045718998,-0.021634284,0.034826186,-0.010784163,-0.018986123,0.0043034884,0.0030770106,0.03750697,0.006227698,0.022104414,-0.022078207,-0.014383549,-0.030009156,-0.039598983,-0.0056513012,0.02649839,-0.0012756571,0.017892908,-0.005149783,0.01663447,0.0071370862,0.015369932,0.0148180965,0.0063712313,-0.023551965,-0.0531339,0.009569797,0.017075954,-0.027639417,-0.011585063,0.025068576,-0.012938705,0.001961705,-0.0114551205,0.0001359555,-0.061220493,-0.006331876,0.0136963,0.01861184,-0.0008783221,0.02122127,-0.0042879726,0.015626034,0.03183758,-0.0017502897,0.0008155413,0.017219244,-0.013606128,0.012130129,0.0022086725,-0.044588964,0.010166487,-0.018826276,0.016844757,-0.01367732,-0.023273738,0.011297563,-0.014249529,0.0056973714,-0.02658149,-0.02012755,-0.0035050528,-0.038146194,-0.0069431155,0.019170707,-0.011050433,-0.024323288,-0.0047203843,0.024695586,0.018915325,-0.04768711,0.019770226,0.038837906,0.0068297894,0.003280593,0.009316252,-0.000678993,0.017412676,-0.038431134,0.008356604,0.04927737,-0.03418444,0.014273907,0.020141993,0.025293415,-0.015598713,-0.07714507,0.0010317246,0.03333821,-0.01296403,-0.04397254,0.02777039,-0.0066406303,-0.05189855,-0.023546187,-0.012686483,0.0046279104,0.040316097,-0.0363757,-0.013414867,0.042890105,0.04143974,0.007065548,-0.0002333507,-0.06437061,0.03150513,-0.023339882,0.0017174099,0.033189643,0.009141796,0.01632475,-0.023182787,-0.09198473,0.012428927,-0.0191828,-0.034231033,-0.06649154,0.046758503,0.055897146,0.025299245,-0.032911703,0.022483159,-0.002140152,-0.002445324,0.03473818,-0.0134879,0.014225058,-0.026612481,-0.0007913895,-0.027830908,0.036643337,0.037767496,-0.01244989,-0.022586396,0.023208387,0.011126473,0.022182984,-0.04270641,0.020740338,0.029159864,0.06353067,-0.042863708,0.02203284,-0.0076222713,0.01850664,0.013563595,0.013572413,-0.0135451285,-0.010274386,-0.0033067528,0.06277357,0.0012915233,-0.0031619312,0.015608263,-0.011643929,-0.017893193,-0.0232313,0.05616745,0.012298513,-0.020367486,-0.04548382,0.0132449465,0.0419739,0.023208098,-0.082712956,0.02548947,0.020032689,-0.02814652,-0.028187305,0.030018646,0.004280211,-0.022825826,0.037357867,0.024091536,0.0015733913,0.032931685,-0.020578044,-0.05519526,0.030157393,-0.02929057,-0.029979346,-0.025928665,-0.015868878,-0.027334696,0.008684925,0.020530866,0.010846793,-0.03456689,0.015858239,0.035220664,0.016836638,-0.0023266345,-0.004932458,0.009393292,-0.0062664063,-0.025682801,-0.020727094,-0.025154224,-0.028279413,0.032182418,0.00837589,-0.017522985,0.025158579,0.044808496,0.0018291873,-0.0015669422,-0.002811344,0.017953252,-0.05386014,0.02795707,0.005924675,0.027439414,0.017335564,-0.010519597,-0.072054885,-0.014955384,0.036373436,0.027834771,0.029374165,-0.03277562,0.020008145,-0.011350381,0.019352764,-0.031095956,0.002403301,-0.0125337755,0.03067582,0.0010047732,-0.020306502,0.05370195,0.054062434,-0.019001422,-0.021346567,-0.012868285,0.039382033,-0.02002777,0.042302847,0.04966993,-0.015538218,-0.016961914,-0.028120613,0.020673444,-0.011030749,0.008248274,-0.048674025,-0.027785728,0.007539842,0.031895008,0.02077478,0.018215517,-0.0013043523,0.020140434,-0.005451888,-0.0069898455,0.0030503361,-0.009051805,0.016645934,-0.03364631,0.033806,0.0009620562,0.0038128688,-0.05767102,-0.012683067,-0.029725447,-0.044479147,0.022994742,-0.00250494,0.012107054,0.008378829,-0.020641096
CONFIADO,0.0037265725,-0.021317251,0.013466395,-0.031563666,0.03274422,0.01021527,-0.038755145,0.044807337,-0.02106535,0.031070583,0.06287995,0.027069606,-0.042499576,0.024624696,-0.05851463,-0.019430293,0.009406216,0.044562016,0.016408553,-0.039518286,0.0014612761,0.0040204935,0.00952705,0.06306966,-0.047431447,-0.044920865,-0.043228738,0.03890241,0.01641081,0.016542196,0.036118366,-0.06223855,0.018534124,0.056865525,0.0038366364,-0.03380389,0.0150806345,-0.016206015,0.0060218447,0.00047895318,-0.028124265,-0.019244378,-0.039113004,-0.009560198,-0.0439555,-0.00291773,-0.0015917224,-0.017687518,0.027481683,-0.017250033,-0.0024353887,0.017900912,0.0066252695,0.03523096,-0.039311595,-0.020648493,0.0003207733,0.013141091,-0.055436604,-0.010198026,-0.03987632,0.019669052,-0.05529816,0.018518595,-0.041774396,-0.061401974,-0.06854585,0.014857022,0.037243832,0.0013654031,0.06119883,0.030033864,0.015243444,0.029373895,-0.013385097,0.025543367,0.018000782,-0.022828985,0.076297976,0.005610039,0.020219067,0.027173094,-0.03777023,-0.031103019,-0.02249332,0.019096931,-0.049565233,-0.027353127,0.024119308,-0.008417061,-0.004099367,-0.06671106,-0.011972735,-0.055862106,0.028867489,-0.034350295,-0.035365123,0.059026122,0.012023927,0.053204868,0.014867725,-0.04068719,-0.0059576994,-0.027334573,0.0050440067,0.0012810666,-0.020027721,-0.05652298,-0.0010865877,0.029236484,0.05120552,0.029750638,-0.016107848,0.07567642,0.028813919,0.0042702216,-0.037407562,-0.017454056,0.010364646,0.06273418,-0.00761596,0.019281037,-0.005788664,-0.036093228,0.009452436,-0.034493104,-0.021216208,0.04034003,-0.03632201,0.056617826,0.06634437,0.08304772,0.0053031896,0.029795222,-0.07237246,-0.006251671,-0.026354166,-0.034356073,0.060205795,0.011227227,-0.027462682,-0.015062245,-0.104102634,0.029541912,-0.01475066,0.020750284,-0.05466486,-0.0045715445,0.007673918,0.039922565,0.035559192,0.005813821,0.00831287,-0.027446305,0.02033966,0.034324445,-0.011259375,-0.00052816136,-0.0066069956,0.031551376,0.009283599,0.0064422926,0.007356953,-0.01675262,0.022766544,0.0016920312,0.064377025,-0.008097415,0.018450534,0.008009247,-0.014475107,-0.04847915,0.020895723,0.012555038,0.086572856,-0.023682516,-0.027072543,-0.013968585,0.037420776,-2.508293e-06,0.09023355,0.03135988,-0.028509354,0.0057912064,-0.0007480391,-0.0012288014,-0.045673158,0.032604873,0.037989456,-0.043692622,-0.01727397,-0.0049065514,0.07855381,0.027637474,-0.006240103,0.00829179,0.007551596,0.018236563,0.0062731346,0.033744253,-0.033928007,-0.040261053,0.037173085,0.010528988,0.017433483,0.041398842,-0.036037516,-0.06602191,0.03490242,-0.057773355,-0.018357366,-0.036963638,-0.03352935,-0.047317274,-0.0143273035,0.0161633,-0.021520566,-0.015196992,0.006253284,0.088630535,0.010414724,0.046286147,0.007922309,0.02541474,0.024143709,0.03119605,0.007210449,0.011482379,-0.0016143051,0.026420815,-0.0044881175,-0.0063437056,0.0040307837,0.008788964,-0.017263144,0.019515479,-0.03236643,0.04580122,0.008063175,0.022835145,-0.016386373,-0.011178906,-0.008004976,0.020899521,-0.07114931,-0.019527802,0.0024106838,0.035778116,0.038842656,-0.02925678,-0.015537324,0.036689006,0.037427083,0.021087606,-0.006426676,-0.018723316,0.0070404806,-0.0009632486,-0.06002066,0.03256477,0.033936694,0.018259803,0.024867676,0.008732754,0.00076668075,-0.0059129493,0.047417037,0.021294476,-0.03617634,0.023728134,-0.009151552,-0.0036311694,-0.0133028785,-0.024579264,-0.02502955,0.0029213608,0.07256263,0.02981635,0.043323714,0.04438632,-0.021242866,-0.0053748204,0.0075510107,0.007643253,-0.045894336,0.057727985,0.050741706,-0.0031460638,0.017131368,-0.0053299605,0.014087186,-0.08863087,-0.018832322,0.014976228,0.026276398,0.018949592,0.010127021,0.020718854,-0.013690464,0.019183584
DOMINANTE,0.023536958,0.00959263,0.048685025,0.027117036,0.0047097895,0.01727577,0.0021879827,0.009892653,-0.018019654,-0.019135697,0.057917196,-0.037276693,-0.017399862,0.00025019236,0.025992911,-0.01331722,0.049726296,-0.0006256113,-0.0065768845,0.045526963,0.005285821,0.016550425,0.014855624,0.021055713,-0.022079322,-0.040993143,-0.011575822,-0.006719702,-0.04080579,0.038183495,0.033669095,-0.040682375,0.059001792,-0.013215271,-0.014889792,0.04453375,-0.0028239293,0.04769024,0.031655148,-0.013710411,-0.03520084,-0.042329386,-0.013811929,-0.032272205,0.020240568,-0.0341711,0.032844145,-0.025936393,-0.02027359,-0.010085637,-0.013019836,-0.017604645,0.04518581,-0.024493065,-0.009972976,0.028792102,-0.03931823,0.055491887,-0.036323644,-0.0023024753,-0.006158773,0.001134661,0.040350262,0.029026642,0.026235936,-0.03398583,-0.008958852,0.05143709,-0.00229353,-0.008641399,-0.034171488,-0.010650691,-0.015736356,0.02496048,-0.026357075,0.01365542,0.038561914,-0.01382694,0.026669128,-0.055793177,-0.027782932,-0.031130904,0.003166343,-0.051896304,-0.0034634694,0.02398555,0.018202947,-0.0040946254,0.027629396,-0.024933612,-0.013760326,-0.012345587,0.033004947,0.013358221,0.07377507,0.054950163,-0.038034968,0.00013274548,-0.029227113,0.016105026,0.00808872,0.009244581,-0.006761402,-0.020884002,0.042786337,-0.010914257,-0.018093124,0.042390794,0.032944497,-0.026490549,-0.0051726247,-0.01004727,0.045383543,-0.007840935,0.05921763,-0.0255296,-0.009081679,0.0018753004,-0.0034348648,0.0055723675,0.029318882,-0.017830584,-0.014468502,-0.038888827,-0.020667676,-0.00937978,0.00018378883,0.035829995,-0.032534342,0.012263018,0.041996635,0.037964296,-0.022408374,0.00036787428,-0.0048960713,0.0072664353,-0.0027027298,-0.023437425,0.018709648,-0.059267625,0.0014509887,0.017865725,-0.031273585,0.018082114,-0.03417313,0.02627442,-0.019298304,0.0014750254,-0.00088148564,-0.010224817,0.014951643,0.07287611,-0.060503453,-0.03050814,0.01812296,0.033898998,0.030912936,0.017446868,-0.012610012,-0.0054374365,0.012498916,-0.01262683,-0.04471189,-0.007973276,0.015793517,0.045305096,0.0042857085,-0.021058613,-0.024124663,0.035285063,0.0051830607,0.026894873,-0.030536627,-0.03628472,0.0037308992,-0.0015291786,-0.023087759,0.043010514,0.027217781,-0.024327092,0.055233523,0.043093044,-0.007867029,0.023198007,0.063048705,-0.037101693,0.06519435,-0.0056360527,0.019328386,0.04394541,0.0280223,0.018215286,0.02143389,0.0001737657,0.0025266018,0.0014697537,0.09827988,0.022734106,-0.009053148,0.058742434,-0.012542245,-0.0017333794,-0.0014973797,-0.005985794,-0.011960746,0.03653633,0.006281862,-0.07084549,-0.0065590553,-0.01912269,0.001414197,0.019958716,0.0138019575,-0.041605875,-0.02461752,-0.03461169,-0.045142896,0.0079161525,0.014711867,-0.016528087,-0.022464417,-0.019036308,0.021498576,-0.00017763767,0.017062947,0.048310976,-0.033447154,-0.044781834,0.022552704,-0.011391889,0.00024111965,-0.0123174675,0.02068732,-0.028364377,0.0071117766,-0.06789622,-0.017329682,0.007977931,-0.030843953,-0.05211407,-0.028735397,-0.015778912,0.026639167,-0.014529092,-0.04328804,-0.0034630855,-0.025375986,0.10734291,0.003179036,-0.028043088,0.029432686,0.0034811732,0.054474406,0.016515179,0.02617497,0.013466651,0.019496925,0.0105566075,-0.020714086,-0.0022311527,-0.0137030855,0.033363413,-0.04014368,-0.01180809,0.00989225,-0.058414735,0.04410338,0.007016648,-0.01274536,0.02677732,0.04618791,-0.017177917,-0.025518486,0.025833156,-0.01961134,-0.066015035,0.01031373,0.012432806,-0.009409519,0.016129117,0.012345319,-0.018344952,-0.059282746,-0.01168886,0.03366857,0.030698886,-0.037532676,-0.005949851,0.016765201,-0.019400226,-0.022446835,-0.02558054,-0.056870162,0.0486913,-0.0059169475,0.03331679,0.008958941,-0.029531332,-0.008779361,-0.009169901
CULPABLE,-0.03742149,0.011499371,0.048132326,0.052084394,0.037780806,-0.011928523,0.028964512,0.027989611,-0.0027156835,-0.046975862,0.07024454,-0.0036466252,0.021153586,0.036498893,-0.05373497,0.023762353,0.039472092,0.030872878,0.041235726,-0.090959944,-0.029497486,-0.05431037,0.019225303,0.034016605,0.02178759,-0.05702896,0.017833957,0.025036557,0.036328632,-0.020770844,0.033014826,-0.028739866,0.028258955,-0.056757618,-0.001617048,-0.021090586,0.07185531,0.04057305,-0.0016779515,0.008899827,-0.03422714,-0.049289245,-0.057777558,0.008940262,-0.00714445,-0.018767737,0.020793006,0.020322088,-0.03564341,-0.0065042977,0.043117788,-0.00852998,0.05374481,0.026698636,0.04060761,0.04329342,0.0053100386,-0.01423121,-0.008287352,-0.012828731,0.014451409,-0.010269206,-0.05030625,0.011982378,-0.03911199,-0.012780001,-0.021572318,0.04484915,0.0036318048,0.01560433,0.02481874,0.027803691,0.01348834,-0.00019139504,0.021201875,0.020281797,0.043287255,-0.0020541423,-0.02628783,-0.050426107,-0.07127332,0.018495947,0.034457926,0.0163732,-0.06654322,-0.0075831055,0.018386852,-0.030539306,-0.040340096,0.013158726,-0.06436068,-0.014118892,-0.03880737,-0.003286624,0.0407269,-0.007554841,0.0072599924,-0.017574947,0.10173096,0.010653395,-0.049685165,0.004394095,0.022431428,-0.048375588,0.030683866,-0.014239677,-0.010555056,0.016689625,-0.028785443,-0.026651112,0.0744279,-0.048279848,0.02745316,-0.014767926,0.011158211,-0.027633363,-0.061588854,-0.0023645004,0.09261308,-0.06291135,0.011545863,0.04245064,0.071241975,-0.06292124,0.039424136,-0.039441027,0.010490985,0.027633773,-0.011340482,0.015920809,-0.012554032,0.06570062,-0.009062092,0.018477127,-0.036525495,0.060969453,-0.05473969,-0.06067062,0.054418642,-0.0073201535,0.0310271,0.014008127,-0.0897183,0.06190878,-0.049118992,-0.010244781,-0.02756921,0.023788996,0.055164468,0.018711727,-0.028156927,0.027493466,-0.023719499,-0.04286014,0.017323028,-0.014482686,0.0019895313,-0.016489182,0.06232262,0.0010017859,0.020048227,-0.045602426,-0.04924046,-0.028753603,-0.01281281,0.018123496,0.04382904,-0.02911684,0.018014086,0.006236288,0.027315129,0.01475493,0.0075824335,-0.017433088,0.02580355,0.045807015,0.023910034,-0.024346061,0.0024273656,-0.0023781257,0.032876845,0.04427777,0.11053815,-0.035625543,0.06947782,-0.018072998,-0.02233131,0.0034633244,-0.00061205373,-0.025885453,-0.014483863,-0.02079902,-0.031180928,0.03828336,-0.021532642,-0.016428554,0.06370508,-0.009361769,-0.05267232,0.058589086,0.0122032175,0.012637654,-0.007085614,0.007045151,-0.028843492,0.077630505,-0.033614058,-0.07767606,-0.0010325004,-0.0107260505,-0.051723074,0.025158701,-0.032797895,-0.0024193926,-0.03774555,-0.01637096,0.028100098,0.006429954,0.08668069,0.052159466,0.08191201,0.016142268,-0.023791002,0.015256333,0.008116676,0.027095221,-0.035293903,-0.06382702,0.050082278,0.021925513,-0.0028452997,-0.06655619,0.025245862,-0.0009975493,-0.051321022,0.004815681,-0.003211071,0.0005447398,-0.028366888,-0.014836182,0.02414829,0.016473077,0.00017639171,0.027303936,-0.07386203,-0.03359347,0.038623095,0.065705016,0.025662605,-0.030657366,-0.043892648,0.023039406,0.05041032,-0.042605635,0.04486053,-0.021452343,0.021343114,-0.008099334,0.025420485,-0.003656562,-0.010171307,0.0004136621,-0.03411692,-0.02341892,0.016556993,-0.011344867,0.0063636424,-0.018711705,-0.0069024437,0.02608409,-0.053645954,0.017995637,0.026784195,0.008929518,-0.01525801,-0.03051366,0.043757267,-0.0028703911,-0.004151358,0.04244693,-0.027542269,0.014428158,0.006375114,0.009584511,0.04009673,-0.02392864,-0.0130355535,0.03765276,-0.00420336,-0.020327467,0.00055958173,-0.0585306,-0.0064429124,-0.019027067,-0.03522502,0.010474963,-0.019520238,0.0035561682,-0.003541386,-0.010825562
CONFUNDIDO,-0.027429571,-0.003914523,-0.0005011656,-0.030305276,-0.03907571,-0.015538279,-0.002883892,0.009350585,-0.005922184,0.030293392,0.041096307,0.028739171,0.0018170042,-0.0040506413,-0.02961845,0.007054826,0.018616471,0.018376555,0.026765093,-0.03366906,0.0013059101,-0.042293478,-0.011343532,0.046624433,-0.029691854,-0.031211223,-0.053401697,0.05075851,-0.005978616,0.01998918,-0.0006994808,-0.024678526,-0.009165458,0.02937054,-0.0006832679,0.025142606,0.0015639162,0.030908937,-0.0074136457,-0.016176956,-0.050731417,-0.039816413,-0.04010719,-0.027677197,-0.010896992,0.016103204,-0.0023723084,-0.018566433,0.024394905,0.020866942,-0.026853574,0.038854096,0.0047333185,-0.015220662,-0.0001365559,-0.023406161,0.008660628,-0.0044985577,-0.013779454,-0.008960386,0.007509933,-0.002913356,0.0046392577,0.01193918,-0.01655837,-0.014922857,-0.007767728,0.02369088,0.0043378975,0.009912161,-0.00034727188,-0.022261616,-0.001995297,-0.012496573,0.009136873,0.0331963,0.01881031,-0.03440218,0.007805127,-0.01064186,-0.038002152,0.02012954,-0.018672079,0.019043813,-0.009122113,0.010259295,0.006386278,-0.027643597,0.019245008,-0.025283992,0.009888633,-0.0066035693,-0.027074916,-0.017677477,0.034332734,-0.030186739,-0.02230219,-0.0039633196,-0.0081347395,0.00040372732,0.013577236,0.0033119116,0.028788216,-0.034851,0.010750704,-0.0044936356,0.0015847493,0.010393192,-0.035392262,0.036716465,0.005120651,-0.016854398,-0.014644123,-0.01418191,-0.021900171,-0.015118498,-0.030599317,-0.025526816,0.016979286,0.026616985,-0.00063837727,0.0109911505,-0.01817914,-0.02139257,0.02290755,0.005017868,0.013683343,0.040745847,-0.022156425,0.0150033785,0.007747746,0.038749058,0.033186037,0.020267555,-0.044671495,0.037699394,-0.034408122,-0.0023233795,0.05199251,-0.007995318,0.044665527,-0.010033308,-0.05956306,0.0030890831,-0.021218695,-0.036429718,-0.02304376,0.02488908,0.03400051,0.005317858,-0.031620372,-0.0015782495,-0.010222585,0.0006822244,0.036287565,-0.026222063,-0.018370556,0.021986796,0.0010243236,0.0034733862,0.018163629,0.024951836,-0.0045454428,0.012467057,0.012933748,-0.00877573,-0.0033717554,0.020277997,-0.020570705,0.036712203,0.03473255,-0.03389736,0.01395419,-0.0015058281,0.023702985,0.021797184,-0.01835094,-0.03348826,0.019391337,-0.018209415,0.084353596,-0.00030583973,-0.001128296,0.003625815,0.0010000227,0.025402704,0.011350789,0.042465705,0.020898873,-0.005846595,-0.012768043,0.0027325458,0.05687889,0.024709359,-0.023095189,0.018204665,0.011404508,-0.029296508,-0.04690427,0.047137268,-0.027899014,-0.05026802,0.05158431,0.021851577,0.022121353,0.024050474,-0.0275287,-0.05683096,0.035021123,0.02662015,-0.0007121588,0.019676534,-0.017343434,0.007188301,0.0067491177,-0.0068772114,0.0046392735,-0.033055674,0.012469343,0.05932085,-0.008035111,-0.0035602923,-0.011398863,-0.013195794,0.015054358,-0.021581797,0.029809317,-0.027767586,0.01110957,0.006347658,-0.029197851,-0.0062630964,-0.034972772,-0.003228722,-0.029357845,-0.0027950737,0.0047377273,0.01402794,0.012620325,0.0049626594,0.010514712,0.021120531,0.0111590205,-0.010675515,-0.07030044,0.002217062,0.017755482,0.020253353,0.031240791,-0.011094711,0.020889344,-0.019626735,0.04035457,-0.0069740275,-0.0022470132,-0.014109758,0.016618963,0.007616917,0.0039902697,0.044608004,0.054023463,-0.009874652,-0.00066994544,0.028527612,0.04706073,-0.0034170586,0.03304793,0.001625275,-0.0119238915,0.03966256,0.00436601,0.03940948,-0.032884203,0.00913108,0.028111918,-0.0054438305,0.011982918,0.032548793,-0.0031126519,0.011053433,-0.0001021338,-0.02254454,-0.03484202,-0.034291558,-0.0031893307,0.0068458742,-0.040639866,-0.030584544,0.026669903,0.017564053,0.03271536,-0.10724655,-0.0071136695,-0.02160466,-0.024410572,0.024799827,-0.027672125,-0.030989489,-0.0030254945,-0.052979186
IMPLORANTE,0.020890463,-0.025246238,0.020950872,0.0056124595,0.039846916,-0.091660604,-0.042444807,0.024596896,-0.023645682,-0.0043981373,0.038236473,0.0042763194,-0.032908157,0.02527518,-0.0017034312,-0.002346477,0.0050916704,0.019628065,0.010344628,0.05502052,0.0025467232,0.017736847,0.060397077,0.0012184365,0.03419763,0.028340394,0.0028808515,0.037336573,0.014677447,-0.011318452,-0.04712272,-0.011090647,0.011541947,0.021967597,0.039244838,0.0067749894,-0.014859114,0.009577488,0.057575155,-0.052335046,-0.008641011,-0.008876271,-0.017808843,0.007994716,0.0028029855,0.0167967,0.018494368,0.01629162,0.034532577,0.0054391706,-0.02366417,0.005276873,0.028363356,-0.034221638,-0.03484285,-0.03627238,0.019969333,-0.005072663,0.009169508,0.027500616,-0.011354651,0.017221475,-0.033135395,-0.009561909,0.05868158,-0.06173857,0.023499306,0.02834859,-0.04115025,0.0064082528,-0.035978008,-0.0057217544,-0.026696265,0.04390986,0.0062727206,0.057897814,0.02748299,-0.05649696,-0.0026752916,0.028616041,-0.0028893212,0.00030662326,-0.03838801,0.02300358,-0.0036894095,0.0030235015,0.038245663,-0.048794903,0.058695868,0.0011420139,-0.009410902,-0.014859321,-0.05329966,-0.057796706,0.094069585,-0.06744366,-0.023947861,-0.0021691576,0.025955211,0.06478202,0.004153789,0.01242631,-0.052920584,-0.0018229804,0.01674199,-0.009853373,0.03852286,0.02453498,-0.0034217727,-0.04623776,0.020512486,-0.031450003,-0.00647931,0.07500477,0.0010918131,-0.018965177,-0.05443022,-0.032665405,0.06669549,-0.013757121,-0.0112177925,-0.0062003457,-0.015185674,-0.06607398,0.013724696,-0.00626956,0.01485799,0.0316553,-0.020632118,0.0040574768,0.06742848,0.08470649,0.060383372,0.0017406353,-0.016026314,0.0035054183,-0.01081178,-0.056560054,0.06574549,-0.039244056,-0.014859625,0.042872924,-0.044972796,0.037834678,-0.035995137,-0.0044134064,-0.03236971,-0.045261376,0.024684753,-0.011626336,-0.014595485,0.013701038,-0.0022312733,0.05396346,-0.022137582,-0.029004296,-0.0038646273,0.029752718,-0.019268978,-0.037341494,-0.0068261335,0.024012042,-0.028244734,-0.024681365,0.0034850256,0.014383948,0.0012889414,-0.00883749,-0.025112072,0.0065560937,-0.01344186,-0.009314389,0.035263624,-0.021985225,0.05973953,-0.019636557,0.010436104,0.019757355,0.021543251,0.0026818074,0.03390151,0.050875273,-0.024658412,0.009090532,0.019076275,-0.013500576,-0.028035423,0.015710387,0.003860432,-0.027535474,0.0033661898,0.015977537,0.038368225,-0.0335857,0.0064907037,-0.0010138833,0.031429894,-0.020571737,-0.022693316,0.07474636,-0.031235302,-0.017179573,0.058934357,0.012928452,-0.022648653,0.0023818472,0.009797974,-0.07942166,-0.03149167,-0.014717705,-0.01975568,-0.02494057,0.017690672,0.0054942193,0.0635447,0.030682703,-0.05389097,-0.0033991055,0.01229824,0.028601684,0.047625914,0.017657038,-0.011889979,-0.012837889,0.013774519,0.022475025,-0.04996439,-0.008628008,-0.0463791,0.032298468,0.011761663,-0.013161574,-0.029381236,0.005291014,-0.00463462,-0.0347352,-0.013039368,0.061041474,-0.07505039,0.03037411,-0.014739277,-0.0007904145,-0.022562627,0.025200868,-0.019744962,0.016776301,-0.017327067,0.07654902,0.06376164,-0.017929902,0.0202777,-0.0125566255,0.032427087,0.032573245,0.016614305,-0.041879293,0.036194313,-0.065747656,-0.024126098,0.06874958,0.0074685398,-0.056939654,-0.017169675,-0.06041439,0.007739303,-0.056405764,0.027344635,0.051540025,0.009764043,0.017142544,0.009620893,0.05645998,0.03967402,0.020725854,0.012212631,-0.0033489217,0.008835274,0.044668034,0.016013063,0.012861416,0.00815184,-0.039464884,0.033751607,0.035508096,-0.07053192,-0.02538694,0.01665462,-0.012006053,-0.017040744,0.013227047,-0.0122722145,-0.0770428,-0.017479664,0.032381345,-0.0016844668,-0.01307677,-0.008379728,0.02751282,-0.0154266255,0.0003385851
DESAFIANTE,0.008251357,-0.010910325,0.0005524556,0.037058968,-0.0040471633,-0.05054336,-0.002498118,0.025278876,0.011648698,-0.059028376,0.05050473,0.032984603,-0.031244686,0.015600254,-0.022496533,0.014954426,-0.0023963505,-0.012510777,0.034369428,0.031169571,0.03375899,0.04584166,0.017583778,0.011866604,-0.04048097,-0.005503977,-0.012793982,0.030710544,0.012339413,0.012440701,-0.00028545078,-0.04969176,0.031740632,0.056810632,-0.04120191,-0.006949048,-0.01381974,-0.01877413,-0.017232055,0.0004483299,-0.028146625,-0.05702848,-0.035226397,-0.03046278,-0.024706686,-0.034570314,0.028710105,0.033392407,0.007216694,-0.019115843,-0.027265698,-0.0018856095,0.039828707,0.040595792,-0.05282456,-0.035607193,-0.022925684,-0.016283328,-0.007741054,0.016640855,0.014407028,-0.0140212905,0.0022472313,0.009512286,0.06171869,-0.026267642,0.026890367,0.01850057,0.019373978,0.003408407,0.005532456,-4.201631e-05,-0.008312758,0.032386396,-0.04143716,0.027896328,0.008510921,0.0314767,-0.022293905,0.04935393,0.0062473575,-0.001723133,-0.0047282022,-0.017165473,-0.012554531,-0.0065679257,0.0065460256,0.0030042501,0.042113733,-0.022305062,0.004074271,0.02008493,0.012952863,0.027253479,0.053381924,-0.017681994,-0.048310082,0.019578086,-0.025020631,-0.001491706,0.02607573,-0.03814006,0.00039819547,-0.017742673,0.03731348,0.002808969,-0.008191735,-0.011262456,0.0064904173,-0.014909766,0.07776118,0.044430573,0.035301123,0.042097084,0.020069815,-0.00781052,-0.042518046,-0.010319297,0.029191801,0.009713818,-0.03360177,-0.06493453,-0.008701581,-0.042966746,-0.005424232,-0.010774488,0.00038466894,0.03287104,-0.022061283,0.07344671,-0.033344254,0.04865279,0.046515882,0.03098062,-0.00748449,0.027075319,-0.036883883,-0.06599452,0.022713432,-0.027220936,0.037029583,0.034441974,-0.012237274,0.032201055,-0.06024164,-0.012423328,-0.028207242,0.0026552707,-0.0069629303,-0.009781627,0.0066946098,0.0025495507,-0.006208127,0.039411485,0.03667234,-0.022456909,-0.025834331,-0.018220255,-0.018687101,-0.008444731,0.018633299,-0.0065037417,0.026173437,-0.019971797,0.025977159,0.026804382,0.016562713,0.024276339,-0.00577682,0.006284029,0.022956632,-0.021334756,0.0040900437,-0.01747028,0.011491332,-0.015983282,0.019890053,-0.00046151463,0.014053093,-0.011474394,0.036335766,0.026991704,-0.0012954524,0.0043777404,-0.009987938,-0.047532517,-0.03365112,-0.022577494,-0.0030568459,0.00054296915,0.0048807906,0.0042684176,0.043901097,0.03909519,-0.022926737,0.031651285,-0.00035648048,0.0070595616,-0.030207539,0.046783112,0.016996661,0.029663304,0.0011210829,-0.0005898662,-0.009946937,0.050171718,-0.001661607,-0.057141073,0.006833493,-0.019881655,-0.022677138,0.0017714106,-0.015787384,0.004805142,0.003801928,0.010635772,-0.033769656,-0.015964542,-0.0131377475,0.030884717,-0.019866483,0.031802706,0.0109053105,-0.008577476,-0.0036408107,0.029080309,-0.009883612,0.03614009,-0.02843904,0.008944746,-0.013485478,-0.014872719,0.04405813,-0.0010859147,-0.012369893,-0.033081166,-0.034534875,-0.014045929,-0.020057281,-0.035619702,-0.036283594,-0.01999479,0.011317487,0.015784271,-0.043914013,0.024418738,0.007394433,0.082651705,0.07195701,-0.024332175,0.03955447,0.0025207216,0.049097493,-0.004058911,-0.03337017,-0.028995289,0.04861348,-0.001579793,-0.027811915,0.031192614,-0.0067483517,0.03275062,-0.013174287,0.018173221,0.034800652,-0.0028050144,0.07575321,-0.0077553755,-0.028493967,-0.020193657,-0.019426221,0.029493447,-0.0066739246,-0.04149347,0.0044042263,-0.026255378,0.044673286,0.031343,-0.010163701,0.012706835,0.031726796,-0.038063455,-0.01662006,0.06531382,0.03313108,-0.014535452,-0.047305778,0.007838949,0.02601754,-0.021629088,-0.024083925,-0.0015452668,-0.017698983,-0.017179592,0.010662689,0.009929773,-0.0077820816,-0.0042151087,0.023596415,-0.0041900557
CURIOSO,0.0038321603,0.0151664,-0.015604055,-0.060641095,0.014165199,0.03278637,-0.011076374,0.026864385,-0.0398912,-0.071600616,0.1306293,0.08888966,-0.0084150415,0.048089765,0.008393896,0.0008787676,0.04394774,0.040691655,0.03414119,0.03560576,-0.06452811,0.008552301,0.014822717,-0.027089803,-0.06267449,-0.045207493,-0.02850303,-0.0144658005,0.04476437,0.031501994,-0.0021702924,-0.015554046,0.015349312,-0.023304451,0.034432776,0.013574773,-0.011613771,0.020553946,-0.028107252,0.033114053,-0.03735859,-0.13167273,-0.04999411,-0.017512128,0.03472241,0.03456038,0.01824825,0.0008424406,0.016932402,-0.023258448,0.028964093,0.0438631,0.038223527,-0.010017723,0.008221824,-0.009508507,0.0037648107,-0.0118301585,-0.014265625,-0.033481844,0.0034665675,-0.0065040602,0.023671119,-0.0030689724,-0.0077483384,0.013957372,0.05887831,0.059437554,-0.006342228,0.011656199,-0.012762697,0.021839201,0.0246691,0.01965943,0.0059486395,0.0020015116,0.08375816,0.03790655,0.02810667,0.012868929,-0.04225368,0.0016751147,0.006737179,-0.0040741134,0.022822997,0.026890446,0.013879398,0.017233135,0.030682802,0.013206646,-0.025658917,0.023304012,-0.04003641,-0.0036137155,0.0016044279,-0.00094415824,-0.060553588,-0.038553704,0.021220556,-0.027405513,-0.024036191,-0.014491364,-0.04603386,-0.050121423,-0.009692358,0.033621315,-0.000743427,0.019858655,0.016098164,0.0021537913,0.008408022,0.0052852416,0.0706898,0.011505127,0.01705095,0.041656043,-0.0061620506,-0.02942045,0.07752646,0.017256044,-0.022781258,-0.03848841,-0.063880764,-0.04504503,0.031902254,0.023329157,0.030860946,-0.003784727,0.013411697,0.0037132204,-0.044301983,0.032495078,0.02496337,0.02686323,-0.053175196,-0.013133123,-0.042385366,0.00063085556,0.099031076,-0.002856424,0.06636473,-0.006929826,-0.020142056,0.00051249936,-0.08541317,-0.045941837,0.02794836,0.044188157,0.01092771,-0.042571552,0.022411948,-0.019775664,0.030533208,0.0031154733,0.061588787,0.002490392,-0.0013801561,0.030987274,0.0024758354,0.0072993673,-0.008792972,-0.0075895204,0.07527222,0.02009884,0.024485633,-0.04438895,-0.022581037,0.015936013,0.02624911,0.023729574,0.00092934945,0.0005562815,0.031464934,-0.02526145,0.0073560043,0.02319834,-0.006709071,-0.012829607,0.010816965,-0.01023772,0.05504103,-0.052611493,-0.018911209,0.045844987,-0.060192253,-0.0059201,0.036971904,0.025811082,-0.011111738,-0.0033695195,0.040598594,-0.0077653727,0.05389136,0.023321468,0.013223575,0.042714026,0.0040967893,-0.040268146,-0.02266851,0.06246052,0.047538064,0.10047986,-0.020199297,0.010025496,0.0004223163,0.10320556,-0.027413322,-0.056670018,0.06897273,-0.013150437,-0.03522692,-0.007500326,-0.07237491,-0.0070538362,-0.01669653,0.0007826506,0.015897008,-0.0325433,0.03256696,-0.0001327426,-0.018124841,0.02060296,-0.029205974,-0.027620222,0.046085507,-0.0042876974,0.0027977442,0.041458543,0.040299926,0.008977121,-0.0064490377,-0.039657675,-0.016967483,-0.0046779453,-0.07099702,0.005889736,0.012239521,-0.024643563,-0.028115582,-0.058228474,0.026317736,0.023887409,0.038484044,-0.017157031,-0.09124928,-0.040539738,0.015291153,0.07753424,0.044706892,-0.054501943,0.025062894,-0.0054512424,0.044481136,0.018524218,0.014390277,-0.03423383,0.0041579334,0.025196856,-0.014355503,0.05144807,-0.026637187,0.009837791,-0.05117757,0.022303334,-0.027941745,-0.009251427,0.0076953014,0.004512543,0.03141289,0.019186322,0.0155000305,0.026048746,-0.045268677,-0.031045645,0.025171315,-0.036177576,0.024662277,0.0141352005,-0.019913394,0.070435956,0.017441668,-0.025342956,0.019051258,-0.010115594,-0.03726455,-0.025122633,0.0054151732,-0.016610276,0.027376441,-0.031792447,-0.013082854,-0.072149545,0.057016235,-0.019950453,-0.03785582,-0.0021081183,-0.05831514,-0.0024479642,-0.0025584463,-0.0012208702
INCREDULO,-0.006923724,-0.028790614,0.017981047,-0.018742368,-0.00501901,-0.016381128,-0.001824623,-0.023561511,-0.005822084,-0.020398831,0.0835517,0.019404845,-0.019180465,0.0006890923,-0.10150428,0.04697177,0.032835,0.030691076,0.0340513,-0.0050497255,0.038222514,-0.023682768,-0.029527936,0.033321925,-0.018048514,-0.056129675,-0.020813253,0.012447925,-0.016115256,-0.0896014,0.041231744,-0.05701442,-0.009046661,0.016699173,0.0057611186,0.015156803,0.023513759,-0.0008842321,0.019525062,0.024676401,0.032946113,-0.04677671,-0.045804046,0.0114106005,0.025540246,-0.005362653,0.023539253,0.04538824,0.08467104,-0.046820696,0.006259079,0.005142176,-0.008707248,-0.0064099957,0.028304096,-0.041368317,-0.0027578142,-0.018765172,0.03183877,0.038476698,-0.0094923675,-0.0388226,-0.041301746,0.04448958,-0.0006408915,-0.021441607,0.030683398,0.0376549,0.016641455,-0.0015446581,0.0040298672,-0.027104257,0.03551153,-0.0059845634,-0.001072932,0.00174315,0.031296972,0.047416184,-0.0062591713,0.050924826,-0.022515496,0.017813157,-0.04457928,-0.01013313,-0.029131096,0.025414255,-0.021610452,-0.060695294,0.0618612,0.007395972,-0.026796874,0.0042707203,-0.05753806,0.012230757,0.017165734,-0.05358717,-0.04393015,-0.026890308,-0.010555409,0.0014577103,-0.020432277,0.04997479,0.03294093,-0.05977166,-0.013481559,0.00909993,0.03676916,0.042813994,-0.037459467,-0.0104673,0.018227056,-0.034848332,-0.015489808,0.032374233,0.0374384,0.02620332,-0.043889407,-0.060348034,0.060090825,-0.0075267493,0.004044105,0.03907454,-0.0058974586,-0.025547296,0.039443254,-0.015885888,0.007593279,0.0043976894,-0.009324005,0.035001174,0.059026644,0.047974534,0.02281891,0.023375385,-0.057153016,0.024840202,-0.07146658,0.0023982069,0.06272636,0.048870616,0.04244408,0.014676011,-0.073120974,0.09398272,-0.08656571,-0.024416856,-0.027893675,-0.012693796,0.00081747957,-0.010830538,-0.050384484,0.054096885,-0.011181887,-0.048427932,0.011140031,-0.03197542,0.056594104,0.015921587,-0.014828812,-0.055658348,0.00088987406,-0.03355525,0.044649042,0.03440848,-0.019887352,0.029237093,0.032917876,0.01830555,-0.03378493,0.0873204,-0.007898581,-0.049091004,0.009542769,0.010579374,0.00335964,0.0107407365,-0.009293209,-0.0035248157,0.0070973895,0.010967977,0.022028556,-0.0024154414,-0.059368804,-0.017734366,-0.048693307,0.062316038,-0.054449778,0.00021046586,0.037199296,-0.06269385,0.020436592,0.0017760647,0.04435467,0.053584628,-0.06154467,0.020324927,0.056709055,-0.028365599,-0.073560685,0.07273507,0.029844074,0.005936127,0.016714398,-0.005802662,-0.0051733535,0.041223414,0.006347429,-0.094935104,0.02169484,-0.043225482,-0.007880982,0.0028892807,-0.004827061,0.020722233,-0.032050025,-0.01266412,-0.019481262,0.004722419,-0.026611727,0.0065323105,-0.023088172,0.040201787,-0.016878162,0.007858552,0.03622174,-0.02135045,-0.009438299,0.02061069,-0.035086162,0.015096579,-0.018237779,-0.020104093,-0.011145978,0.007774875,-0.0051583075,0.040975068,0.005300793,0.015069153,-0.018105015,0.03767848,0.02323635,-0.053028405,-0.005828958,0.0038637053,-0.059083357,0.05071803,-0.023323637,0.05608952,0.065234594,-0.04470513,0.0403754,-0.03199279,-0.021967899,0.03588352,0.024398027,-0.0073526083,0.0040114103,-0.027502581,0.017610393,0.05165156,0.02361498,-0.035774257,-0.0044799317,-0.024238735,0.05996544,-0.05155614,0.07264694,0.020456012,-0.04480397,-0.0009218063,-0.052226137,0.028415428,-0.034556985,-0.014411297,-0.02891928,-0.046385005,-0.01516138,-0.0018645651,0.028313557,0.025063584,-0.022853782,-0.032126755,0.019308627,0.011208056,-0.01292504,-0.050151028,-0.030396173,-0.051735878,0.022617944,-0.020819996,-0.0815625,-0.042952873,0.04175321,-0.01609469,-0.025765423,0.013527067,-0.04085137,0.015555731,0.020016395,-0.053615984
COQUETEADOR,0.010514542,-0.004509869,0.0069069583,0.006572128,-0.015233434,-0.015198926,0.008145226,-0.0050326926,-0.014908196,-0.008406171,0.060171466,-0.022911986,-0.015363571,0.017591003,-0.011203265,0.010166763,0.0014052015,0.042985823,-0.008738066,0.019597309,0.0076599815,-0.0046209744,-0.011682081,0.051606845,0.028132468,0.015919348,-0.049753524,0.015394338,0.005124376,0.011476708,0.005052069,0.003290302,-0.0122332955,0.0132769905,0.00410951,-0.00056929287,-0.0055566877,0.025134329,0.021646155,0.014852713,-0.02852881,-0.037094425,0.0030332145,-0.010034698,-0.028371181,-0.006751084,-0.005584041,-0.018289821,0.032195285,0.0069602192,-0.023693608,-0.050296295,-0.017668616,0.016951371,-0.012934916,0.02138019,-0.011702636,0.022411916,-0.010510407,-0.008764746,0.009346532,-0.0030616506,-0.021364015,-0.02053601,-0.014336973,-0.042146105,0.0047550444,0.0048264945,0.028211482,-0.038148083,-0.009933997,0.022219766,-0.009394653,0.01254724,0.009131387,0.00075135793,0.04500745,0.02334738,-0.008296256,0.005174679,-0.016641153,0.0024251775,-0.0052684643,0.014509563,-0.004878993,0.019494709,0.0030642438,0.0015629019,-0.034254536,0.018025586,0.0019581032,-0.0047398084,-0.016774226,0.035681058,0.03545745,-0.022380346,-0.016526975,-0.016612248,-0.016034968,-0.039902873,-0.007529826,0.02884489,0.032936793,0.01844873,0.0029189491,-0.023151865,0.0070904293,0.008768786,-0.024329925,0.033361197,0.008800031,0.00010579949,0.0387444,0.023693101,-0.03136904,0.01663442,0.015768068,-0.016712753,0.059080888,-0.016712539,0.007818905,-0.020232439,0.010306109,-0.049352143,0.008985588,0.03333863,-0.00251698,0.010036251,-0.008948581,0.012079645,-0.0018132279,0.058172345,0.012701213,0.034971032,-0.015771413,-0.007010988,-0.036175918,0.009093116,0.019219166,0.008591058,-0.021131476,-0.024321683,-0.018480325,-0.0006775173,-0.045871086,-0.0446009,-0.010678914,0.03846204,0.00344314,0.009884811,-0.027545247,-0.0139097255,-0.0012553558,0.0017496401,0.022818834,0.00011255509,0.0012036666,-0.00526048,0.0022860179,0.017857106,-0.00219132,-0.01784581,-0.026319398,-0.025029816,0.012552834,0.025291296,-0.018738443,0.0054772366,0.0071559474,0.01354159,0.013604062,-0.034410417,-0.0037295467,0.013920339,0.029441036,0.010513563,-0.0045022634,-0.004287475,0.051084347,0.0017406535,0.049683005,0.036500745,0.0026759142,-0.0057307994,-0.005401363,-0.018097559,0.01643656,-0.01936964,-0.0060975538,0.012229766,0.00086093694,0.008717964,-0.0059782,0.0016041042,0.007881743,0.05025901,0.017696032,0.008667338,0.0019135342,0.04503782,-0.026439512,0.029380824,-0.00013708406,0.014952888,-0.062924884,0.030820156,0.051200125,0.020064987,-0.021437781,0.009948751,0.002589583,-0.0052615465,0.0059185117,-0.03384135,0.012222363,0.0091935,-0.02566932,0.0059391386,-0.0047355285,0.006486269,0.023786416,-0.010736917,0.008730655,-0.017561188,0.009569309,0.013055779,-0.00017093039,-0.004362399,0.014904092,-0.011351362,-0.0013788581,-0.020664973,0.010294292,0.017617986,-0.004283546,0.008965787,-0.016463012,-0.006436051,-0.004516695,-0.012090532,-0.0042709247,0.0075856936,0.0030925148,-0.02045093,-0.00962692,0.007210358,-0.01780451,0.030187676,0.037437744,-0.040846836,0.05241218,0.028190054,0.0763131,-0.005596075,0.030704286,0.03212636,0.012158741,0.010490026,0.008176913,0.0073875105,-0.006558264,-0.025281768,0.0031132346,-0.045632277,-0.0021369334,0.022544716,0.014734236,-0.0036153842,0.003541852,0.006477126,-0.0023273723,0.0030943942,0.0021871584,-0.0084235715,-0.0045333365,-0.048633806,-0.026138207,0.005966554,-0.015434755,0.06279336,-0.011261985,-0.02591249,-0.005412637,0.012049755,0.0086456435,-0.012354324,-0.016168304,-0.006265369,0.045309827,-0.01169317,-0.0015016331,-0.022923578,0.005191901,0.014910883,0.008657334,0.017987732,-0.01896688,0.0008373601,0.014896695,-0.0055972515
SERIO,0.09859794,-0.09311184,-0.014580004,0.019300012,0.00894846,0.031868927,-0.0725093,0.035681218,0.011549473,-0.12888248,0.13660093,0.05489719,-0.020276906,0.044390276,-0.066784024,0.027226802,0.015055435,-0.017564133,0.05664758,0.011744751,0.008497283,0.09283974,0.04973256,0.02777314,-0.005360077,-0.03797011,-0.0046427064,0.04760153,0.064447425,-0.09700078,0.013591446,-0.014832652,-0.045351736,0.016961016,0.029449059,0.04268618,-0.055294044,0.028059961,-0.07362463,-0.0053038513,-0.034966115,-0.07419236,-0.057914685,-0.053295437,-0.09478368,-0.05569196,0.016928863,-0.15239798,0.052388493,-0.10570866,0.0949812,0.033468217,0.059425324,0.05561942,-0.06050698,0.016027644,-0.04894402,0.020272236,-0.087508045,0.06820497,0.115681395,-0.00087635685,0.064770825,0.061374288,0.016007487,0.045003586,0.003432637,0.07321313,0.017970916,-0.028648932,0.013108964,0.045713305,-0.03334935,-0.026804484,0.020765658,-0.040963955,0.06357049,-0.03327718,0.029674772,0.023853417,-0.02510988,-0.0014202632,-0.035554502,0.023439277,0.04974769,-0.08128998,-0.016270021,0.01811971,0.027767304,-0.018930262,0.024004221,0.0056783212,-0.028816875,-0.0028244571,0.076719254,-0.1271453,-0.036770493,0.022265662,0.030126888,0.027891463,0.007329216,-0.16920373,0.04771174,0.029189792,-0.0030653756,-0.0050830794,0.022358857,0.047055777,-0.035329115,0.055860773,0.03716238,-0.064754345,0.081983715,0.034157675,0.09443059,-0.067965224,-0.04769372,-0.02790839,-0.049853347,-0.00349628,-0.026173647,-0.010720666,-0.019501384,-0.06418824,0.0479891,-0.15081538,-0.034970812,0.01256435,-0.05373448,0.0411193,0.061241753,0.089673966,-0.037072804,0.033386815,-0.035271794,-0.06823488,-0.045693345,-0.03540988,0.085647985,0.012174865,0.10169842,-0.058046646,-0.036647134,0.07111413,-0.13619687,-0.042689893,-0.0048809173,-0.046919715,0.01855947,-0.0076020453,0.037633147,-0.08934367,0.013361551,-0.028207611,0.09395597,-0.07022682,-0.031028442,-0.038753416,-0.059055064,-0.017914493,0.092472605,-0.0027090125,-0.012161267,-0.004721176,-0.027488206,-0.026291022,0.014628381,0.0032656263,-0.013187822,0.03035272,-0.029576164,0.0072397646,-0.011265314,0.037006445,-0.010596115,0.06357616,0.09429395,0.016010443,0.016543416,-0.048660666,0.10227886,-0.055104613,0.06079961,0.05480585,-0.011798186,-0.005561454,-0.048060805,0.077488706,0.043482896,-0.018474922,0.02083436,-0.06045957,0.012213789,-0.002260223,-0.046829414,0.119626224,0.0096855145,0.039428238,-0.02784416,0.09214857,0.034092978,0.08464443,-0.038282152,-0.043604482,-0.018727776,0.061304804,-0.017421335,-0.13228372,0.04142715,-0.0661837,-0.07492704,-0.040702626,-0.15217115,0.05246028,-0.015744807,0.0008483953,-0.028284736,-0.012780197,-0.047121778,-0.06517319,-0.0048049,-0.019340388,0.025562048,0.05062239,0.009247794,-0.020537455,0.010826183,0.011175615,0.0059320247,-0.0768517,0.020876242,-0.052709993,0.0037953225,0.06276996,-0.039791234,-0.006434897,-0.030558102,0.008224735,0.07504061,-0.0028937636,0.038575847,0.07859783,-0.0027042823,-0.03439638,-0.1780785,-0.04499548,0.0055281445,0.15770301,0.062394574,-0.070340514,0.012686685,-0.0955781,0.05693128,-0.028724726,0.054148115,-0.101219736,0.1126807,0.09068677,-0.025444854,0.02174159,0.02258861,0.110140175,0.009156912,-0.034850918,-0.029595178,0.020260546,0.030234357,-0.044551075,0.022598334,0.033282477,0.05622601,-0.019974716,-0.035810754,-0.0010857105,0.024043001,-0.049109776,0.018794587,0.079129495,-0.004723494,0.057901394,0.05451353,-0.07382426,-0.058340378,-0.06710156,-0.02154052,-0.0736584,0.030283961,-0.012806181,0.06289847,-0.052029803,0.016170988,0.022455052,0.048052803,0.084756434,-0.003834013,0.01594543,-0.14841464,-0.014400554,0.0927396,-0.00817458
DESCONCERTADO,-0.035392884,0.0018021198,0.0040768087,-0.03906493,-0.0056991754,-0.032510925,-0.018762004,0.056809068,-0.0050193663,0.015875889,0.043557584,0.027171627,0.0020185674,0.030451093,-0.060945727,0.0172815,0.024742207,0.032841288,0.022256678,-0.009327497,0.003996102,-0.0057919193,-0.0067410404,0.0327434,-0.056864172,-0.032855857,-0.04390347,0.02261132,0.006506406,0.017442307,0.011992442,-0.021323187,-0.010061143,0.002802736,0.017769746,0.017505305,0.002842951,0.0080894455,0.018140063,-0.0006656883,-0.015511509,-0.029075962,-0.028699767,-0.026064005,0.0029900826,0.017869622,-0.0035378053,0.023228047,0.045524344,0.039613344,-0.019011956,0.016737755,-0.023184504,-0.0083812205,0.027554182,-0.041848116,0.003909252,-0.02615784,-0.016188087,0.014102603,0.012612997,-0.0019242255,-0.011302842,0.014402836,-0.023930382,-0.029199556,-0.002849072,0.01653252,-0.02142414,0.0006798717,-0.001992749,-0.0019324677,-0.0009955615,-0.012215107,-0.016386539,0.051854443,0.024905166,-0.005499161,-0.013414536,0.0076858606,-0.026942533,0.032363094,-0.013499854,0.024156755,0.014634712,0.024525058,-0.0039784964,-0.01798353,0.037914492,-0.007371435,-0.0059543718,0.020902403,-0.012242256,-0.009479776,0.022034023,-0.022846803,-0.032903194,0.005385897,0.0059607844,0.017901067,0.0043042474,-0.004071509,0.004946451,-0.02638422,-0.0063448767,-0.0006560817,-0.015267093,0.016519343,-0.04840547,0.008293121,0.016348857,-0.013580093,0.0028408624,0.01396551,0.012157338,-0.00617316,-0.031406883,-0.011568452,0.028594097,0.00475034,-0.0042569796,0.009358428,0.0027869488,-0.03073151,0.009983294,-0.0014479853,0.005546817,0.01004244,-0.013423554,0.016376797,0.008302941,0.024842646,0.04166221,0.0035270627,-0.050114658,0.024455769,-0.022346808,4.299482e-05,0.05742412,-0.013729389,0.025700515,-0.010059111,-0.049256366,0.016969863,-0.019573227,-0.021609722,-0.00045090853,0.009078575,0.033248596,0.010720754,-0.015273023,-0.007922441,0.0043205023,0.007952496,0.068127036,-0.01334296,0.0063539334,-0.0103542,0.010241775,-0.003853739,-0.0038978558,0.015048992,-0.010626735,0.013130318,0.00089293567,-0.00435007,0.022370776,0.018468054,-0.0017672875,0.034908947,0.012190491,-0.03056129,-0.00076877716,-0.0019622939,-0.0018027335,-0.0074158325,-0.002466159,-0.008350208,0.0030786262,-0.020235013,0.056789856,-0.020859925,-0.035834365,0.019336402,-0.03760227,0.0016986945,-0.01308371,0.024487955,0.035341643,-0.0058262097,0.009326346,-0.0075000236,0.029501393,0.017449971,-0.039208073,0.027475376,0.028001836,0.008250928,-0.03941114,0.030720424,0.014820596,-0.03918799,0.031800713,0.005071915,-0.007050448,0.035625786,0.0010908942,-0.047599517,0.031837784,-0.013431197,-0.0069540567,0.01156145,-0.006479757,-0.0008009402,0.017196959,0.0037157647,-0.0026352922,-0.032737233,0.040584188,0.05778213,0.011304083,0.026149241,-0.004037042,-0.0037491943,0.0058665294,-0.016655888,0.02457267,-0.0044259895,0.0017368909,0.012612896,-0.013386639,0.011066857,-0.030331327,-0.02807591,-0.012769569,0.0001181146,0.0035693627,0.004123073,-0.019488785,-0.005843791,0.0005553927,0.0027106553,0.018987939,0.005057768,-0.07100829,-2.2052322e-05,0.0010719779,0.015336334,0.03352829,-0.011269381,0.022852268,-0.026369674,0.017503036,0.028859055,0.010737657,-0.0115490295,0.014289467,-0.0053075403,0.01136769,0.051661085,0.036332738,-0.003813884,-0.021937069,-0.0034580096,0.017321227,-0.024043914,0.023868456,0.025224917,-0.0013595963,0.0070980485,-0.029618625,0.00765706,-0.015552419,0.0011822013,-0.02639053,-0.0024408055,0.004431016,0.0331863,0.024452563,-0.0021785852,0.003204714,-0.010174908,-0.0012887971,0.012431821,0.015704587,0.009207936,-0.0134476945,-0.04352732,0.027004821,-0.00075084966,-0.019879382,-0.05701556,-0.024127387,0.0007134128,-0.01811987,0.020825066,-0.023141693,-0.009111009,0.024210526,-0.015287738
INDECISO,0.05016916,-0.061099775,0.0034992788,-0.01844753,-0.0364546,-0.033173583,-0.008591701,0.057762973,-0.021390688,-0.03713493,0.061880805,-0.034996174,0.041954573,-0.023723315,0.012294155,0.024438174,0.02674118,0.0177529,0.043981776,0.08511551,0.022287725,-0.008003956,0.021004666,0.029995993,-0.0024165306,0.0174982,-0.033810716,0.060797922,-0.037532058,-0.06565224,0.027426865,-0.04090996,0.012277525,0.11912305,0.06940539,0.056426354,8.436027e-05,0.03556194,-0.024401339,0.053532574,-0.011499126,-0.02098781,-0.033563785,0.012450636,-0.013984228,0.008195009,-0.001985665,0.029723922,0.00942121,0.038223743,0.0022139805,0.030204888,0.050367784,-0.007768493,0.051751547,-0.051647775,-0.058566224,-0.020264445,-0.021059368,0.018052962,-0.0015807577,0.0014953704,0.030986851,0.054379325,-0.01776003,-0.06315934,0.0029407637,0.036329016,-0.018825471,-0.00650558,0.01325191,-0.007892752,0.0016331351,-0.0033933287,0.03230235,0.10277826,0.0072654327,-0.035151836,0.08887359,0.04339041,0.016152631,-0.002159124,-0.02857944,-0.08179526,-0.052736275,0.014379505,-0.04401889,0.02091581,0.049314536,-0.0382414,0.020850169,-0.03467273,-0.024212817,0.0127350725,0.07227092,-0.047064528,-0.021578448,0.01696083,0.0074770246,0.0035664972,-0.0031875097,0.05085594,-0.021678338,0.04568415,-0.021925258,0.0052167275,0.0130018415,0.04710224,0.050605927,-0.008902496,0.0016465787,-0.026283333,-0.00083429797,-0.007454727,0.074868426,-0.0006861099,-0.051402614,-0.028781641,0.020940106,0.001344683,0.038159568,0.040147062,-0.02233916,-0.025258342,0.003913244,-0.031743616,-0.033244353,0.05184216,-0.04053138,0.053882398,0.020970251,0.0677072,-0.011290197,0.024515213,-0.07303139,0.05598557,-0.049210306,-0.0155559,0.09441797,0.04921259,-0.029273914,0.012995786,-0.039990082,0.046369534,-0.072904386,-0.033102967,0.020353366,-0.01651915,-0.0020739522,0.011502106,-0.0067294333,0.03279982,-0.01081776,0.027010158,0.08249646,-0.012020878,-0.047300868,-0.05478752,-0.027344279,0.017716054,0.059655298,-0.03653468,0.0008630471,0.016304802,0.040609676,-0.024309019,-0.026406147,0.028511548,0.005302226,0.07392678,-0.011847805,-0.040123917,0.017659752,0.00036411147,0.0043761143,0.0101528745,-0.0029971255,-0.0052259993,-0.021558305,0.04224423,0.065547705,0.03492586,-0.049519636,0.02026017,-0.04042263,0.015383143,-0.04384237,0.0026740625,0.032669242,-0.006121542,0.002854999,0.0062354333,0.10425129,0.059110098,-0.057428367,0.045496184,-0.017351711,-0.019975377,-0.044921327,0.0839818,-0.027422938,0.042270508,0.057203256,-0.0029016372,-0.0089380555,0.05768785,-0.008031601,-0.07772692,0.05847323,-0.025281316,-0.043855827,0.033781957,-0.0031789863,-0.029366156,0.011162153,-0.027917136,-0.042713985,0.011064669,0.024670446,0.10480574,0.044548385,0.062352438,-0.03173891,-0.026450636,0.039099928,-0.005447756,-0.0122872405,0.028166674,0.022253085,0.0026669668,-0.065476745,-0.04471953,-0.06507303,-0.051089007,0.02731668,-0.025249649,-0.015537073,0.018127125,-0.03292137,-0.041586455,-0.011125376,-0.04671998,-0.02758073,-0.041836195,-0.1226768,0.032445766,0.048140135,0.056829948,0.07352286,-0.057435323,0.025419543,0.019059578,-0.016968172,0.011623377,0.040192977,-0.019370146,0.032105852,0.009014738,0.0048099365,0.07722399,0.029760968,-0.020763228,0.030870568,-0.022175828,0.041732725,-0.055374075,0.036068406,0.061491344,-0.011974898,0.02635053,-0.019338857,0.045149457,0.029840998,0.003561953,-0.017710496,-0.043937184,-0.005507263,0.08380564,0.04409847,0.04497455,-0.06581367,0.018315008,-0.06263075,-0.012328783,-0.0024540452,-0.035767715,0.012314408,-0.033590518,-0.0036956947,0.007909151,-0.0055445414,-0.074828245,0.03218387,0.061781004,-0.032458927,0.009999972,-0.025143603,0.009846095,0.015432561,-0.007619719
